1535 128
107 -0.08112177 0.08215977 0.039079085 -0.032992464 0.019598054 0.10950506 -0.22229624 0.021363033 -0.052193582 0.04197619 -0.08899278 -0.16364463 -0.26686156 0.14701505 -0.17724928 0.22526 0.0009508058 0.31337315 0.008147329 -0.014475814 -0.1011882 -0.013873101 -0.3961268 -0.0956504 0.11826335 0.1156172 0.1439945 -0.43975657 0.10716093 -0.10865517 0.25612056 0.080778986 -0.007576608 -0.33424845 0.009951605 -0.013919915 0.14311098 -0.099239364 -0.14995444 -0.044566885 0.3214872 -0.055860836 -0.21312678 0.080101624 -0.04787098 -0.20925185 -0.104627684 -0.03850775 -0.14544682 -0.15692939 -0.036356892 -0.11991011 0.18333007 0.02576043 -0.47762808 0.16906336 -0.5433925 0.21112728 0.28288203 0.15313214 -0.0039818618 -0.03686381 -0.23138909 0.19158603 -0.21964556 -0.04882378 0.14096604 -0.084526144 0.08780202 0.09424802 -0.073787905 0.17499189 -0.44207126 -0.19309972 -0.03475289 0.06818034 -0.033923678 -0.28164598 -0.008289076 -0.0007629332 0.09367621 0.15484725 0.21298204 -0.07646326 -0.013475418 -0.14957878 0.15074831 -0.030658092 -0.031589042 -0.09942511 0.030047057 -0.1929354 -0.23231673 0.16932778 -0.17078026 0.1640324 0.005322743 -0.07358506 0.32205272 -0.12720026 -0.09293657 -0.28962204 0.017111465 0.13506217 -0.115827225 0.10291946 -0.15399285 0.19325599 0.09390017 0.131989 0.009355094 -0.22295962 0.12718618 0.115222804 -0.115135096 0.07748842 -0.28680465 0.17608766 -0.0040487684 0.15233445 0.38444 0.05219334 -0.41059637 0.026708871 -0.13010451 0.1034237 0.07245027 0.053789783
0 -0.2925581 0.037332553 -0.09266637 0.08086838 0.15461786 0.08488133 -0.056544315 0.099075004 0.17562036 -0.089773186 -0.16432782 0.031349543 -0.3616939 0.049783133 -0.09781277 -0.056727946 -0.1337132 -0.15923995 0.26426312 0.07242296 -0.40421948 0.13295701 0.018603304 -0.19598927 0.28500423 0.47385895 0.27066672 -0.19844009 -0.26001364 -0.21484472 0.02160879 -0.17590846 -0.11189805 0.040336926 0.021011792 0.23592387 0.23191254 -0.13386284 -0.04738584 -0.16841975 0.19698732 0.19757763 -0.41271174 0.15846846 -0.48650724 -0.24632986 -0.65884477 0.00045305758 0.31807196 0.20928112 -0.013648539 -0.1743586 -0.17103265 0.31861225 -0.0757402 -0.030479837 -0.1323566 0.39324242 0.091968596 -0.084889024 0.1814811 -0.12337308 0.3770872 -0.18537734 -0.07265127 0.1533184 0.0027702665 -0.11460408 0.11390125 0.05486626 0.46024528 -0.2642187 0.16184556 0.10165954 -0.35118535 -0.24802174 -0.21528934 -0.06720779 -0.043773197 0.0744679 0.062957376 -0.05588964 -0.16624095 0.30224153 -0.25580993 0.22059318 0.5315759 0.4889398 0.13991526 -0.24856707 -0.13112563 -0.1568325 -0.14681575 -0.175445 0.15891205 -0.05124685 0.2294918 0.1915198 0.08715187 -0.120784126 -0.35397163 0.08321228 0.1893516 0.07130473 0.2640672 -0.17343573 -0.05530612 -0.09929834 0.25011435 -0.15072569 0.32612646 0.15430804 -0.15582201 -0.03685357 -0.073605135 0.14248198 -0.016566118 0.4162171 -0.040478572 0.16394058 0.17755876 -0.36839208 0.085043505 0.008797859 -0.018875109 0.07058123 -0.2417336 0.20543301
136 -0.009050017 0.0559924 -0.2965477 0.10846586 0.33377087 0.3688353 -0.61258084 0.5799929 0.037059877 -0.1956293 -0.5564331 0.14815027 -0.32894257 -0.10928059 -0.3412776 -0.022011656 -0.19773272 -0.3681386 0.36278483 0.33343807 -0.12549946 0.27727425 -0.040760852 -0.15684316 0.013718884 0.43869346 0.16204183 0.020107256 -0.364328 -0.4514668 0.3427845 0.16525592 0.23888378 0.12829168 0.1374249 -0.1607404 0.06790224 -0.03418724 -0.2290983 0.07531459 -0.12687963 0.18670279 -0.0521688 0.15730701 -0.0789905 -0.17298707 -0.13592638 -0.14741188 -0.027871646 0.5445411 -0.21597707 -0.13105857 -0.23689514 0.31599808 -0.009474845 0.042418987 -0.28028655 0.12308531 0.19914201 0.41503263 -0.14831074 -0.62029684 0.42988563 -0.040644668 -0.52480835 -0.026119273 -0.07159728 -0.18919554 -0.03226829 0.46662807 -0.2472906 0.21369608 0.0549505 -0.028385725 -0.0035124319 -0.03624772 -0.36674502 -0.18281782 -0.31940264 0.42835104 0.04537686 -0.10736516 -0.16117786 0.3077355 -0.021576455 0.29750904 0.06736563 0.3408048 0.1074476 0.093638726 -0.012018594 -0.21354206 -0.17551838 -0.25266173 -0.28051454 -0.2671931 0.11231395 -0.12388646 0.10259983 -0.37627763 -0.055654597 0.17099541 0.3746466 -0.108137414 0.29211417 -0.052077115 -0.18440604 -0.22924028 0.18648733 0.15203068 0.47559014 0.25475284 0.30200377 -0.031482354 -0.34792304 -0.2511333 0.29568082 0.52013314 -0.4459752 -0.30156106 -0.18190105 -0.6047635 -0.36652443 0.31499982 -0.3506448 0.18962322 -0.08117809 0.34474772
56 -0.15729201 0.209775 -0.2059557 0.07034406 -0.13671345 0.114351586 -0.36689812 0.4960646 0.063174926 -0.05310058 -0.664368 0.025308637 -0.48292643 -0.06312998 -0.06852703 0.20953731 0.16813152 -0.36449105 0.27951032 0.1886349 0.03178093 0.13715109 0.014262406 -0.33544543 0.24678832 0.2259975 -0.1293183 -0.022876581 -0.5394528 -0.15479428 0.07034834 -0.18288916 -0.38011274 0.1632123 -0.00095874764 -0.06532283 0.4736952 -0.1460656 -0.03940073 -0.2772045 0.19251831 0.1999194 -0.52222353 -0.12877935 -0.483561 0.007181539 -0.8150053 0.074788325 0.080813274 0.2125884 0.063349076 -0.19967857 -0.21934348 0.42753246 -0.016110428 0.18163362 -0.084512696 0.24072126 -0.0090106465 0.024777707 0.2651964 -0.28605774 0.41467893 -0.35508037 -0.40243778 0.10426256 0.181309 -0.21786319 0.12952863 0.32425892 0.11417426 0.029521449 -0.09605279 0.36004457 -0.21968822 -0.3352686 -0.29149583 -0.32745463 -0.18022068 0.11778746 0.21997505 -0.1979778 -0.06570892 0.2691496 -0.032435223 0.17372103 0.22077332 0.10294383 0.20136629 -0.24694037 -0.06963109 0.01789159 -0.1585377 -0.061832014 -0.000171352 0.00091055146 0.15046036 0.042433046 -0.04735512 0.12887831 -0.18521343 0.27573478 0.09109613 0.20772971 0.29082638 -0.31043175 -0.1178364 -0.11631586 -0.0073303017 -0.09330263 0.5807954 0.10862897 0.003991901 -0.08271814 -0.09489463 -0.04735656 0.006616483 0.7633662 -0.24406044 -0.014720393 0.24057221 -0.6002834 -0.067022905 0.3849042 -0.24463855 0.039673954 -0.10730938 0.39924198
67 0.028470775 0.19231077 -0.174299 -0.06272778 0.011430905 0.16129906 -0.37010208 0.363045 0.023603108 -0.18032141 -0.5699923 0.02316008 -0.50491244 0.06034037 -0.087123044 0.18038383 0.10735032 -0.38813514 0.2401054 0.13591355 -0.06852356 0.14467843 -0.032678124 -0.26809046 0.2309364 0.11295156 -0.13687907 -0.061858542 -0.47247294 -0.20057039 0.014669219 -0.20010214 -0.31384254 0.17167403 -0.121285915 -0.0336462 0.3058067 -0.06795611 -0.023537854 -0.22684914 0.04258449 0.0005806022 -0.41969538 -0.06740646 -0.28603467 0.07213692 -0.6008163 0.01565864 0.10714176 0.23455931 0.048721176 -0.17858675 -0.24566583 0.34966365 -0.051274247 0.17493296 -0.24229185 0.21296193 0.111770436 0.00106206 0.088973425 -0.30767438 0.33263627 -0.39499402 -0.41246516 0.093600154 0.15907837 -0.26195964 0.20483387 0.4312749 0.16105479 -0.0044175815 -0.066596165 0.4001057 -0.33513322 -0.5553461 -0.42833504 -0.24334463 -0.3651316 0.20945032 0.21543504 -0.10404349 -0.0336368 0.4566503 0.02539416 0.16397113 0.41635126 0.21949041 0.24352047 -0.24081694 -0.114744775 -0.11124915 -0.11767635 -0.19189459 0.016095309 -0.060824502 0.23396567 0.04393033 -0.05536856 0.05972497 -0.28405508 0.29694188 0.14350562 0.12932688 0.32091975 -0.28675914 -0.13178061 -0.18740405 -0.088978425 -0.040732674 0.47868934 0.17943496 -0.042267535 -0.020769699 -0.20341346 -0.0440336 0.14752582 0.91651386 -0.20973128 0.0037393318 0.20546447 -0.52579755 -0.12625943 0.43296683 -0.1315112 0.008629319 -0.12405254 0.368814
322 -0.19020681 0.32079113 -0.16901962 -0.15254213 -0.113756925 -0.03414089 -0.35692707 0.29764444 0.013008154 -0.13477209 -0.52624387 0.14992459 -0.5901248 -0.1676181 -0.23776078 0.23581243 0.2779501 -0.17243458 0.15431115 0.21721494 -0.097305834 0.2318168 -0.0710629 -0.50207007 0.4033496 0.28975216 -0.15242574 -0.031438045 -0.5841931 -0.0049377065 0.041781098 -0.1723349 -0.27866092 0.08833912 0.028423356 -0.034009457 0.40396592 0.01436504 -0.037160717 -0.12351673 0.2028559 0.17886755 -0.4900356 0.085322365 -0.353293 -0.20636444 -0.496326 0.0334315 0.14015137 0.32746366 -0.050124954 -0.37999374 -0.10652518 0.46341214 -0.028152581 0.018536912 -0.08073688 0.32418057 -0.017961236 0.14524578 0.25961488 -0.4416952 0.4704277 -0.36102295 -0.43786448 0.19851175 0.10952823 0.019129017 -0.10769982 0.21120651 -0.18248022 -0.026597762 -0.028359009 0.34729347 -0.37784415 -0.2957013 -0.35709777 -0.2817864 -0.22075309 -0.06259177 0.033842273 -0.14575972 0.0046994053 0.43147114 -0.15993187 0.18098055 0.30878633 0.09327567 0.23232299 -0.24898799 -0.07243283 -0.091926694 -0.10700327 -0.15656902 -0.08243289 -0.050419297 0.31258368 0.1967852 -0.06727169 -0.04588956 -0.21343549 0.085592605 0.32266098 0.04756377 0.51002944 -0.38179314 -0.24644719 -0.25910735 -0.08063492 -0.04102748 0.37514755 0.15888762 -0.05852342 0.019457154 -0.024789503 -0.03700102 0.046412487 0.8124823 -0.06498261 -0.12543061 0.1572349 -0.65753734 0.038517628 0.4093445 -0.23493442 -0.019565156 0.052595265 0.31172678
271 -0.09221155 0.2591372 -0.111955635 -0.08094004 0.007364852 -0.058096502 -0.4823558 0.52311164 -0.0074385256 0.0071161264 -0.53707147 -0.11553047 -0.47386056 -0.01633928 -0.05381911 0.31795716 0.17083962 -0.36691007 0.113145515 0.17182401 0.01201731 0.118900694 -0.014147084 -0.25064108 0.2270858 0.2544833 -0.16158815 -0.06621008 -0.54329216 -0.16191635 0.017570673 -0.2367907 -0.2902425 0.24736087 -0.027682211 0.066822 0.47186595 -0.11461245 -0.10949586 -0.28578052 0.13374352 0.10135465 -0.64084756 0.03077316 -0.44846895 -0.097762674 -0.785611 0.04645343 0.101948634 0.24329855 0.0465718 -0.10598432 -0.15061101 0.316731 -0.035116784 0.24668601 -0.056964394 0.2512125 -0.040950526 -0.023233179 0.30563512 -0.40816027 0.46736437 -0.36672485 -0.51041305 0.18246838 0.09888814 -0.15268755 0.14317681 0.32683805 0.11784196 0.12737659 -0.09742276 0.3086162 -0.30925044 -0.4028097 -0.2862806 -0.2220881 -0.16245152 0.1056496 0.25255758 -0.21629535 -0.16057819 0.2899936 0.02856291 0.20528361 0.24633488 0.07599362 0.21309645 -0.3163051 0.037345383 0.032045938 0.052031357 -0.08683453 0.0011687262 0.036011133 0.14093715 0.084226325 -0.1206224 0.010646385 -0.37382776 0.4350055 0.050761428 0.06587619 0.24490716 -0.3086351 -0.2175083 -0.03529411 -0.08937829 -0.07642669 0.60427916 0.09405628 -0.07085877 -0.18371591 -0.046931315 -0.06377682 0.050243255 0.73700005 -0.14405349 0.023912909 0.40080953 -0.5284723 -0.108466186 0.46702525 -0.28590536 0.07433882 -0.07937807 0.46364942
171 -0.2061611 -0.17518604 -0.07815782 0.0753789 0.17892283 -0.07469935 -0.23811674 -0.04968151 -0.19775772 0.3272408 -0.040929127 0.046780016 -0.50256395 0.014931658 -0.09202657 -0.030628052 -0.3202884 0.019722467 -0.39684847 0.012635907 0.35368052 -0.16249275 0.031409826 -0.04624295 0.25637498 -0.2900602 0.026159607 -0.26776117 -0.13075452 -0.22601925 0.12537651 0.12024674 0.015070897 -0.2617474 0.12542853 0.22019097 0.3593651 -0.21771723 -0.21943873 -0.08035469 0.5603812 0.2277975 -0.4306275 -0.10684646 0.049987696 -0.010177817 -0.33283964 -0.1127239 0.3535471 0.064755216 0.2562295 -0.06437858 -0.20284614 0.02102308 -0.30966923 0.33443907 -0.45405358 0.114187725 -0.18184908 0.14345245 -0.14733317 -0.18345153 -0.07354081 0.025716532 -0.20885254 0.4869253 0.49408033 0.19927406 0.26482594 0.32201928 0.22681083 -0.04407035 -0.1810994 0.04106164 -0.2768389 -0.0077410955 -0.20293264 -0.2850853 -0.095922865 -0.010676791 -0.0038368017 0.20768324 -0.24107979 -0.2262087 0.20244633 0.14926615 -0.04437077 0.11586763 0.036818918 0.038780604 0.09961427 -0.08888741 -0.33805862 0.056874875 -0.15351379 -0.01825297 0.25346884 0.057183854 0.21342285 0.06456518 -0.15744369 -0.13811521 -0.1137468 0.17272794 -0.15076464 -0.1651279 -0.16768199 0.44139534 -0.034227762 -0.01919016 -0.028685758 -0.09897579 0.1916166 -0.056936517 0.040845383 0.22934714 0.050769996 0.24750243 -0.32583088 0.1090908 0.2014794 -0.2176297 0.05321535 0.14195277 -0.019578293 0.09156917 -0.11236621 0.14644733
119 -0.21425305 0.13130617 -0.23021431 0.084674 0.17972302 0.029096365 -0.5220172 0.10971598 0.12814021 0.13971907 -0.25217074 -0.124890484 -0.49704072 -0.10411894 -0.11157658 0.16142073 -0.1512369 -0.4869975 -0.0060545267 0.25923395 0.060530994 0.21552391 0.035252355 -0.18273507 0.26386717 0.18463814 0.009481697 -0.20552951 -0.5401392 -0.29049775 0.01054053 -0.116870105 -0.15680741 0.05485962 -0.105673395 0.09351197 0.112718284 0.047305714 -0.17608888 -0.1723265 0.15443912 0.31875604 -0.626968 -0.018744154 -0.12229985 0.07785039 -0.7197773 -0.053294513 0.18303435 0.12922958 0.009620442 -0.058520976 -0.14247544 0.337587 -0.1670999 0.25534132 -0.23962252 0.2783892 -0.0432784 0.04048682 0.01656519 -0.23750368 0.3832589 -0.25598255 -0.33603156 0.24842618 0.3712168 0.17875627 0.38867015 0.4986378 0.15624139 -0.21791276 -0.08942025 0.45849505 -0.45140576 -0.250933 -0.349208 -0.22504388 -0.08713964 0.08836497 -0.045534417 0.123683095 -0.25965878 0.20242539 0.20748343 0.31117046 0.20434225 0.15693785 0.25879636 -0.09727838 -0.031139934 0.17651041 -0.108035326 -0.10650846 0.13380343 -0.24271034 0.21331736 0.14753781 -0.115033664 -0.07725327 -0.07916121 0.13178518 0.08100958 0.037707463 0.19614641 -0.21427195 -0.15323016 0.22285128 -0.060780935 -0.16560096 0.18454649 0.057088282 0.06556441 -0.08704926 -0.12978715 0.121654175 0.10492053 0.4690682 -0.25727013 -0.06855466 0.22608984 -0.6827325 0.10938555 0.16605307 0.01278892 0.07914614 0.14517418 0.23521107
277 -0.11982889 0.16423531 -0.24530572 0.00739613 0.018080719 0.21540733 -0.5733296 0.3075446 -0.097057775 -0.194516 -0.56246924 0.09815712 -0.45187622 0.12852956 0.008793385 0.02989392 -0.097730204 -0.3380821 0.20420347 0.28182623 -0.20069346 0.11540214 -0.042487916 -0.25819594 0.31940824 0.3803498 -0.009837881 -0.09688257 -0.5797414 -0.20364651 -0.054563 -0.19919434 -0.23536494 0.22999929 -0.0011779171 0.047282048 0.38263363 -0.06930357 0.034193657 -0.24646215 0.097474046 0.091917 -0.5938022 0.008678862 -0.4708284 0.11238504 -0.6154661 -0.013277024 0.18751429 0.14532685 -0.011599645 -0.2533952 -0.13358578 0.37023622 -0.0014299899 0.25132182 -0.04675784 0.24496843 0.15590894 0.04032869 -0.049072728 -0.13526893 0.3412694 -0.23291868 -0.41513315 0.32879305 0.026307743 -0.026567543 0.18313442 0.38872313 0.07372123 0.03246 -0.035147138 0.24779283 -0.22867906 -0.28117695 -0.43285578 -0.03275887 0.04421473 0.23479469 0.1813868 -0.16948076 -0.07994866 0.24149968 0.08857624 0.34132442 0.45079648 0.2658005 0.15671286 -0.08435643 -0.16990043 0.080988005 -0.2066992 -0.101848654 0.03022554 -0.045697 0.37823725 0.10824603 -0.08969035 0.06575135 -0.258382 0.33033735 0.45494056 0.0144072585 0.22628018 -0.111411646 -0.122534074 -0.1361235 0.0090194335 -0.1178462 0.5009482 0.3539708 -0.14656831 0.052262697 -0.1763745 -0.039842058 0.117988124 0.66061735 -0.23544782 0.05541589 0.16090053 -0.62979156 -0.033885747 0.52977014 -0.051360495 0.04121379 0.24099897 0.23440404
25 -0.03829726 -0.042602528 -0.20021985 -0.08966699 0.32843423 -0.0353118 -0.57646406 0.22354546 0.028789591 -0.17553054 -0.49436754 0.0077374927 -0.6237722 0.23420817 -0.18835866 0.3759874 0.2700409 -0.26210538 0.071487695 0.101571605 -0.14896888 0.10451005 0.13680303 -0.22520716 0.4137132 0.18541862 -0.13982345 -0.21713133 -0.49526414 -0.048756175 0.2712997 -0.1447137 -0.28900424 0.2722333 -0.017731164 0.13880323 0.49514946 -0.059624515 0.11281471 -0.14882222 0.007514127 -0.11432785 -0.47691432 0.14904863 -0.6274674 -0.2518569 -0.61738527 0.0709871 0.22405687 0.18353987 0.032290764 -0.19923855 -0.1382137 0.49699867 -0.11990159 0.10823945 -0.10788869 0.26125136 -0.028665546 -0.14130545 0.23981404 -0.5335946 0.25361127 -0.5048161 -0.32572532 0.28810966 0.052225165 -0.007848468 0.18621552 0.13871501 0.13613464 -0.0950545 -0.1586879 0.36081204 -0.59849507 -0.5034682 -0.35580653 -0.10662653 -0.20005837 0.1371495 0.092506535 -0.18931212 0.059856087 0.3688617 0.023790339 0.22431311 0.36833557 0.06836989 0.24756035 -0.2866737 0.08526473 -0.10704638 0.028187577 -0.25668696 -0.020292303 -0.1583135 -0.009117591 0.11234333 -0.15595885 -0.07312495 -0.43451682 0.47420424 0.3314429 0.11255847 0.35750294 -0.37458143 -0.25027168 -0.1443631 -0.080114774 -0.23511933 0.38657516 0.34246 -0.11248854 -0.09754442 -0.22928353 -0.22052146 0.016827187 0.6885527 0.06509002 0.021769308 0.32196146 -0.23234291 0.007378791 0.23397583 -0.119732834 -0.04717972 0.32542017 0.45494732
26 -0.056571424 0.3080007 -0.077567264 -0.13861258 0.027487185 0.054304827 -0.5007378 0.35692272 -0.019553369 -0.15975702 -0.5329457 0.037057117 -0.32697242 0.0529355 0.040255122 0.26388225 0.1443131 -0.22325683 0.2242602 0.15489404 -0.032900345 -0.061548445 0.014114996 -0.2525189 0.2580795 0.10530788 -0.16387121 -0.14985982 -0.37746385 -0.28869036 -0.045328178 -0.17098406 -0.2711078 0.24317247 -0.08134276 0.028428547 0.41043705 -0.12644562 -0.029251859 -0.24147832 0.1232618 0.0989117 -0.47936344 -0.123979025 -0.45694622 -0.037461273 -0.554437 0.026917065 0.17425768 0.18039139 0.22102255 -0.18354526 -0.28273416 0.3646201 -0.102033995 0.18201894 -0.17883529 0.20993556 0.018265368 -0.025795598 0.18455082 -0.300957 0.39151418 -0.37633517 -0.46784338 0.13037074 0.22478327 -0.22426493 0.24367088 0.2957534 0.1082594 0.036018714 -0.215049 0.33841673 -0.36240578 -0.48301134 -0.3558684 -0.24102846 -0.32786605 0.1261756 0.25918418 -0.21486834 -0.13082092 0.42904553 0.13379773 0.25032753 0.35684294 0.18834458 0.20561008 -0.30892423 -0.015900588 -0.025308216 0.0399744 -0.106595166 0.038258053 0.04310218 0.21526583 0.03312542 -0.1567745 0.12882194 -0.45462576 0.43497866 0.1458196 0.10446163 0.33161458 -0.3669282 -0.15673102 -0.08855845 -0.0835144 -0.15411763 0.44225642 0.1360676 0.005983209 -0.01743681 -0.20132253 -0.11445044 0.18175301 0.87153053 -0.25456497 0.06520568 0.35724583 -0.51087546 -0.10608909 0.42647633 -0.2063073 0.09265241 -0.022904983 0.36248207
252 -0.07613474 0.12562494 -0.1219404 0.0789137 0.029808423 0.19221616 -0.38257298 0.35252595 0.052959207 -0.11085951 -0.5400973 -0.11556796 -0.49859986 0.06088162 0.007769654 0.20271312 0.067925364 -0.413829 0.35205567 0.12784858 0.044990588 0.23951161 0.032905195 -0.2585353 0.2931374 0.24503557 -0.10736305 -0.03914287 -0.53180903 -0.16923259 -0.07359027 -0.3346592 -0.3982425 0.18308622 -0.07524113 -0.0024099548 0.39162904 -0.0955456 -0.1899048 -0.21748658 0.1244728 0.04606782 -0.6567305 -0.08184748 -0.33011487 0.1620423 -0.71978676 0.04839896 0.23200418 0.19570252 0.014884508 -0.13640158 -0.21984476 0.43721855 -0.12481279 0.19543116 -0.21620038 0.246781 0.075501844 0.06618194 0.07680668 -0.31151286 0.32621947 -0.38066828 -0.2587502 0.17902164 0.18688811 -0.10429992 0.21846169 0.27496868 0.06418453 -0.009924025 -0.08238093 0.38255504 -0.31865466 -0.44873813 -0.3507609 -0.2174545 -0.26654702 0.16765288 0.30576298 -0.08031794 -0.16458249 0.32575256 0.17187211 0.19301789 0.46954578 0.2515835 0.33031544 -0.25849417 -0.10534647 0.06535923 0.029282037 -0.10462844 0.038614277 -0.02914477 0.12963505 0.07698079 -0.080805525 0.0649654 -0.2854433 0.37088734 0.28590435 0.08791548 0.27169156 -0.22401324 -0.14330514 -0.18576767 -0.11091417 -0.07810403 0.5517013 0.23546518 0.036329683 -0.08672064 -0.19990872 -0.06408602 0.21194467 0.79179794 -0.279054 0.08574231 0.21026233 -0.5212803 -0.23900503 0.5413048 -0.19099955 0.14135186 -0.15536828 0.39022776
21 0.17284583 0.24818684 0.008659326 -0.045395654 0.20028713 0.097386435 -0.4018396 0.35359937 -0.067636974 -0.23021719 -0.5688322 0.16970237 -0.6329288 0.271347 -0.0550491 0.11069909 0.16799675 -0.2331493 0.25877622 0.20650905 -0.023943398 0.19017711 0.09671562 -0.11920798 0.2130785 0.13723509 0.1348466 -0.1631936 -0.35803294 -0.25588784 0.024469053 -0.121743955 -0.11023972 0.23750292 -0.06620433 -0.14189404 0.18075931 -0.053776138 -0.05833571 -0.32546845 -0.051684014 0.0007878635 -0.49473482 -0.05553188 -0.36840346 0.083636746 -0.6943885 -0.014572252 0.070226155 0.3049171 -0.029426794 -0.24366423 -0.13990574 0.4218497 -0.1924106 0.09616325 -0.021134486 0.23202105 0.17744476 -0.10870344 0.13982163 -0.37078413 0.2558155 -0.35512546 -0.40702412 0.20594548 0.025532177 -0.12106236 0.37828237 0.44541684 0.30793843 -0.09002738 -0.11038968 0.33983165 -0.28190494 -0.44549352 -0.47265112 -0.090404 -0.14505567 0.31488332 0.23547982 -0.10927149 -0.0117347725 0.27649295 0.029280536 0.09980743 0.44822136 0.3113905 0.043379433 -0.23769164 -0.16777688 -0.02835072 0.0027849106 -0.062225834 -0.095622614 -0.086162575 0.32335547 0.07529173 -0.1610011 0.1188103 -0.14006111 0.42001188 0.39179498 0.04276729 0.4095189 -0.046806056 -0.16400515 -0.142977 -0.28152186 -0.070306234 0.5309353 0.36894557 -0.25522763 -0.004290454 -0.23503765 -0.030207481 0.03533426 0.89058775 -0.28846234 -0.011183705 0.24409916 -0.5894798 -0.24173293 0.47423324 -0.07886605 0.0011771031 -0.0797821 0.2812289
122 0.07983579 0.24352026 -0.11171791 -0.22414503 0.019446816 0.064315125 -0.37842432 0.33381823 0.06830895 -0.29738572 -0.618961 0.16370392 -0.65146357 -0.014284318 -0.26150012 -0.028624574 0.2998978 -0.2375531 0.15270832 0.05678573 -0.057716694 0.17258802 0.1181378 -0.22806834 0.06615393 0.14003508 0.0013074392 -0.048609607 -0.43592823 -0.25763837 -0.12304757 -0.20853738 -0.14183961 0.22081542 -0.10144309 -0.060634334 0.15501647 -0.081993416 -0.046879884 -0.25539425 0.043876182 -0.040212244 -0.3314365 -0.07330119 -0.21171406 -0.06463623 -0.57351476 -0.07339316 0.10908674 0.3568792 0.032729186 -0.2157389 -0.14028265 0.40507665 -0.12759247 0.066095404 -0.20830426 0.1979677 0.007078909 -0.14031795 0.100074634 -0.43162027 0.46493107 -0.36677334 -0.36250284 0.06595826 0.17476054 -0.21647315 0.13904208 0.39086455 0.32183415 0.10754315 -0.20800875 0.3429958 -0.1586374 -0.6445224 -0.4164477 -0.023950584 -0.4355626 0.3067402 0.11562442 -0.16923317 -0.025380744 0.42806324 -0.07206064 0.14762 0.4852309 0.3186416 0.16658887 -0.30641013 -0.1961027 -0.20652074 -0.07288518 -0.19264923 0.023460245 -0.13083854 0.32061294 0.00170561 0.12101126 -0.031365197 -0.26204342 0.22135285 0.2911814 0.0668012 0.30444527 -0.220718 -0.22013038 -0.09884364 -0.18429835 -0.019018332 0.45275426 0.2338656 -0.12731993 0.008889556 -0.3290457 -0.071568504 0.115177624 0.90019935 -0.29731697 -0.011845648 0.20881031 -0.654875 -0.24072853 0.40239924 -0.19643466 -0.0140825575 -0.117338575 0.26041207
239 -0.07424565 0.04481401 -0.12982859 0.05320521 -0.18876944 0.17213026 -0.53849053 0.37810737 0.07207602 -0.040860552 -0.6727947 0.04593823 -0.2950187 -0.04777283 -0.13276368 0.20371094 0.22958058 -0.1889453 0.29645565 0.14029798 0.08005012 0.20315921 0.078666076 -0.3269786 0.26752293 0.19208425 -0.16153395 -0.09779074 -0.3031342 -0.24762546 0.08804035 -0.13442783 -0.32089302 0.08944572 0.023891108 -0.10751866 0.40691906 -0.21115023 -0.061292853 -0.36191857 0.24242766 0.121766016 -0.47147852 -0.14489749 -0.48089892 -0.118678585 -0.7004396 0.058597468 0.073478505 0.124812715 0.085832424 -0.14076172 -0.28177515 0.33372608 -0.13401163 0.14580649 -0.09397667 0.19527914 0.034120947 -0.116853856 0.34931228 -0.29414797 0.32822177 -0.49501273 -0.4109452 0.16073051 0.30117163 -0.22918253 0.22876199 0.19246472 0.1853672 0.02452697 -0.20205994 0.23786499 -0.38455206 -0.49553615 -0.48323566 -0.2062363 -0.1985602 0.19387184 0.12930869 -0.35588214 -0.16554546 0.37935945 0.04039376 0.15388604 0.22237489 0.3517338 0.18463323 -0.3358646 -0.17966814 -0.0019976636 -0.03426813 -0.007274135 -0.083949044 0.020304164 0.13210373 0.0891409 -0.08794108 0.100116625 -0.35552827 0.46603107 0.061644986 0.21542497 0.31089115 -0.34033427 -0.09902665 -0.08637942 -0.10065915 -0.14614818 0.5798562 0.19426616 0.039966337 -0.081048846 -0.052480143 -0.01990185 0.105701864 0.920044 -0.24501568 -0.0076266 0.2445436 -0.5557417 -0.13188574 0.45398054 -0.3412714 0.0057938686 -0.073580004 0.3683141
200 -0.023891477 0.26189807 -0.20385857 -0.09806824 -0.021250136 0.018747581 -0.56084996 0.39855504 -0.005282251 -0.26463154 -0.5793282 0.15674253 -0.5478204 0.042697724 0.011188384 0.20772062 0.23975287 -0.2889302 0.22704497 0.13938026 0.007445977 0.059678484 0.09673982 -0.17008527 0.3348834 0.19728369 -0.02719067 -0.11245713 -0.5556568 -0.25882834 -0.0015633794 -0.21391623 -0.25118843 0.1681373 -0.091963306 -0.007351275 0.34820724 -0.051136926 -0.10243284 -0.30762616 -0.0034352336 0.030037634 -0.5121348 -0.1978327 -0.35520548 -0.043290198 -0.6110915 0.06452092 0.18618712 0.30149087 0.07026737 -0.17116387 -0.14006339 0.44308874 -0.17340273 0.057982713 -0.24590403 0.39561775 0.04118051 -0.037612285 0.096195444 -0.36815357 0.33189273 -0.40494165 -0.3083891 0.20496385 0.265257 -0.09059535 0.1905762 0.25660855 0.07237031 0.07826121 -0.23450549 0.3955232 -0.33988458 -0.39810517 -0.25893506 -0.30889216 -0.24549691 0.07297177 0.24428332 -0.005768155 0.058785975 0.38712338 0.08739439 0.20368052 0.22073518 0.19211751 0.20387734 -0.43417606 -0.11650856 -0.0835197 -0.061927233 -0.1472286 0.023203883 -0.10218693 0.2647307 0.03429579 -0.11677116 0.06265569 -0.46283484 0.373108 0.24363114 0.093414545 0.38039377 -0.36069053 -0.06571731 -0.13471174 -0.17105997 -0.21177703 0.43169054 0.16768648 -0.037932884 -0.05785577 -0.15295272 -0.15383744 0.14786182 0.7660218 -0.26477113 0.109876096 0.31882828 -0.55645674 -0.09017916 0.3406929 -0.2575894 0.046156637 0.045537923 0.37112117
315 -0.08077908 0.25683072 -0.24502946 -0.055152275 0.11775801 0.113131054 -0.38157135 0.26128668 -0.050509248 -0.06936515 -0.32439458 0.22591656 -0.14676914 0.022148391 -0.27036446 0.12555508 0.016363725 -0.4563363 0.13154435 0.25720337 -0.16630843 0.074643165 -0.086975515 -0.40331537 0.22076342 0.2559444 -0.10044127 -0.14036879 -0.58147365 -0.24996254 0.13969429 -0.025289128 -0.2502398 0.17163205 -0.009869823 0.025156343 0.24186234 0.101567544 -0.07274087 -0.22464968 0.15740591 0.23623072 -0.41972852 0.010437152 -0.48741156 -0.231577 -0.5713991 -0.07909343 0.12604997 0.34720904 -0.06782868 -0.40016624 -0.30872947 0.30300763 -0.22107735 0.1953328 -0.12900452 0.283978 0.15488681 -0.09279245 0.33834925 -0.4172393 0.41534218 -0.41062066 -0.4535632 0.22882362 -0.08604419 0.08750443 0.040727727 0.31462416 -0.09926352 0.028813206 -0.07228003 0.21710499 -0.5707709 -0.48806208 -0.48986465 -0.27708995 -0.1530849 0.18192229 0.016763484 -0.12426921 -0.11691956 0.42390087 -0.06012717 0.19196646 0.28499594 0.1512317 0.39792916 -0.018447483 -0.11622995 -0.122817 -0.1700124 -0.08735093 -0.14453492 0.037213597 0.28965524 0.10675084 -0.23532979 -0.028391588 -0.18618514 0.24898958 0.25742495 -0.16081525 0.5799467 -0.0012795116 -0.14745574 -0.2614024 -0.02581023 0.05269819 0.47918847 0.16376463 -0.07998691 0.038901977 0.011577728 -0.04095028 0.016370393 0.876861 -0.081034474 -0.18291228 0.136025 -0.5579412 0.08814698 0.38551143 -0.1569511 -0.056611024 -0.011233715 0.50992763
9 -0.0996299 0.29247025 -0.09890951 -0.10372839 0.071841896 0.00085382327 -0.57546324 0.40746978 -0.026682466 -0.12764978 -0.64780927 0.022024872 -0.65460443 0.030926488 -0.22124699 0.31179228 0.08115157 -0.1607583 0.14892027 0.102878705 -0.055735815 0.0957089 -0.068195276 -0.34580928 0.17468323 0.0902062 0.02418296 -0.15283832 -0.42933872 -0.015300744 0.007879305 -0.17299962 -0.15952362 0.33814994 0.023676543 -0.047538463 0.4398947 -0.09422536 -0.031154528 -0.1824318 0.14214964 0.23691605 -0.45463106 -0.056463387 -0.34391943 -0.09713706 -0.68155897 -0.026512103 0.18201914 0.28991497 0.12934552 -0.21625035 -0.112432964 0.33391356 -0.18880491 0.058312807 -0.14376083 0.24790649 -0.2106565 -0.047774743 0.16670895 -0.41129208 0.630208 -0.43740338 -0.4199236 0.10618458 0.19501191 -0.16183999 0.17296304 0.32567808 0.12722264 0.00090490637 -0.11634481 0.20887014 -0.24568924 -0.33988324 -0.21238683 -0.13012162 -0.2908293 0.03579962 0.22820452 -0.18023233 -0.119235285 0.513071 -0.054102637 0.29466254 0.31875986 0.13717122 0.11949691 -0.20676911 -0.018247234 0.009256604 0.15511754 -0.26145452 0.020004887 -0.0001000146 0.3079104 0.11936924 -0.04743517 0.0026880545 -0.37595832 0.33897528 0.13624609 0.07419693 0.3449329 -0.33050936 -0.22723806 -0.07512464 -0.15580209 -0.046299662 0.45472553 0.31303316 0.08669544 -0.051133096 -0.26011586 -0.056246508 0.08503242 0.9142652 -0.16510034 0.0048170392 0.31594843 -0.60953027 -0.112750426 0.30610445 -0.15794255 0.09683919 -0.02887848 0.37938526
203 -0.16639428 0.0058569764 -0.07547192 0.109566316 -0.024881264 0.1459328 -0.29917514 0.3265488 0.058054764 -0.027110122 -0.52637005 -0.008305831 -0.526227 0.11258686 -0.009821419 0.1521374 -0.04837575 -0.391224 0.28943157 0.15479769 -0.004358576 0.20623197 -0.00480733 -0.25832358 0.15497458 0.38119864 -0.14475898 -0.06682748 -0.5598943 -0.15626822 -0.053185254 -0.31605774 -0.49030003 0.22380202 0.0463903 0.029427532 0.41641858 -0.02341421 -0.20270588 -0.19500816 0.1751495 0.115375146 -0.55712366 0.0071176775 -0.3019768 0.20739928 -0.78044313 -0.029608693 0.21379635 0.2567926 0.0024253048 -0.2328642 -0.13554515 0.43314734 -0.1064171 0.32412738 -0.19604355 0.2041493 -0.03521491 0.014237021 0.1603251 -0.16993727 0.34445244 -0.3359102 -0.29172894 0.20362292 0.094008654 -0.2186706 0.14029968 0.30580425 0.10809384 0.031241778 0.0023500423 0.30966836 -0.32258287 -0.29181972 -0.30461204 -0.31944084 -0.21576835 0.34502262 0.309619 -0.22290944 -0.10355494 0.24096575 0.18153024 0.20417272 0.4689414 0.1465852 0.40125528 -0.20456888 -0.098020636 0.016363919 -0.0050822813 -0.15096322 0.11846848 -0.039758664 0.1451272 0.0023689081 -0.081154935 0.07675048 -0.17854832 0.35282505 0.34267345 -0.012673813 0.25230786 -0.15852852 -0.17437635 -0.14786951 -0.07438739 -0.097509466 0.5405036 0.19730501 -0.07488418 -0.18887545 -0.24435998 0.02424973 0.14236487 0.884289 -0.3176598 0.021261113 0.17876592 -0.5182292 -0.15241352 0.6222776 -0.17933224 0.05394014 -0.15086448 0.4007774
304 -0.050055295 0.14219832 -0.13617893 -0.2126703 -0.032497928 0.08076481 -0.52198267 0.14696676 -0.0680199 -0.12534532 -0.51080465 -0.010138255 -0.30456433 0.045619614 -0.1382832 0.11784623 0.009025003 -0.3112382 0.33703065 0.12505801 -0.15943749 0.12723216 0.03939691 -0.24830963 0.19226046 0.42523387 -0.29600796 -0.19074371 -0.4452239 -0.16746804 -0.037739646 -0.114322856 -0.30965367 0.30009145 0.10223202 0.17730117 0.3217498 0.07213142 -0.14205264 -0.07161015 0.01903747 0.17383838 -0.41754285 0.03257125 -0.4169447 0.07036194 -0.42998016 -0.012216728 0.13550846 0.2779135 0.06402712 -0.25298104 -0.30808634 0.3746127 -0.21220909 0.2933221 -0.090451166 0.22071484 -0.10742924 0.049725566 0.1815791 -0.32856032 0.3905283 -0.2770233 -0.5344264 0.22885086 0.009259343 -0.1408042 -0.018220926 0.42263266 -0.12207502 0.08637357 -0.018826654 0.3939345 -0.37435642 -0.58004624 -0.39383766 -0.38482332 -0.25302386 0.25354064 0.16932905 -0.15458481 -0.16269673 0.42030412 0.047374208 0.19347793 0.34642082 0.07960204 0.32141405 -0.21548964 -0.18502086 -0.050736777 0.071410686 -0.15899959 -0.07687104 -0.11844047 0.2536441 0.08557502 0.006963176 0.03319045 -0.1258976 0.13611977 0.2298191 -0.025123617 0.32850707 -0.20814517 -0.10760312 -0.2648868 -0.060345773 -0.110344715 0.5381609 0.399214 -0.14107747 -0.055479765 -0.27553767 -0.13784356 0.117263794 0.67045516 -0.19977407 0.055398356 0.26910347 -0.505507 -0.106416546 0.50380045 -0.108427234 0.12139335 -0.0122514265 0.39140257
285 -0.1489439 0.12713136 -0.5054327 0.039966237 -0.028219508 0.3920064 -0.40458268 0.45711786 0.11855279 -0.11128646 -0.7403862 0.09111054 -0.54695076 -0.17428668 -0.2560916 0.073125005 0.21822646 -0.3589725 0.16855198 0.22876588 0.01931609 0.23454459 0.061482083 -0.23369485 0.28212523 0.10628213 -0.016136277 -0.08636038 -0.6120597 -0.1535482 0.14842835 -0.11435754 -0.21449426 0.24914767 -0.0009834368 0.016190344 0.5952268 -0.08378739 -0.12409217 -0.27234805 0.22932544 0.24564302 -0.44093347 -0.07697785 -0.41732353 -0.12008133 -0.6770688 0.07893696 0.08363641 0.25036907 -0.09746184 -0.26813823 -0.1933629 0.4514702 -0.05715011 0.16264713 -0.061108194 0.114289224 0.1468948 -0.09432376 0.03864739 -0.37457564 0.30676544 -0.38008335 -0.39141572 0.23851211 0.085941315 0.058198217 0.012109011 0.32024327 0.071986295 0.09610153 -0.041645143 0.29157212 -0.2982625 -0.36055058 -0.31920025 -0.015688723 0.041152455 0.10781612 0.06699086 -0.15436219 -0.107523575 0.43071038 -0.1673718 0.29846385 0.3440531 0.3081231 0.18751004 -0.17441478 -0.17911859 -0.08583333 -0.38250777 -0.10145986 0.10377163 -0.048688438 0.13557751 0.16178627 -0.06546946 -0.11867943 -0.17917138 0.1295017 0.25318632 0.48015046 0.34420142 -0.19075312 -0.025498815 -0.061942372 0.014172581 -0.17022467 0.561193 0.07166527 0.08870712 -0.032029532 -0.20589902 -0.023607563 0.115158945 0.64774495 -0.2055028 -0.21687843 -0.0684282 -0.5693838 -0.039502557 0.17861621 -0.21906886 -0.035100535 -0.0018516581 0.4091851
98 -0.13691582 0.16299208 -0.110490605 -0.026963249 -0.087969124 0.043737594 -0.56316835 0.44957757 0.08152444 0.014970268 -0.57270926 -0.053925678 -0.4266565 -0.021966 0.016087394 0.07670189 0.08946084 -0.32827526 0.3499931 0.1940698 0.09426033 0.20416456 0.10355176 -0.21297127 0.21895133 0.32710376 -0.1664286 -0.07313621 -0.5500083 -0.22585177 -0.12068627 -0.21135749 -0.21897347 0.18943472 -0.09794773 -0.029440485 0.47904494 -0.2234842 -0.151949 -0.38173568 0.22237013 0.19712834 -0.61094916 -0.030250676 -0.5226787 -0.08848774 -0.79400903 0.06627425 0.09695098 0.28300092 0.113838084 -0.21161607 -0.2003488 0.4805596 -0.1685027 0.097173214 -0.08632792 0.14952108 -0.07950362 -0.051293544 0.30156556 -0.3548581 0.5941104 -0.40173087 -0.39373937 0.17858714 0.19105294 -0.20510523 0.151661 0.31732306 0.05579684 0.14345193 -0.10236109 0.28670946 -0.21994191 -0.3149399 -0.28269112 -0.23043819 -0.15746088 0.25239623 0.12938699 -0.1339587 -0.19973004 0.25340596 0.034817733 0.1770295 0.22280301 0.30257156 0.18704274 -0.3081624 -0.16242516 -0.001490933 0.058228575 -0.033839185 0.0138544515 0.008414957 0.18446532 0.042184804 0.049005646 0.09391105 -0.24083965 0.34392315 0.04637463 0.16182356 0.18612684 -0.16140364 -0.17308141 -0.030810816 -0.103030264 -0.13195653 0.59252876 0.09993958 0.10793383 -0.10793748 -0.044963736 0.016399527 0.13891885 0.70664805 -0.22960891 0.00047285316 0.3434361 -0.51575404 -0.26031253 0.4319009 -0.26352388 0.1042728 -0.06695294 0.2653897
188 -0.121143416 0.2082111 -0.23788904 -0.12209412 0.026264992 -0.035298456 -0.50659513 0.38117436 0.023183946 -0.13996014 -0.66285396 0.073911846 -0.5285946 -0.0060239583 -0.00014267788 0.18895017 -0.0048581203 -0.24367549 0.19527496 0.029043278 -0.052806478 0.074039795 0.056811232 -0.25032997 0.2791003 0.25141865 0.020945806 -0.19288507 -0.566371 -0.030545114 -0.05229479 -0.35167748 -0.28049 0.37210235 -0.067133024 0.086672254 0.46416637 -0.0344206 -0.095785245 -0.323412 0.047110654 0.15852225 -0.48460147 -0.08637568 -0.4026087 -0.091813326 -0.6919016 0.019621568 0.10383506 0.2359129 0.13236275 -0.14965269 -0.11127391 0.41792858 -0.1734923 0.1279573 -0.29029876 0.21222147 -0.05228191 -0.136926 0.1218261 -0.41382796 0.6361246 -0.45794004 -0.4315226 0.08824451 0.10965555 -0.23516177 0.11060773 0.35074756 0.0688073 0.13406135 -0.12778138 0.2839018 -0.3134774 -0.3130037 -0.19217993 -0.10534565 -0.24476086 0.09941525 0.17433743 -0.066688195 -0.049807027 0.40935254 -0.04897079 0.27694958 0.30691195 0.22713901 0.11095615 -0.29801744 -0.11813039 -0.08980817 0.14624381 -0.13145591 0.109418705 -0.057730436 0.38187456 0.029063817 0.037472967 0.071995765 -0.3654518 0.16435617 0.1047496 0.06106731 0.3834533 -0.32438257 -0.2259708 -0.14109625 -0.06396691 -0.21123667 0.41682315 0.17216885 0.02400242 -0.033371758 -0.16845804 -0.21505846 0.060872354 0.7784709 -0.38074723 -0.027026035 0.3615183 -0.56197226 -0.06535085 0.24316458 -0.16439049 -0.010528945 -0.0923349 0.36707285
170 -0.24064417 0.13245139 -0.31334573 -0.04959767 -0.09145706 -0.035419565 -0.32693356 0.4055907 0.25283036 -0.001602748 -0.58181846 0.14738652 -0.5467875 -0.06957301 0.019341985 0.09258211 0.048611842 -0.40149122 0.20733188 0.056692492 0.0067580724 -0.026944516 0.05323406 -0.1844402 0.22609052 0.31384054 0.05960517 -0.16459139 -0.6002007 -0.019418625 -0.17021404 -0.30979082 -0.5124425 0.41202614 0.00025536667 0.08293291 0.5216924 0.06821595 -0.15989818 -0.26122895 0.16859949 0.30784872 -0.4011835 0.024149796 -0.44918162 -0.07842936 -0.7770351 0.020728145 0.18050519 0.23188242 0.011413875 -0.36269483 -0.06449953 0.65611476 -0.22016712 0.16256401 -0.32296318 0.34739077 -0.03397019 -0.15279742 0.3143433 -0.26365378 0.58819246 -0.51564467 -0.32892573 0.15840325 0.10819573 -0.2696842 0.04646047 0.263067 0.05124185 0.26026338 -0.0051237554 0.26911083 -0.22394234 -0.118999004 -0.14154986 -0.18511677 -0.17356955 0.10108173 0.20719992 -0.12522057 0.012855899 0.20194493 0.035296608 0.21019551 0.367069 -0.029671937 0.2005089 -0.23263618 0.016343582 -0.092560664 0.048507325 -0.061911784 0.16986266 0.06004113 0.21589115 -0.018910479 0.024326148 -0.018320458 -0.19388504 0.2205716 0.3394952 0.015276242 0.49233845 -0.12845406 -0.233113 -0.04252849 -0.0044643795 -0.13909435 0.4604435 0.060717884 -0.049669072 -0.16070102 -0.20480478 -0.14648739 -0.035179935 0.7616453 -0.3609018 -0.13143437 0.24093372 -0.6141345 -0.032279793 0.2107027 -0.14413115 0.011068853 -0.09802115 0.34554452
199 -0.25173536 0.16449629 -0.057228055 -0.0038800098 -0.06625405 0.1244284 -0.34789294 0.4344876 0.03496949 0.0138210105 -0.557986 -0.057777315 -0.2708994 0.032728814 -0.07888664 0.287073 0.06163874 -0.23188496 0.16628525 0.23347293 0.032086574 0.105944484 -0.03513292 -0.20465492 0.02597168 0.15814652 -0.2748122 -0.011574101 -0.37668344 -0.17815447 0.0059764273 -0.07972164 -0.48201752 0.18614763 -0.0063275197 -0.03853589 0.55314445 -0.11222211 -0.08499431 -0.2681366 0.2350037 0.18410829 -0.52331966 -0.04485056 -0.48114172 -0.054440115 -0.85779977 0.10531576 0.26536372 0.15352154 0.06468467 -0.17614602 -0.309048 0.34470683 0.03757241 0.20338088 -0.19356434 0.15937687 -0.046753187 0.042728372 0.27527815 -0.25282127 0.41584787 -0.4451831 -0.5394919 0.2202919 0.1940663 -0.2822222 0.24715915 0.35596836 0.27620524 0.09007357 -0.106842294 0.24943382 -0.37535042 -0.40207765 -0.28198838 -0.27776185 -0.20442525 0.2654181 0.19983691 -0.28317705 -0.077965975 0.33290988 0.05677935 0.2269392 0.22922048 0.15775889 0.30477065 -0.124596216 -0.00660552 0.00021123924 -0.052691482 -0.1424728 -0.00095171615 -0.061907765 0.24187236 -0.0573026 -0.09075993 0.021458715 -0.21882276 0.40259182 0.1106719 0.016915487 0.07930085 -0.1334714 -0.14562292 -0.08523038 -0.025724284 -0.10530641 0.56472427 0.10034541 -0.033729862 -0.16065937 -0.16437538 0.189162 0.06429702 0.83064145 -0.10962164 0.0034905816 0.25514194 -0.538594 -0.02741521 0.5657019 -0.17130467 0.08718234 -0.088464476 0.4121724
272 0.26061878 0.2569673 -0.18874393 -0.100861594 0.14459912 0.105780855 -0.41475394 0.30672327 -0.22933944 -0.25453404 -0.5850025 0.11433918 -0.55352086 0.069790155 -0.24815328 0.21280357 0.04458402 -0.13959518 0.0032621091 0.40767086 -0.18031311 0.124886274 0.0297917 -0.2283897 0.2354481 0.09497534 0.011160024 -0.11379689 -0.46419972 -0.11631503 0.1686357 -0.113158524 -0.13108602 0.2294143 -0.08698003 -0.1273875 0.35826248 -0.018923078 0.014761588 -0.4266814 -0.030862486 0.172119 -0.47406876 -0.10552459 -0.4783946 -0.40184686 -0.9876103 -0.06452198 0.0061877277 0.30215588 0.058546636 -0.12167383 -0.03509684 0.4017962 -0.3932348 0.023065107 -0.10455154 0.41550288 0.052527476 -0.108623765 0.38999307 -0.32768342 0.63063335 -0.33213478 -0.4394847 0.18373615 -0.08075523 0.08543933 0.25482523 0.29386714 0.15816043 -0.014006606 0.03185546 0.2115024 -0.3621521 -0.36416933 -0.27649215 -0.034519643 -0.021158328 0.101639204 0.34680766 -0.072598174 -0.0751639 0.6405465 -0.11532025 0.27305847 0.31709212 0.28349802 -0.02646238 -0.0942414 -0.13543929 -0.18932785 0.11291295 -0.11953235 -0.017959699 -0.012261589 0.3425932 0.28553817 -0.061571795 -0.10201367 -0.124789044 0.41615096 0.31591415 0.12812802 0.39018273 0.017182969 -0.050707288 -0.0014504055 -0.17391089 0.038819175 0.37034613 0.19825138 -0.21767904 -0.021666331 -0.21504194 -0.041197293 0.08062186 0.9021306 -0.14373331 -0.037791993 0.3466309 -0.43407363 0.068893276 0.18669966 -0.044339787 0.07734126 -0.11331521 0.32358277
40 -0.20257658 0.18824492 0.02287396 -0.17981407 -0.02068424 0.2659264 -0.5222925 0.15842989 -0.03354162 -0.14792302 -0.28652143 -0.08343661 -0.2766517 0.019796088 -0.26771933 -0.040199336 0.03369674 -0.4626059 0.38008264 0.1377041 -0.14237022 0.032137398 0.01765156 -0.42147705 -0.076238714 0.22414578 -0.052946236 0.06960659 -0.47255462 -0.10084113 0.15458386 -0.27955198 -0.3692149 0.1539172 0.048983924 0.070256926 0.34373298 -0.09762202 0.080691785 -0.30310833 0.15853246 0.11786186 -0.6676076 -0.1419285 -0.49498236 -0.24632522 -0.7958147 -0.026993224 0.31446466 0.3665651 0.25365838 -0.27486816 -0.29282498 0.21428236 -0.1789306 0.11849815 -0.1959762 0.10630508 -0.13843408 -0.15310729 0.23238601 -0.086463384 0.45654675 -0.40931252 -0.36789688 0.12228025 0.26729253 -0.17270502 0.25211713 0.33875993 0.12244011 0.03170155 -0.14674309 0.00474632 -0.40512758 -0.2591715 -0.3142276 -0.3195444 -0.26135656 0.190613 0.11866673 -0.21906546 -0.03538658 0.42689767 0.04790146 0.37524608 0.19004844 0.19707902 0.064395025 -0.268574 -0.005346313 0.16198465 0.059746876 -0.2054712 0.026808161 0.054223035 0.34228274 -0.060116164 -0.13999675 0.1723143 -0.36192337 0.48302653 0.15593375 0.0386442 0.3252911 -0.28625506 -0.24111146 -0.07034521 0.019199723 0.03721647 0.31115916 0.5159803 0.19088525 0.059071973 -0.039313775 -0.18681253 -0.09887907 0.87553024 -0.11062184 -0.093931094 0.4412012 -0.7381815 -0.1658339 0.21316521 -0.21189372 0.10380141 0.12105021 0.32539073
332 -0.048090965 0.21803938 -0.12724492 -0.08812471 -0.07001799 -0.0616872 -0.45680204 0.3883728 -0.060699075 -0.08694394 -0.5516426 0.008496149 -0.3634224 -0.052951697 -0.12074053 0.029001195 0.051641185 -0.3173772 0.2891941 0.17227507 -0.076263025 0.10650294 -0.048693113 -0.49086028 0.41028744 0.31770563 0.09999392 -0.1617971 -0.7407474 -0.27344185 0.0032111304 -0.44209468 -0.25925907 0.21223338 0.015725322 -0.13455592 0.36482397 -0.21617615 -0.15533902 -0.26528582 0.3183648 0.16868168 -0.61435956 0.020762695 -0.13115518 -0.07896179 -0.56210613 -0.10897936 0.2710837 0.3893289 -0.09772704 -0.22993927 -0.2102984 0.29390296 -0.19782948 0.21350954 -0.034144357 0.22885202 0.038688816 -0.022532113 -0.009722213 -0.261669 0.27175784 -0.22582506 -0.34704807 0.18928817 0.29724625 0.23242258 0.09936528 0.21818715 -0.2519458 0.14212705 -0.26190194 0.048919834 -0.45038906 -0.28156486 -0.32245502 -0.099186145 -0.040649492 0.1426716 0.16172192 -0.20321414 -0.19776966 0.367281 0.11090215 0.29404336 0.43532145 0.26846102 0.1378222 -0.17901461 -0.15501234 0.13021743 -0.12198245 -0.039555438 0.08183534 0.03159934 0.38801292 0.25586212 -0.22357145 0.09026005 -0.44228047 0.36724553 0.32063696 0.012307215 0.3460548 -0.40419352 -0.09359769 -0.06125383 -0.13875346 -0.11086133 0.23840252 0.33641264 0.16287935 -0.09222275 0.047931418 -0.011459383 0.24071388 0.7819422 -0.33958095 -0.13966198 0.15827107 -0.63492453 -0.110509545 0.4317314 -0.36085653 0.18779309 0.118528165 0.29509327
186 -0.0851844 0.106651165 -0.280371 0.113216996 -0.21951872 0.09941965 -0.26461187 0.26919696 0.23850946 -0.09981449 -0.6292707 0.23252897 -0.47102115 -0.10223645 -0.17878398 0.040320784 0.28201112 -0.28315046 0.08840351 0.15980077 0.09994039 0.32053825 0.024483828 -0.34389192 0.31417087 0.24514535 -0.14273904 -0.0075224326 -0.65806913 -0.11451545 0.057179827 -0.16077125 -0.41418138 0.03194525 -0.007450129 -0.12197402 0.44937143 -0.06219582 -0.09508773 -0.3520983 0.2330118 0.04513031 -0.44751117 -0.11372346 -0.3278599 -0.058792055 -0.75819063 0.06360521 -0.007858092 0.24242261 0.032191794 -0.3152608 -0.10560145 0.42946345 -0.13519287 0.084386915 -0.018080061 0.25337073 0.048078466 -0.0015625586 0.24736904 -0.37679118 0.39100236 -0.3914027 -0.3714679 0.23712423 0.32413983 -0.14238156 0.12916058 0.33867022 0.13218181 0.04927581 -0.22102724 0.40438184 -0.31258 -0.34676954 -0.39186186 -0.33527997 -0.2604795 0.17147972 0.1220856 -0.16719882 -0.05863653 0.19440252 -0.049860056 0.18341258 0.40563375 0.28101373 0.4209426 -0.33448976 -0.1882474 -0.0031022793 -0.11942531 -0.13730094 0.03866513 0.011379526 0.07104891 0.094626725 0.026703859 0.07565803 -0.1618216 0.22157732 0.21468307 0.27742347 0.4360096 -0.23280516 -0.18522887 -0.09979339 -0.08809527 -0.17233568 0.6323724 0.12637168 -0.034154322 -0.0025636915 -0.12106825 -0.034579374 0.013234772 0.8868609 -0.1593493 0.00023976254 0.2649312 -0.5748582 -0.08198608 0.37296477 -0.18865007 -0.06128565 0.004071666 0.23133078
280 0.027828114 0.20335704 -0.074146934 -0.1833654 0.16881292 0.05123085 -0.40894 0.30941972 -0.19871104 -0.034357272 -0.43760455 -0.016479209 -0.43711272 0.12594798 -0.056093283 0.28217378 0.15405716 -0.258746 0.2727248 0.23492333 -0.08599903 0.055846777 -0.0506654 -0.32601798 0.31150618 0.0024363052 0.034629613 -0.3168812 -0.4241698 -0.08806878 0.097605556 -0.13101493 -0.09093675 0.39023343 -0.07375725 0.057098947 0.48660272 -0.057487324 0.040366486 -0.28903118 0.17722341 0.35825166 -0.43947813 0.004616817 -0.48278067 -0.10597072 -0.7172041 -0.08073225 0.25759634 0.38119212 0.06921468 -0.36919653 -0.109231256 0.40138257 -0.14327745 0.17732581 -0.03079643 0.08361854 -0.0019649935 -0.2708529 0.18903771 -0.32456532 0.41751176 -0.46317917 -0.48293415 0.21266365 -0.0022842293 0.0019675759 0.17901422 0.2518309 0.016031824 -0.018182447 -0.24147347 0.12711792 -0.47762924 -0.27343434 -0.24403785 -0.1281307 -0.22720003 0.08625793 0.13890442 -0.05593263 -0.12839709 0.48567277 0.025962919 0.25075188 0.30357787 0.11490737 0.18982285 -0.21964705 -0.08964436 -0.03280362 -0.14412935 -0.077922635 0.0052890824 0.04284172 0.1964275 0.09187818 -0.24722487 -0.013385379 -0.4624224 0.47250992 0.30158448 0.09908118 0.55107176 -0.16397458 -0.14538799 -0.08092394 -0.09945105 -0.119526654 0.41076002 0.28373075 0.14406832 -0.049300443 -0.1112441 -0.08185817 0.08863465 0.7566745 -0.18397337 -0.17505781 0.35347962 -0.525371 -0.14750946 0.327952 -0.20644201 0.0036616207 0.035986032 0.5150924
142 -0.02824157 0.22375154 -0.14731084 0.0027136765 -0.14944194 0.09917588 -0.39691174 0.25104055 0.02085337 -0.22825213 -0.57884705 0.2597076 -0.3803725 -0.01374278 0.031186182 -0.03924751 0.25521666 -0.20029867 0.20256379 0.24229379 -0.015838837 0.15042023 -0.03490066 -0.27919507 0.24962199 0.28061065 -0.13498846 -0.04575253 -0.5123553 -0.12787172 -0.07885779 -0.3144014 -0.27249742 0.11389887 -0.035829242 -0.05532736 0.36648723 -0.075040236 -0.07602322 -0.26863825 0.12071427 -0.007300294 -0.35986483 -0.19454025 -0.32779148 0.06892487 -0.47808582 -0.020053042 0.08707831 0.20689397 0.14682302 -0.27564138 -0.06098193 0.36526138 -0.1987841 0.12644655 -0.16308802 0.18128704 0.20018943 -0.047141884 0.06283222 -0.40666512 0.31447464 -0.3930397 -0.44743034 0.1673063 0.21972692 -0.18044077 0.16368148 0.31650412 0.003202063 0.04631043 -0.27343285 0.43449154 -0.40490493 -0.4782535 -0.49078697 -0.16893765 -0.33504316 0.18916418 0.24991035 -0.13878308 -0.11787377 0.44889447 0.045811955 0.23016617 0.5704394 0.31786793 0.32061994 -0.28307924 -0.15980066 -0.08780984 -0.12278362 -0.052906163 0.06572838 0.025994647 0.15936019 -0.02450603 -0.03439303 0.12674835 -0.25723937 0.30400836 0.49561137 0.115628764 0.4333961 -0.28790066 -0.17999873 -0.14371833 -0.06556377 -0.14614454 0.46134633 0.14389256 -0.007962086 0.06036847 -0.21824232 -0.11151597 0.19337596 0.8541228 -0.18449159 0.13608082 0.25493476 -0.5584752 -0.109936126 0.51549864 -0.22526543 -0.05526081 0.0020514166 0.24672751
213 -0.14566727 0.33073586 -0.28000367 -0.09595108 -0.048915077 0.06944082 -0.14355156 0.17000476 -0.17124505 -0.25602853 -0.6643332 0.1467967 -0.36933717 -0.16836326 -0.39330822 0.17459576 0.18546662 -0.3207769 0.05754545 0.37219632 -0.19838238 0.06954588 -0.045459095 -0.42424747 0.15279977 0.32457724 -0.20721377 0.031205475 -0.62038267 -0.15701829 -0.015778663 -0.099099554 -0.31749898 0.23560655 0.082931556 0.057067633 0.3996815 0.11805782 -0.13574177 -0.031089976 0.10126772 0.26179963 -0.32641703 -0.034690686 -0.26836282 -0.13867068 -0.47128078 -0.047316536 0.32009906 0.43312788 -0.087085 -0.411442 -0.28777012 0.15783785 -0.23503096 0.18003938 -0.002909932 0.33689874 -0.08722034 0.054660916 0.22066125 -0.53012896 0.6506252 -0.27085286 -0.60723937 0.27137113 -0.007277439 0.08600736 -0.06899028 0.18021612 -0.037187945 0.12549554 -0.07251275 0.30745897 -0.37254247 -0.6308148 -0.3641159 -0.2848704 -0.27215096 0.050972678 0.2014171 -0.062109213 -0.22303207 0.54477227 -0.20274119 0.30526748 0.57277775 0.1625933 0.49813965 0.1398541 -0.102972776 -0.095975205 -0.21814272 -0.18814209 -0.07615214 0.083766 0.16100895 0.19642222 0.03802197 -0.24272723 -0.0177407 -0.001003968 0.43402314 -0.018525042 0.29002264 0.013066136 -0.1075546 -0.036414295 0.10359343 0.0806759 0.5569985 -0.028772248 -0.020359421 0.14460833 -0.2749243 0.07842846 0.076039694 0.7211161 0.07306094 0.016492022 0.09091518 -0.61151856 -0.0958641 0.64162576 -0.1271269 0.08425366 -0.064720094 0.34159037
172 -0.22611605 0.13516334 -0.014309816 0.057418074 0.02502946 0.29945675 -0.4787523 0.49262458 7.153989e-05 0.03270508 -0.5398873 -0.15057503 -0.36120033 0.019722495 -0.09742613 0.19297193 0.06939003 -0.2743808 0.30865234 0.30371436 -0.0027543474 0.13047972 -0.03575753 -0.2700377 0.016592871 0.23978387 -0.07120663 0.040258724 -0.41997826 -0.25919008 0.12973347 -0.09482404 -0.40693977 0.18983866 0.02556932 -0.0066299364 0.48595217 -0.25642735 -0.1724337 -0.20038447 0.3317923 0.16439658 -0.7295872 -0.09390959 -0.48184863 -0.16520727 -0.9204786 -0.05367039 0.29363987 0.29740658 0.078955956 -0.09858293 -0.30651486 0.34173083 -0.18008424 0.12627275 -0.20009702 0.32813928 -0.0718576 0.088311456 0.3421682 -0.30320954 0.39388245 -0.42534328 -0.30755386 0.07428453 0.11843695 0.021428859 0.19840302 0.07206102 0.12694745 0.0860812 -0.0114178965 0.26664278 -0.30538112 -0.33766124 -0.25478593 -0.1681188 -0.07939463 0.18434623 0.34461775 -0.2849202 -0.19409226 0.22070986 0.06489006 0.23050486 0.11616393 0.13914122 0.17629664 -0.2537441 0.049070805 0.06634993 0.08360646 -0.03943221 0.00818194 -0.030890632 0.17603661 0.083347395 -0.15912506 0.041202445 -0.19408514 0.5653381 0.3017583 -0.030961141 0.14490096 -0.11481422 -0.12594534 -0.08396771 -0.17235568 -0.083619855 0.5332318 0.2836343 0.0041855695 -0.14606267 -0.17508407 0.05629852 0.14114642 0.7335639 -0.14930706 0.066356264 0.18893999 -0.616529 -0.16999544 0.55289465 -0.24777079 0.26340666 -0.21403688 0.50229186
323 -0.079849795 0.23772343 -0.18833962 -0.16563466 -0.050072767 0.109272406 -0.31460857 0.20541945 0.09029964 -0.14649259 -0.5601543 -0.037436012 -0.5738434 -0.083353214 0.027471337 0.110520706 0.03570807 -0.20480263 0.21034676 0.035543393 -0.031282682 0.06508218 -0.028053 -0.33359268 0.32791677 0.17525487 0.16725259 -0.24756317 -0.40497604 -0.12020128 -0.10118989 -0.35004467 -0.29764867 0.22717303 -0.0616867 0.21498846 0.39391652 -0.059427116 -0.21513556 -0.22822225 0.0076157292 0.23369642 -0.37493613 -0.083523825 -0.1698499 -0.008327799 -0.562314 -0.026049437 0.30050054 0.15757114 0.15183407 -0.27576146 -0.14761229 0.533077 -0.23714598 0.07420988 -0.19778307 0.13134016 -0.04097234 -0.24029304 0.029270463 -0.3920761 0.57255435 -0.42842615 -0.40527785 0.15075128 0.39564875 -0.23772061 0.1375834 0.2754516 0.03777717 -0.011296372 -0.15188314 0.4264529 -0.24333854 -0.23306234 -0.21296462 -0.21226127 -0.30450836 -0.009854717 0.14930768 -0.072530635 -0.14927496 0.5077934 0.092297554 0.31508067 0.4133677 0.21084726 0.20522799 -0.28093526 -0.055139102 -0.029403446 -0.024561841 -0.114353664 0.11853885 -0.12082878 0.25163597 0.09268316 0.111892685 -0.02267154 -0.23551309 0.23731585 0.26494458 0.14929196 0.407269 -0.29170167 -0.20400508 0.052118685 -0.032500345 -0.16316913 0.45493862 0.14381173 0.11446279 -0.045186583 -0.16658828 -0.20464538 0.22300708 0.7548855 -0.42586482 -0.096590444 0.30872706 -0.83676064 -0.034555927 0.37064058 -0.05602534 0.03177125 -0.03455814 0.34445322
113 -0.05314378 0.17953184 -0.16589285 0.07712073 0.012881593 0.092104875 -0.7173885 0.39985293 0.10540416 -0.09789997 -0.42220134 0.28411192 -0.3605467 0.1222965 0.06589902 0.21192668 -0.060039748 -0.3540845 0.25489172 0.24425115 0.030327506 0.12813613 -0.0012979484 -0.30373117 0.19619276 0.27099657 -0.19600351 -0.121166766 -0.58214587 -0.21958975 0.10735893 -0.1452725 -0.22619675 0.19126804 -0.07939348 -0.06978379 0.4488095 -0.027178643 -0.108462684 -0.4453514 0.12998042 0.0419089 -0.5657188 -0.18977164 -0.5256921 0.029875794 -0.80202955 0.05477155 0.11050477 0.20394534 0.11241608 -0.04469073 -0.18398552 0.3029134 -0.17556325 0.18387526 -0.19281557 0.17600715 0.0480531 0.015595184 0.13844997 -0.061522808 0.3251421 -0.39431107 -0.3362412 0.3044464 0.16650268 -0.16494076 0.28726536 0.25027016 0.111817546 -0.009749432 0.01445182 0.1673539 -0.32785347 -0.13215019 -0.25392276 -0.25472745 -0.043770432 0.23618482 0.26551226 -0.12535603 -0.031574994 0.4693558 0.03706866 0.24360658 0.37003908 0.25439936 0.32517892 -0.14738949 -0.09656191 -0.023383189 -0.009959921 -0.20121038 -0.0078367265 0.034785144 0.29602093 -0.08204105 -0.15895496 0.23451193 -0.40131393 0.42580765 0.2617516 0.051671434 0.4299593 -0.13434528 -0.10709303 -0.102162905 0.002939985 -0.15691917 0.4223832 0.22846468 0.02361213 0.07105903 -0.059232187 -0.052062854 0.029037904 1.0566322 -0.08621387 0.0023708376 0.22477297 -0.41240603 -0.09654505 0.2511512 -0.38146523 -0.07468475 0.16528332 0.4358989
325 -0.23383439 0.042047657 -0.1274379 0.03246443 -0.05783495 0.061375666 -0.5275286 0.4470805 0.09955899 0.025636917 -0.54665685 0.041094452 -0.26841873 0.09617589 0.033683933 0.1119752 0.054618493 -0.31260347 0.26797014 0.18139622 0.029505461 0.14635035 0.0889061 -0.24566874 0.11559532 0.30128902 -0.14576447 -0.028143547 -0.47055507 -0.17623888 -0.048071694 -0.12206517 -0.42015564 0.17186236 -0.0064815828 0.042067938 0.611603 -0.21436988 -0.1364808 -0.33773354 0.27387163 0.019127294 -0.55327535 -0.048269644 -0.5124203 -0.07203913 -0.7967981 0.08681291 0.112678915 0.15157966 0.046930663 -0.09214353 -0.27802628 0.44999936 -0.11497967 0.28279397 -0.19210264 0.1511026 0.06970783 0.032084577 0.3457876 -0.17166425 0.30143368 -0.41680476 -0.41369778 0.24556784 0.13123873 -0.28923258 0.21142395 0.31027305 0.14883775 0.14311306 -0.015873717 0.23080719 -0.288002 -0.36894143 -0.3526453 -0.18018462 0.020054456 0.40531853 0.24796295 -0.3221927 -0.10057882 0.3505776 0.16720642 0.2583368 0.3348905 0.32367507 0.23406915 -0.21855706 -0.057535164 -0.058824196 0.029134516 -0.07924099 0.046268836 0.01709775 0.27539793 0.008410012 -0.09027785 0.15381843 -0.19618282 0.3788693 0.17741373 0.12485485 0.20234613 -0.24676435 -0.16835941 -0.068035156 -0.02799859 -0.20469978 0.56117517 0.17596604 -0.057334322 -0.17790027 -0.10232458 0.051499553 0.07768556 0.8774412 -0.2876929 -0.08052612 0.1390835 -0.41121766 -0.112155065 0.3999206 -0.2249122 0.12501265 -0.041262805 0.3472839
109 -0.08633777 0.020419529 -0.21378452 -0.00089798565 0.15723395 0.0063923504 -0.69739884 0.25922704 0.08023599 -0.09852713 -0.5800457 0.07967124 -0.4988548 0.06507933 -0.19012454 0.033864345 0.03147169 -0.34847414 0.08002854 0.15241009 0.053885248 0.1788358 0.021402845 -0.17243879 0.2455886 0.4016798 -0.13321139 -0.22484802 -0.7451282 -0.22856723 0.00896647 -0.24910934 -0.10778398 0.24172157 0.032778 -0.16091207 0.379991 -0.09992209 -0.11309749 -0.29811835 0.22878188 0.15311648 -0.45636958 0.032086667 -0.3218523 -0.048478037 -0.6785123 -0.04499212 0.31106335 0.24584576 0.08514658 -0.086364545 -0.104286864 0.2599599 -0.21195498 0.27545047 -0.21756747 0.06346221 0.020126881 -0.12682949 0.1846134 -0.30386358 0.25861147 -0.32126135 -0.2933256 0.21334435 0.24164678 -0.20809391 0.22792363 0.33106542 0.13608564 -0.000114731905 -0.09902172 0.20687693 -0.3732493 -0.31768227 -0.3666127 -0.12235149 -0.29262474 0.42527136 0.08506101 -0.2038457 -0.14427629 0.33939007 0.11514962 0.20442988 0.5136592 0.30146825 0.27053508 -0.15913442 -0.09287728 -0.072068594 0.09496648 -0.2315515 0.16107875 -0.12110835 0.05916826 0.026183853 -0.11333459 -0.0571002 -0.2822793 0.50647223 0.22941308 0.065030605 0.2466058 -0.43460563 -0.18947573 0.20515235 -0.108026065 -0.21796319 0.43692738 0.20351441 -0.021642834 -0.04156421 -0.20996165 -0.029924128 0.25209832 1.0024768 -0.1028666 0.011060986 0.23351099 -0.4734754 -0.091168486 0.45035633 -0.22383207 -0.12695287 0.09828052 0.29804435
169 -0.032087263 0.2825522 -0.16657768 0.032929145 0.2942847 -0.04943876 -0.32133433 0.30317706 0.12490666 -0.25026667 -0.40816107 0.1470766 -0.17604594 0.109338254 -0.06344343 0.13513175 0.19705546 -0.5098204 0.3752604 0.32551068 -0.113323085 0.15396622 -0.026694749 -0.46086696 0.34461707 0.2390346 0.108509146 -0.26092684 -0.6172526 -0.29277402 -0.015958825 -0.30696017 -0.37755474 0.29049712 -0.19736981 -0.07897863 0.2930145 -0.03110674 -0.17230399 -0.31022638 0.018287158 0.21874964 -0.4346644 -0.23742968 -0.36463934 -0.018514702 -0.72587967 -0.013511 0.22636655 0.5098919 0.033520285 -0.22256447 -0.05938862 0.552504 -0.025908623 0.151186 -0.118814595 0.32330662 0.11194484 -0.06910543 -0.0024450668 -0.34332934 0.46842223 -0.3957298 -0.28254893 0.20904984 0.032843087 0.054729566 0.25960585 0.48229453 0.087021306 0.11345744 -0.24185331 0.31371564 -0.3748495 -0.3374928 -0.3052649 -0.11213074 -0.2007204 0.28758022 0.16633144 0.18203157 -0.025473995 0.33971366 0.021633027 0.24393377 0.30447903 0.2156487 0.45510635 -0.2063881 -0.20986566 -0.08674198 -0.09593088 -0.14786083 0.04394375 -0.06742251 0.24159683 -0.08017762 -0.13785708 -0.0013381978 -0.47466138 0.34086052 0.22592705 -0.080206946 0.3544101 0.09192736 -0.13429457 -0.17474838 -0.1616186 -0.23045264 0.36282614 0.22853832 0.2176624 -0.06980592 -0.06895823 0.026599262 0.11387792 0.6012395 -0.25867584 -0.07591949 0.200033 -0.4583165 -0.347345 0.3194209 -0.2203546 0.1529341 0.06883939 0.39483365
261 -0.20792931 0.17807424 -0.13671687 0.077075645 -0.048475564 0.028557532 -0.49077848 0.33838794 0.17162097 0.014026276 -0.5117001 0.1091864 -0.42292923 -0.04186603 0.007452257 0.13900517 0.2211851 -0.49132973 0.093178675 0.25582004 0.13620405 0.2918274 0.06957355 -0.19898005 0.10719725 0.40943992 -0.20672944 0.056675006 -0.6661609 -0.18613297 -0.12704973 -0.23135108 -0.29302 0.111991756 -0.087513104 -0.12657873 0.44449478 -0.041685995 -0.25082776 -0.45416304 0.17399776 0.054941673 -0.6258347 0.02326927 -0.48858526 -0.15354823 -0.9223346 0.016231654 0.114262074 0.20508409 0.020938095 -0.15199992 -0.060883593 0.3867043 -0.1525159 0.1720088 -0.26935932 0.33382934 0.12660995 -0.029913753 0.35950068 -0.36716804 0.4151933 -0.4735026 -0.33973318 0.20361163 0.20935875 -0.101927 0.17428492 0.15303026 0.31062052 0.13524087 -0.20082286 0.19795065 -0.20882927 -0.41517603 -0.29963648 -0.13092817 -0.15487657 0.228883 0.06604287 -0.22463821 -0.094242945 0.356282 0.117020175 0.13749631 0.41702065 0.30936626 0.34335944 -0.30629316 -0.032413892 -0.046153653 0.21092096 -0.008646975 0.1306813 0.03157133 -0.0112059 -0.02518855 0.05805679 -0.041565683 -0.12628353 0.45810676 0.08987108 0.07284676 0.22186041 -0.123064056 -0.13482021 0.0488861 -0.06299115 -0.14582328 0.5997912 -0.07422808 -0.022740941 -0.20226716 -0.13810153 0.10711534 0.083730474 0.70784104 -0.1336959 0.016294777 0.18041 -0.46944547 -0.18679836 0.35108745 -0.27517813 -0.014772298 -0.048041828 0.33055833
236 -0.12052809 0.37070587 0.06155628 -0.13775077 0.021840293 -0.122849114 -0.5165997 0.3469062 0.05164302 -0.08653842 -0.375649 -0.010672637 -0.49651173 0.18996058 -0.02202142 0.17485656 0.21739225 -0.37590528 0.2854525 0.19085015 0.00026112102 0.3004951 0.027022734 -0.30143723 0.2684244 0.27045494 -0.116926566 -0.21379562 -0.5026069 -0.1783301 -0.04162822 -0.17523482 -0.008347254 0.3330481 -0.063412435 -0.19445688 0.17991178 -0.15224898 0.020040613 -0.44559452 0.050550885 0.224875 -0.40475798 0.018762404 -0.43779764 -0.17404372 -0.49652305 -0.18930395 0.019532736 0.36243904 -0.072837725 -0.5074734 -0.11946642 0.35355765 -0.25752956 0.10566046 -0.06147508 0.17310159 -0.01650643 -0.31295294 0.30344772 -0.43691158 0.49645945 -0.4975549 -0.43311098 0.2634314 0.14028859 0.0043031108 0.14660557 0.33546275 0.099546455 -0.09165538 -0.36854854 0.026132062 -0.37921172 -0.50923324 -0.19793424 -0.21321994 -0.37679118 0.21445392 -0.07162514 -0.021897994 -0.1358996 0.5332125 0.037584063 0.013497321 0.49199888 0.19597189 0.31052354 -0.31537065 -0.18283132 -0.20405187 -0.09298408 -0.059428148 0.0022890754 0.008502384 0.1432173 -0.06318336 -0.10604874 0.061057344 -0.32306343 0.47249913 -0.15030605 0.10544768 0.43935734 -0.16431634 -0.19014955 -0.041469797 -0.121915795 -0.1181565 0.54466456 0.23769818 0.04927473 -0.042341463 -0.37989202 0.014413308 0.20499761 0.8016878 -0.027453184 -0.17665532 0.26123345 -0.5704176 -0.08473814 0.36191925 -0.38561422 -0.143036 0.14870168 0.32489777
313 -0.18054639 -0.11356222 -0.32681975 0.0036979003 0.07175343 0.046539705 -0.60104626 0.27321708 0.14081906 0.15147182 -0.41413006 -0.017892176 -0.31498048 -0.08241427 0.016304137 0.1734601 0.064598486 -0.48631078 0.1602522 0.26894277 0.06661679 0.20431736 0.10922716 -0.19965929 0.17339955 0.24773309 -0.18748635 -0.14404346 -0.5804834 -0.07472648 0.021145618 -0.037211515 -0.3374054 0.25411206 -0.122649506 -0.00015715374 0.46952423 -0.056675162 -0.15541984 -0.3850151 0.34192264 0.16258791 -0.6656667 0.17611235 -0.73549336 -0.04032687 -0.7289533 0.030488968 0.18352139 0.084197275 0.009265963 -0.18760179 -0.22891654 0.45576918 -0.17248869 0.23524679 -0.39185223 0.34751803 -0.024248693 0.10904346 0.16631292 -0.36904195 0.30870944 -0.44207436 -0.4698268 0.33822674 0.11413014 -0.0014106866 0.17436346 0.2749798 0.12317369 0.12693521 0.0063109454 0.28455937 -0.34383738 -0.45647067 -0.38780263 -0.033628173 0.12042185 0.25315374 0.072405726 -0.14400366 -0.12398459 0.37551916 0.12859976 0.19361344 0.21059738 0.2913623 0.18818128 -0.18542117 -0.05917311 0.13136078 0.06358599 -0.019061014 -0.0108634 -0.16997999 0.23463221 0.020123605 -0.06852398 -0.11616772 -0.060648568 0.36023256 0.041458026 0.16705148 0.2313635 -0.22308487 -0.14695388 -0.18569386 -0.076123975 -0.21162483 0.693572 0.16843244 0.015742142 -0.18262969 -0.15409523 0.093504414 0.011121475 0.6489466 -0.22549206 -0.042643823 -0.0027639146 -0.46163756 -0.07046594 0.29746944 -0.18864423 -0.02108945 0.0038695177 0.39757767
291 0.07854441 0.10176647 -0.13558885 -0.37208602 -0.19918023 0.27165404 -0.6252887 0.19405398 -0.114847325 -0.13576698 -0.5409657 -0.050781526 -0.38158068 -0.14601412 -0.14541773 0.0938748 -0.02745613 -0.23206218 0.2827026 0.23915914 -0.17373793 0.21121226 -0.10629477 -0.34879416 0.28275347 0.2335922 -0.19231747 -0.14565974 -0.6314601 -0.21662223 0.0779163 -0.16821101 -0.25196686 0.27849045 -0.2611544 0.15975143 0.4441406 -0.14737105 -0.08859298 -0.23820063 0.19239955 0.023398515 -0.7875746 0.09833726 -0.46337664 -0.19107866 -0.5227363 0.032778133 0.2621228 0.39556047 0.08223338 -0.1605006 -0.24843048 0.31589103 -0.19276904 0.040401462 -0.11667362 0.091087095 -0.025791835 -0.17978042 -0.07341062 -0.23721418 0.37489936 -0.332962 -0.48570755 0.27461085 0.045646537 0.12671551 0.018670077 0.18133426 -0.26339543 0.12647858 -0.0997889 0.25100535 -0.49422306 -0.41546506 -0.4157067 -0.12605976 -0.10875142 0.101890445 0.0014340796 -0.094613045 -0.2540505 0.49616286 -0.03370208 0.23627095 0.34964794 0.32733205 0.08325222 -0.2057721 -0.1388888 0.03163952 -0.07021391 -0.22356702 -0.10891628 -0.055552438 0.4691527 0.1792109 -0.03330123 -0.024397599 -0.36189616 0.24663511 0.40954524 0.25538814 0.35816965 -0.25095204 0.028487233 -0.16744651 0.019811437 -0.0430176 0.34361884 0.48046312 0.13382764 0.1294862 -0.032731235 -0.041163754 0.13231912 0.696365 -0.15845467 -0.14747892 0.112883456 -0.59899807 -0.150734 0.21671304 -0.12538242 0.07339968 0.06948199 0.40963015
118 -0.27901775 -0.024492914 0.015635243 0.067516744 -0.049638215 0.10056837 -0.41066247 0.3855733 0.071036115 0.071570285 -0.57745546 0.016564688 -0.2633756 0.08235766 -0.09555944 0.0762986 -0.014545499 -0.28549582 0.2596488 0.12293217 0.034330323 0.29377967 -0.045922823 -0.30712903 0.07600579 0.35503533 -0.19637208 -0.07025712 -0.56397146 -0.07172974 -0.09448914 -0.23709689 -0.42393282 0.22647719 0.05153204 0.01713984 0.5049537 -0.19636355 -0.22792245 -0.18834382 0.4097362 0.10550582 -0.59254944 0.0012872134 -0.45606202 -0.0047913725 -0.8382574 -0.04288784 0.26243162 0.23814705 0.09460543 -0.16167504 -0.21011184 0.33054292 -0.17167728 0.24020159 -0.28765208 0.19411519 -0.016590148 0.021363353 0.35107324 -0.23169363 0.23202722 -0.4526956 -0.33336174 0.09770374 0.17629533 -0.197364 0.16525914 0.12569092 0.17550401 0.16947185 -0.09733294 0.20250905 -0.35905102 -0.34729743 -0.23237433 -0.10081557 -0.13107601 0.33578447 0.25439978 -0.31818563 -0.11353335 0.27534023 0.0436656 0.17993516 0.3375908 0.15049632 0.40259084 -0.22975996 -0.005522735 -0.06787012 0.10781869 -0.069151096 0.14973539 -0.07590579 0.08793807 -0.053102218 -0.18435548 0.15905844 -0.2558977 0.43763104 0.19308735 -0.06845958 0.21197397 -0.1647425 -0.11788946 -0.09101481 -0.06347772 -0.22361821 0.5387301 0.19165236 -0.103985876 -0.23750842 -0.1319099 0.124304295 0.13927872 0.8594477 -0.16742861 0.04155415 0.1605228 -0.4218154 -0.16243084 0.49613273 -0.26167363 0.13441718 -0.22131948 0.57451457
58 -0.2318009 -0.09635772 -0.08968088 0.34999058 0.5113025 0.22557837 -0.29030553 0.16285756 -0.14409041 0.120589405 -0.008568294 -0.013899632 -0.6114073 0.029134568 -0.32175598 0.023656432 -0.28268248 0.12433846 -0.20029888 0.193641 0.11253033 -0.10850111 0.05514538 -0.094701536 0.2750596 -0.14546582 0.24342386 -0.18344326 0.04307899 -0.2993401 0.47368413 0.18104444 0.17403917 -0.31733918 0.21408159 0.23081844 0.07523669 0.014777925 -0.1841801 -0.09618955 0.30094162 0.18244033 -0.16358268 -0.16030322 0.2516331 -0.17169203 -0.20306921 -0.32530543 0.16600786 0.17050265 0.30000925 0.114729166 -0.26537144 0.024746118 -0.14381605 0.0795425 -0.36092666 0.16265403 -0.27162123 0.33411354 -0.26464468 -0.41666418 -0.055015508 0.027526703 -0.14733723 0.29156247 0.4148052 0.33486342 0.18160734 0.31272957 0.28371862 -0.17565894 -0.050279457 0.045138728 -0.38842645 0.017688168 -0.17931579 -0.20773764 -0.20281282 -0.09821191 0.2147094 0.22489312 -0.32952657 0.15720598 0.025505915 0.29049918 -0.15898831 0.32178986 -0.084947355 -0.038193006 0.06750702 -0.11959811 -0.2627837 0.17154214 -0.1862304 -0.17290193 0.048277345 0.15070786 0.2466531 -0.100812815 -0.17031506 -0.026956392 0.052417453 0.067758635 0.14598714 -0.2575628 -0.21858303 0.12636034 0.05678407 0.017051475 0.028961364 -0.08692718 0.24403536 -0.12036228 0.0027943065 0.0016623841 0.10911992 0.14164089 -0.46126488 0.04377325 0.11491414 -0.303131 0.08491154 0.08940175 -0.1266074 0.18564335 -0.31494364 0.33954102
342 -0.006881215 0.070967525 -0.21363923 0.030698868 -0.08075634 0.08833456 -0.47448555 0.51206726 0.1867319 0.04809687 -0.38396177 0.16157842 -0.16194345 -0.028280986 0.16779123 -0.018496942 0.07734111 -0.4142497 0.22010507 0.087496154 0.11005738 0.21195729 0.10618958 -0.22034219 0.13884647 0.34225756 -0.12142119 -0.005246567 -0.57855946 -0.18587705 -0.09164985 -0.18418723 -0.2860086 0.20727476 -0.11183491 0.043478277 0.33525878 -0.030553125 -0.22895515 -0.40008563 0.2774818 0.12154086 -0.7133474 0.008899534 -0.5797838 0.013713878 -0.9101583 -0.032961037 0.01636423 0.13377729 0.05651498 -0.20177199 -0.13194801 0.5447903 -0.25446543 0.21779494 -0.35620162 0.3205378 0.13472286 0.02094833 0.28363177 -0.3764942 0.3698128 -0.461135 -0.49488345 0.194546 0.32056078 -0.120946035 0.20388673 0.3295697 0.13146968 0.1940171 -0.088645 0.34696782 -0.29762033 -0.28382185 -0.29775104 -0.13343754 0.027493889 0.23650216 0.22353335 -0.25007996 -0.11750584 0.3872315 0.107716955 0.23099351 0.28506237 0.2502737 0.24146725 -0.33111733 -0.07691625 0.08850704 0.04858324 0.13704196 0.059081275 -0.0692667 0.11061216 0.04830498 -0.10139401 0.13535318 -0.24000667 0.36227795 0.16200995 0.0828933 0.3945832 -0.18988729 -0.13026011 -0.16825886 -0.070285 -0.15032315 0.58257353 0.00012242452 -0.1318766 -0.1698901 -0.039448567 -0.012129323 0.09543056 0.7475122 -0.161871 0.051619664 0.3318463 -0.46759474 -0.108070664 0.2551409 -0.33549595 -0.07697063 -0.10516905 0.38285133
82 -0.26052865 0.058327887 -0.10047354 0.12793447 0.007870571 -0.013265174 -0.62444127 0.3989081 0.2134711 0.108703904 -0.31873327 0.032275688 -0.27988744 0.056252938 0.03264409 0.16693513 -0.0398635 -0.48793423 0.2504535 0.26608914 0.067147635 0.2967482 0.086007014 -0.24667573 0.12977706 0.40100244 -0.24740945 -0.06792441 -0.5691867 -0.036447074 0.015041985 -0.38779667 -0.20905457 0.15464254 -0.08819558 -0.14359276 0.3730053 -0.13935447 -0.24983566 -0.44545788 0.3303257 0.06885939 -0.68661004 0.08907889 -0.60397166 -0.035776928 -0.7615927 -0.12898153 0.17291087 0.2029636 0.033899184 -0.12960419 -0.07764088 0.38660002 -0.18982767 0.2149195 -0.24405752 0.27072176 0.058498807 -0.05144469 0.3509461 -0.24118535 0.102068104 -0.40020913 -0.31039774 0.30025873 0.07192556 0.10612038 0.20197871 0.23364805 0.12863356 0.024844833 -0.24190807 0.12591827 -0.47457385 -0.43358633 -0.37854218 -0.07599458 -0.09960149 0.34134084 0.16203938 -0.2658361 -0.19641757 0.5112248 0.097089 0.17693098 0.45487228 0.2479243 0.38517782 -0.4110682 0.02464538 -0.044142824 0.23806602 0.10076557 0.13306782 -0.04194157 0.051299214 -0.001926916 -0.15467593 -0.01493286 -0.2533842 0.62531304 0.14839706 0.020600205 0.21169153 -0.10265252 -0.24768847 -0.08556324 -0.13238771 -0.06284667 0.47153842 0.286986 0.09329155 -0.29446205 -0.07993649 0.07412499 0.17105554 0.69348097 -0.10123543 -0.06329644 0.087619856 -0.32808542 -0.27926302 0.4249023 -0.43635818 -0.018070783 -0.019104712 0.4945392
53 -0.41104248 0.45400065 -0.26144427 -0.1786839 0.107527316 -0.14007775 -0.27755174 0.38370356 0.03352679 -0.39560747 -0.5106762 0.051921904 -0.31034705 -0.103857696 -0.14844409 0.06492109 0.0858849 -0.3727255 0.1559552 0.102369696 -0.32816222 0.2502104 0.3094604 -0.52290726 0.22043695 0.5002008 0.15000917 -0.07227735 -0.63533854 -0.12006164 0.016241275 -0.22345844 -0.52125615 0.37937343 -0.050102122 -0.09902147 -0.055819504 -0.012584768 -0.09594482 -0.2615063 0.14266601 0.16933656 -0.8017511 0.10670336 -0.39985657 -0.22312917 -0.5667504 -0.23612995 0.36455625 0.19184457 -0.25096187 -0.35670492 -0.44621217 0.4395439 -0.06743738 0.22231601 -0.18222769 0.52850986 0.019429393 -0.09672155 0.24211934 -0.36491022 0.4130258 -0.07692474 -0.67107475 0.42960167 0.19690926 0.048391715 0.25337437 0.41630325 -0.026057078 0.099358045 0.09133144 0.06927696 -0.26045263 -0.17670487 -0.24905854 0.07542834 -0.038953036 0.14264095 0.30118585 0.024957584 -0.04959639 0.5055902 -0.024024354 0.2595662 0.33699816 0.0065237 0.30370668 0.115597256 -0.016836453 0.07768352 -0.4446172 0.14187711 -0.06983382 0.040267628 0.21000503 0.0768315 -0.19321562 -0.17753279 -0.08130634 0.029756112 0.30270606 -0.019024298 0.341489 -0.42820278 -0.18526036 0.029084686 0.31874934 0.13251913 0.23430188 0.05032712 -0.07420146 0.33078125 -0.09242329 0.062078793 -0.037914433 0.59205395 0.13140258 -0.23195288 0.082774855 -0.55422676 0.03130679 0.3421673 -0.33152598 -0.20836538 0.14449334 0.20177579
104 -0.088910855 0.091472924 -0.23458634 0.061168343 -0.048261732 0.13517632 -0.5064664 0.26450336 0.2533025 -0.20193797 -0.6545896 0.19767967 -0.31586254 0.017541854 -0.12184017 0.024923367 0.37332943 -0.29178557 0.3074859 0.20469311 0.0032418235 0.32020944 -0.019098263 -0.4322806 0.26050282 0.15513204 -0.117633715 -0.15473357 -0.541307 -0.35357827 -0.06797122 -0.22864436 -0.3255012 0.13042176 0.02800645 -0.15345097 0.29537383 -0.13457403 -0.06786802 -0.28116778 0.25196242 0.09917629 -0.32840854 -0.26634106 -0.37557998 -0.07309538 -0.69151205 -0.012655117 0.17537454 0.25522262 0.21284762 -0.1367636 -0.16048098 0.46614283 -0.098981336 0.2394075 -0.1863993 0.16789289 0.100946605 -0.041166708 0.30087852 -0.22308724 0.34017435 -0.42424962 -0.36199546 0.11184729 0.32111335 -0.23260124 0.2724951 0.33184692 0.3026215 0.08987392 -0.24413313 0.3595993 -0.21439512 -0.340065 -0.5142895 -0.10480757 -0.27969906 0.2648143 0.08503116 -0.30250347 -0.071353965 0.25795865 0.074812315 0.15244451 0.34767318 0.3297308 0.3903671 -0.23171149 -0.1411339 -0.1216606 -0.14785457 -0.19397013 0.065315716 0.02557748 0.1305674 0.0015161919 -0.07245246 0.15394194 -0.45286945 0.45116857 0.25572532 0.1237851 0.30588362 -0.25514334 -0.10032048 0.10508192 -0.1438955 -0.3234051 0.36152527 0.092062354 0.057165068 -0.0452286 -0.22167979 0.00599823 0.12897305 0.926465 -0.22886674 0.097889654 0.21408296 -0.45306164 -0.19738694 0.26398236 -0.24442738 0.0146390125 0.10979254 0.22895631
3679 -0.41586992 0.29183483 0.55568904 -0.16493827 0.4479096 0.645798 -0.5135954 0.04123375 -0.45060697 -0.29500833 0.13228795 -0.77628064 -0.46241266 0.5511935 -0.1181762 0.7832872 0.2328262 -0.12564574 1.0297474 0.5422726 -0.5833218 0.24300252 0.07073154 0.093425415 0.4601769 1.223717 0.03414821 -0.57990795 0.041086927 -0.076425344 0.182261 -0.5139863 0.10112363 0.19310692 -0.04968579 -0.0017001837 -0.04529761 -0.051661633 0.21526457 -0.5264876 0.010281892 -0.31558147 -0.7810988 0.44500443 -1.0208893 -0.337233 -0.14793819 0.04347819 0.078895405 0.39051425 -0.32018635 -0.23687047 -0.10760874 0.38612837 -0.5121853 -0.13821131 -0.7381503 0.6842508 0.74199104 0.1256541 0.63721395 -0.45532256 -0.08351754 -0.3054951 -0.40683556 -0.22611102 -0.45565405 -0.5813835 0.29848164 0.32570758 -0.47618046 0.58321226 -0.52246195 -0.09740025 -0.47894037 -0.3710139 -0.20656662 0.3895854 0.19238071 0.88434064 0.38371626 0.5416166 0.49675164 0.55480987 -0.072680995 -0.53689647 0.81147414 0.6130704 -0.10688522 -0.65561014 0.08627806 -0.20962936 0.17026158 0.8800445 -0.2914062 -0.18393154 0.14088845 -0.36053014 -0.1763853 -0.7943699 -0.223392 0.35287216 1.0323503 -0.22135997 0.6448073 -0.20696962 -0.43675762 -0.7002666 0.25467518 0.15901345 0.6695747 0.37729904 -0.21818879 0.45662236 0.050086007 -0.25328395 -0.32822192 0.42970967 -0.18437377 -0.38875765 0.43501362 -0.26224342 -1.539348 0.93856025 -0.3859017 0.2401131 0.016656779 0.55778897
329 -0.03305217 0.17322762 -0.052279327 0.05819721 0.06731927 0.15647529 -0.10169211 0.2630733 -0.2864816 -0.15450862 -0.5401788 -0.093427286 -0.87807804 0.14839791 -0.21987781 0.21433552 -0.17490645 -0.24562387 0.31132412 0.44538745 -0.18043114 0.16202728 0.016708793 -0.46990818 0.411866 0.32199442 0.15314059 -0.13597752 -0.4686041 -0.26563168 0.26116258 -0.3261674 -0.2399387 0.09838231 0.09711498 0.00047615185 0.1934012 -0.04961277 -0.09607899 -0.27317312 0.09267719 0.16655976 -0.51837146 0.053845298 -0.1628507 -0.053635523 -0.82789767 -0.11631977 0.5092307 0.34371778 0.057626948 -0.21737318 -0.34338298 0.17301013 -0.24829501 -0.030371027 -0.12616001 0.37620622 -0.2839182 -0.031648133 0.11863273 -0.24591716 0.42841515 -0.22190909 -0.4417318 0.35280302 0.2805196 0.07489438 0.3234391 0.167612 0.2311206 -0.17619169 -0.10169058 0.18914229 -0.48710188 -0.39808252 -0.28866637 -0.2992502 -0.17242676 -0.004617919 0.37006113 -0.0089986855 -0.18958133 0.45025456 0.051211722 0.18004961 0.42973366 0.20714137 -4.7640682e-05 0.09153223 -0.044481985 0.14547352 -0.035570208 -0.13236468 -0.05470637 0.07657023 0.078045405 0.40888584 -0.1423594 -0.06406629 0.010496832 0.23895305 0.3514581 -0.10996357 0.23658545 -0.032006312 0.20628458 -0.08294656 -0.020196714 0.2807108 0.15422992 0.302025 -0.047942095 -0.020824743 -0.0009267433 0.24094465 0.08667845 0.5059849 -0.15512861 0.05437733 0.27761087 -0.49057728 0.0060177674 0.24023756 0.0074929288 0.26209074 -0.3541787 0.17390299
13 -0.12940033 0.04116987 -0.18836254 0.018714197 -0.01787942 0.10166392 -0.46609864 0.29627874 0.032689176 0.055088926 -0.5017751 0.08221108 -0.2174476 0.00548875 -0.018063147 0.07854829 0.051295355 -0.3364533 0.16957417 0.19470099 0.1155252 0.19104177 0.04448406 -0.255421 0.21990514 0.3181018 -0.14769676 -0.15137091 -0.6070772 -0.23478025 -0.14775208 -0.13296984 -0.38373828 0.12642314 -0.09809762 -0.026722359 0.54256564 -0.21412909 -0.3014338 -0.38789192 0.36420006 0.14667353 -0.75966436 0.0034679775 -0.552366 -0.06476092 -0.87900716 0.05273018 0.19162937 0.23126356 0.068233594 -0.15200317 -0.19948055 0.4434048 -0.19532162 0.29980513 -0.21479587 0.26409546 0.095281266 -0.0066063497 0.29901552 -0.25928438 0.31556678 -0.36245462 -0.35367274 0.25047573 0.09001184 -0.0011305637 0.11102576 0.21505043 0.06131299 0.17020667 -0.083984114 0.29398015 -0.255181 -0.3500683 -0.40105623 -0.10499943 0.014997968 0.30324903 0.20240614 -0.20809689 -0.17777924 0.23382252 0.13114576 0.18723454 0.24375333 0.24885476 0.26545638 -0.27007052 -0.11179448 -0.024041953 0.08679043 -0.010063976 0.03210368 0.069522254 0.1666586 0.11181151 -0.13040024 0.10238744 -0.20049857 0.44412902 0.10727795 0.10391512 0.24011016 -0.17073396 -0.11475708 -0.0069015394 -0.13414037 -0.192269 0.5509969 0.094970345 -0.06291116 -0.17566782 -0.026949633 0.061903555 0.16303709 0.76903236 -0.2927826 -0.029338857 0.11310764 -0.45628384 -0.15290028 0.4139411 -0.23255336 0.09260865 -0.10469806 0.4306216
339 -0.16756766 0.14266711 -0.1573133 -0.22754443 0.17596744 0.13699551 -0.61674845 0.34295154 -0.09412227 -0.07718966 -0.7050778 0.16978294 -0.48525912 -0.12927091 -0.11662715 0.19727619 -0.18166453 -0.3075064 0.24490266 0.18837212 -0.024766207 0.17511384 -0.094433405 -0.06988998 0.27065992 0.43563753 -0.1454291 -0.11104144 -0.6293137 -0.2527397 -0.010984162 -0.14646663 -0.07593952 0.40173766 -0.12507723 0.20843148 0.25582302 0.04519653 -0.36109373 0.021607399 0.12421617 0.14686559 -0.71013486 0.19812945 -0.5456109 -0.013594268 -0.3553569 0.19812736 0.39808604 0.36273003 -0.063286535 -0.17640401 -0.25789067 0.2980029 0.048714805 0.05865977 -0.20881099 0.026142348 0.1085714 0.016442908 0.003152552 -0.4004266 0.34478423 -0.19384427 -0.39394543 0.32158768 -0.083944224 -0.29374433 0.09807604 0.26299843 -0.18783353 0.028135065 0.0672372 0.19387181 -0.4844771 -0.20035487 -0.3681224 -0.13852878 -0.2402586 0.22054526 0.02140553 0.05197699 -0.24506408 0.17233056 -0.047618758 0.14228767 0.6073927 0.3105779 0.30450797 0.062558666 0.028035842 -0.07328436 -0.08110805 -0.30192035 0.0050249095 -0.2272697 0.15942317 -0.09333939 -0.24641787 -0.107283674 -0.15223972 0.07974602 0.49654505 0.012045954 0.29654893 -0.10035273 -0.01695239 -0.18015876 0.19356503 -0.018226545 0.52374685 0.1387764 0.09428239 0.15781371 0.018691989 0.0140880365 0.2105277 0.53026706 -0.020250652 -0.10315758 -0.05738489 -0.4029219 -0.279556 0.25044325 -0.080318294 -0.1552207 -0.2429321 0.31927514
211 -0.185425 -0.0926332 -0.18663801 0.103153184 0.0026262163 0.09812366 -0.344193 0.40403995 0.22511889 0.02851414 -0.56148577 -0.17604217 -0.2900835 0.014075762 -0.027693788 0.06801023 0.0030230065 -0.3623165 0.2562162 0.17101775 -0.0007017641 0.26068765 0.20312053 -0.22484456 0.020173807 0.30640918 -0.09091857 -0.020072898 -0.47576517 -0.04625947 0.0053303977 -0.21086048 -0.5835944 0.17869289 -0.08339587 -0.070744395 0.4854954 -0.14882961 -0.21917352 -0.3286993 0.2698933 0.09817039 -0.65339553 0.06271127 -0.45853227 0.00828148 -0.88346845 -0.02987609 0.14737041 0.13187194 -0.0104922755 -0.096243806 -0.29242554 0.4349943 -0.17437707 0.16343868 -0.21652697 0.39499113 -0.06069112 0.058973175 0.25183952 -0.3063066 0.30642593 -0.3389657 -0.3674213 0.11462111 0.12950887 -0.07508128 0.10703031 0.21930641 0.13150994 0.2602899 0.12486803 0.28906903 -0.27466485 -0.40349624 -0.2687381 -0.08105768 -0.03522955 0.23357378 0.33824444 -0.25681043 -0.15792026 0.26088318 0.036618773 0.19182841 0.17243335 0.14047313 0.22763903 -0.2991221 -0.13302568 0.08504205 0.167932 0.026542354 0.0637297 -0.045026783 0.08654048 0.08982443 0.05165817 -0.059828527 -0.064338334 0.44334394 0.10105217 0.1409807 0.1312261 -0.14316961 -0.23025022 -0.10509044 -0.037720118 -0.1595601 0.7095107 0.22833292 0.018961009 -0.23131286 -0.17497748 -0.02124708 -0.0012492987 0.72432935 -0.3093123 -5.9401253e-05 0.10219148 -0.47438017 -0.23827368 0.56447726 -0.3141962 0.17526416 -0.2036376 0.5002104
324 -0.21287698 0.17655855 -0.050773025 -0.09407153 0.2059205 0.062597305 -0.41523597 0.10368461 -0.08879901 -0.046398435 -0.61019564 0.025670093 -0.51655966 0.12915218 -0.2965022 -0.086481094 -0.12857957 -0.46178558 0.13013998 0.18962681 0.0135214655 0.22842272 0.048136916 -0.23127854 0.006818821 0.30189037 0.17775609 0.0038154388 -0.5936988 -0.3131034 -0.20961553 -0.19930203 -0.10862908 0.08717063 0.12226579 0.19139154 0.3746875 -0.18893135 -0.4868619 -0.019674327 0.03610462 0.39474967 -0.61257154 -0.020034581 -0.055541065 0.027083209 -0.6596216 0.0296274 0.16749439 0.4570599 -0.028568357 -0.34675568 -0.26906633 0.30153763 -0.22896524 0.23197013 -0.029038155 0.16974387 0.060575653 0.06782224 0.15578774 -0.3271551 0.38011602 -0.098735966 -0.41007397 0.37475854 0.32703498 0.1760228 -0.0623501 0.4371139 0.0686185 0.019445734 -0.058832344 0.20119394 -0.407304 -0.36526412 -0.4374389 -0.39082855 -0.1988883 0.12316151 -0.12651299 -0.14888214 -0.33245042 -0.014999396 0.108562045 0.11266552 0.39749494 0.13585834 0.13520117 -0.15338421 -0.10276809 -0.10497421 -0.007474236 -0.1580147 -0.001111725 -0.19572012 0.21957377 0.19489259 -0.0023968604 0.07669055 -0.15595691 0.270604 0.07839447 0.028182283 0.042035036 -0.15318389 0.013333998 0.09513571 0.076485455 -0.07864216 0.26374578 0.26295796 -0.009724145 -0.31517348 -0.1035964 0.06631922 0.1685268 0.47928745 -0.21487637 0.07266219 0.18723275 -0.6521818 -0.06914102 0.28404003 -0.07217934 0.25092572 -0.057915248 0.28846675
198 -0.06144864 -0.10996665 -0.09366632 0.11256691 -0.34894004 0.3217081 -0.073627986 0.21904805 0.4615656 -0.11752666 -0.3256976 -0.085134275 -0.5036681 0.4480651 0.0032081923 0.0008354553 -0.16349033 -0.0042344173 0.25191733 0.07257266 -0.66673714 0.38610595 -0.17131302 -0.25508446 -0.3148059 0.5549435 0.079067394 0.009416594 -0.29486892 -0.070294335 -0.044315983 -0.51955897 -0.1531553 0.19121513 -0.2556776 0.6369304 0.060844682 -0.08743244 -0.10653968 -0.53843224 -0.05286021 -0.42898318 -0.17761262 0.20644595 -0.046190355 0.27077302 -0.40724668 -0.07442767 0.034881245 -0.043062158 -0.044916257 -0.3568899 -0.10295405 0.10293905 -0.41970414 -0.26848325 -0.5581091 0.11225507 0.1255604 -0.37344426 0.10665764 -0.28926176 0.11717891 -0.37683976 -0.17446005 0.2273992 0.3126798 0.010524306 0.14468496 0.18519124 0.18002626 0.45505553 -0.08833728 0.23370439 -0.28076106 -0.10378694 0.3100143 -0.0074967747 -0.08671766 -0.18208754 0.36238214 0.27411363 0.07997587 0.16748185 0.020327318 -0.25581 0.6379338 -0.04848591 0.49407703 -0.16724455 -0.008141254 -0.27696106 -0.15147871 -0.12094198 0.28192955 -0.113001004 -0.14987178 0.26441753 0.23171248 -0.08985375 -0.38528267 -0.0043080356 0.1213348 -0.03524475 0.33057043 0.24101305 0.13367896 -0.4244538 0.49023852 0.3021347 0.4314267 0.19533248 -0.13902664 -0.03910484 0.11593485 0.28533417 -0.16341464 0.5656369 0.6079492 0.25773236 0.49278826 0.16485554 -0.24418448 -0.04090374 0.11564197 0.024002364 0.08136434 0.19080606
173 0.12765972 0.055920288 -0.030819573 -0.06486021 -0.16095081 -0.061986767 -0.06114629 0.14548708 0.23596615 0.06245195 -0.37839222 -0.036789592 -0.15416586 0.15423548 0.019254789 -0.04465745 -0.17315151 0.018070962 0.055347573 -0.05390523 -0.40302956 0.24866147 -0.27759522 -0.42956752 -0.1659579 0.2918682 0.055813555 -0.11979055 -0.2770815 -0.17863186 0.083469614 -0.0988437 -0.3483286 -0.051056482 -0.31780532 0.26579466 0.038635015 -0.10552488 -0.36694148 -0.11940075 0.071950324 -0.06581308 -0.44498122 0.13267407 0.10215982 -0.07725354 -0.5240823 -0.08513903 0.22465885 -0.30060932 -0.19093058 -0.035078514 -0.041078042 -0.0996364 -0.5650939 0.09564331 -0.25380662 0.15997858 0.09208438 -0.5354289 0.28818914 0.08931875 0.14038263 -0.085800625 -0.3799153 0.24237885 0.31509444 -0.03411008 0.31374022 0.045850106 0.17541566 0.06906659 0.15288574 0.007118397 -0.309138 -0.14114934 0.05205927 -0.39029086 -0.028685896 -0.35043046 0.10270797 0.022708837 -0.21758355 0.26785624 0.054054327 -0.064610295 0.47731042 -0.053323306 0.40879557 0.123274595 -0.13676997 -0.05228501 -0.00091761514 -0.2476597 0.078155145 0.31973475 -0.14039744 0.45073694 0.316081 0.047229353 -0.043544397 -0.0032208578 0.09542471 -0.0572456 0.14342405 0.20162603 0.17285347 0.12975204 0.40431207 0.25165263 0.15016274 -0.029751945 0.06793442 0.091328725 0.030875785 0.2721604 -0.15455213 0.5815926 0.5615433 0.18786255 0.5583526 -0.048953693 0.019350182 -0.17805928 0.14325082 -0.024782117 -0.0023973035 0.051573373
128 -0.124724455 0.1303427 -0.23404099 -0.020582248 -0.1361237 0.087130785 -0.36689413 0.2363471 0.2718088 0.054818235 -0.4427587 0.020758852 -0.3660496 0.008679977 -0.00038925096 0.107440144 -0.046284016 -0.4470379 0.14245784 0.15336993 0.0773908 0.26837197 0.10363859 -0.2982728 0.17376979 0.31001002 0.024790524 -0.13810958 -0.47516453 -0.19624336 0.023240833 -0.26425588 -0.35934305 0.0635483 -0.037292488 0.040689845 0.43160224 -0.07220338 -0.29657423 -0.43930992 0.08159958 0.03476964 -0.5527567 -0.026133657 -0.35210755 -0.03535777 -0.8002726 0.048324563 0.081610955 0.11746047 0.0362056 -0.18564478 -0.28987828 0.3913811 -0.22654304 0.08963746 -0.23110925 0.20558986 0.1344832 -0.048970826 0.24278785 -0.33591703 0.36690164 -0.33974996 -0.501957 0.36410028 0.42066213 -0.2604497 0.19320352 0.3993658 0.15939926 0.03923449 -0.17539237 0.32013854 -0.2842577 -0.33833796 -0.45921475 -0.27077556 -0.13562706 0.2541486 0.06516269 -0.2776565 -0.17449157 0.27464876 0.27676103 0.17580892 0.36715543 0.25159937 0.18607485 -0.1432125 0.009738778 0.09303735 0.053843476 -0.10858191 0.023778047 -0.05724959 0.1652573 0.0609913 -0.13748409 0.058788475 -0.039444286 0.34077108 0.070888355 0.09936737 0.25425363 -0.08045702 -0.018561622 0.038615156 -0.00024028806 0.051595706 0.40162107 0.23084886 -0.00030350726 -0.16706266 -0.007494919 -0.016027989 0.106039695 0.7575022 -0.390723 -0.16097018 0.169032 -0.58574843 0.0098309135 0.16966628 -0.15543927 0.052577496 -0.06060714 0.22817676
346 -0.15115456 0.35170183 0.001232271 -0.025309844 0.3174968 -0.15224396 -0.034240108 0.2839014 -0.09624052 -0.40016693 -0.45634633 -0.050633933 -0.39851803 0.14735602 -0.27833176 0.09384588 0.2776374 -0.21542646 0.13679588 0.07436208 -0.47872314 0.2776668 0.3845668 -0.51016366 0.13664961 0.3551938 0.18824208 -0.0786788 -0.35037377 -0.05521091 0.10684437 -0.15488824 -0.49306452 0.25843894 -0.02554487 -0.066774294 -0.09957681 0.0079914 -0.021939563 -0.3093481 0.105754085 0.124072194 -0.6931513 -0.014499103 -0.34676102 -0.34393808 -0.7917268 -0.365528 0.26533413 0.105269305 -0.35274708 -0.29233146 -0.46473473 0.31075856 -0.29041582 0.28192893 -0.079507716 0.62257034 0.05658912 -0.19508088 0.55081564 -0.44904745 0.43442246 -0.11518607 -0.6185911 0.35928118 0.035450134 0.1399583 0.38611525 0.30988744 0.1904148 -0.0210196 0.24983269 0.04838645 -0.4083901 -0.42370415 -0.320368 0.023122253 -0.07665585 0.03314252 0.46197903 0.06008998 -0.111127235 0.633803 -0.10162346 0.2410935 0.488958 0.1665968 0.31617713 0.20069805 -0.1176508 -0.0707861 -0.47665805 0.20033227 -0.11798272 0.16370048 0.15541887 0.34913564 -0.06205721 -0.042777702 -0.12280584 0.070746996 0.42002174 -0.015232873 0.4019506 -0.2513846 -0.27677473 -0.014422342 0.2788736 0.1595688 0.289832 -0.10284705 -0.2194434 0.29271808 -0.22251648 0.10505472 -0.20202701 0.66087 0.20341113 -0.15161902 0.31848896 -0.25500187 0.068602175 0.42353466 -0.24481675 -0.16165444 -0.0664752 0.1648057
141 0.06821886 0.21134317 0.087832615 -0.11342659 -0.15906052 0.1054379 -0.39465833 0.28356448 -0.19754761 -0.06597923 -0.3087547 0.009186826 -0.20001785 0.078745335 0.0065356637 0.095794424 -0.014347144 -0.0876599 0.2158426 0.20804717 -0.026211334 0.0006799826 -0.018920116 -0.2263729 0.27217403 0.23815386 -0.17541966 -0.23442572 -0.43027526 -0.16761757 0.04194836 -0.0029969173 -0.20916589 0.23964128 -0.08414969 0.02799367 0.52681243 -0.076788306 0.040847223 -0.4446147 0.1752844 0.15651509 -0.42918757 0.022443155 -0.481772 -0.24109147 -0.6569214 -0.037837137 0.24889226 0.27164626 0.16519806 -0.19812547 -0.20233727 0.22662245 -0.18184228 -0.010035686 -0.040803816 0.13063274 -0.08876367 -0.14195716 0.16610886 -0.31609192 0.5380893 -0.4356741 -0.5451412 0.17239486 0.15960868 -0.22524814 0.2413168 0.21132271 -0.027034355 0.13401295 -0.15436128 0.23526014 -0.37326863 -0.29373166 -0.18374185 -0.26015753 -0.24116696 0.18270245 0.28677443 -0.047016107 -0.09837879 0.5783598 0.013499982 0.29240394 0.18117553 0.19062419 0.11500404 -0.121804066 -0.066003725 -0.021728914 0.04853149 -0.17874366 -0.118347906 0.091607794 0.2836797 0.060319647 -0.07288421 0.01923122 -0.39323175 0.39958876 0.1899606 -0.04544871 0.4554093 -0.1298525 -0.18224323 -0.05319643 -0.016348926 -0.07796902 0.62859964 0.23405533 -0.0152893225 0.0701621 0.01384176 -0.04347574 0.12822533 0.9509333 -0.20564589 -0.14005378 0.43957037 -0.6843999 -0.075844765 0.5826198 -0.2553469 0.13823883 0.04727611 0.5213895
3624 -0.42346784 0.2880599 0.60844296 -0.15622887 0.41705266 0.5876155 -0.57847214 -0.0061449213 -0.44863948 -0.14187518 0.13271794 -0.75362307 -0.53790987 0.52880585 -0.21062852 0.74503064 0.23439853 -0.10885027 1.0088006 0.5717115 -0.5965889 0.21207288 0.06694633 0.093215585 0.49133494 1.2544914 -0.053587675 -0.5367302 0.062290106 -0.0882035 0.1868482 -0.4983334 0.16619161 0.16053678 -0.04195118 -0.028649874 -0.073089994 -0.0010182147 0.22953098 -0.44061488 0.08562987 -0.24662106 -0.76306957 0.47441176 -1.0585321 -0.37251917 -0.14375588 0.007828421 0.17151923 0.37408492 -0.26799664 -0.26077166 -0.09009602 0.43515965 -0.5074661 -0.14689177 -0.7477697 0.66307855 0.726701 0.13175878 0.68392277 -0.42367518 -0.12684798 -0.252509 -0.42363495 -0.21207653 -0.49483195 -0.56627387 0.3318607 0.3290728 -0.3851697 0.5843487 -0.43682015 -0.13079755 -0.44030097 -0.34117475 -0.2438197 0.45649657 0.20531158 0.81371087 0.29307207 0.47447282 0.5266027 0.5608254 -0.110272065 -0.42753738 0.8769893 0.55069166 -0.12109778 -0.60145426 0.11491939 -0.25142112 0.15329057 0.7986801 -0.2066935 -0.20447731 0.208176 -0.33355042 -0.20464759 -0.74227154 -0.30034262 0.30726728 1.0209495 -0.24691299 0.63436455 -0.19482602 -0.38394612 -0.6863403 0.24460095 0.15882508 0.6796224 0.3332962 -0.30456027 0.4502231 0.04686072 -0.25573775 -0.3583099 0.45152247 -0.12589964 -0.36873266 0.4473512 -0.17315839 -1.5140588 0.8160284 -0.44191653 0.21062097 0.025807222 0.5480549
265 -0.22912346 0.05613546 -0.08701049 -0.028103773 -0.08970683 0.048221417 -0.4263765 0.2591417 0.14157996 0.047696676 -0.5023616 0.048202597 -0.27156633 0.10928449 0.03129011 0.12869292 0.17908555 -0.3210925 0.22204426 0.23068209 -0.042815987 0.13363084 0.06519794 -0.2412565 -0.01622696 0.30560026 -0.17344274 -0.0033960056 -0.41223508 -0.2449158 -0.07894507 -0.16627245 -0.43605995 0.12648982 -0.016939292 0.08805684 0.5073917 -0.19273351 -0.15788566 -0.3401671 0.15708426 -0.043320417 -0.5948349 -0.062360644 -0.44509342 0.0031885772 -0.7130906 0.035118736 0.25629792 0.17233428 0.07363403 -0.14174883 -0.29377997 0.3517401 -0.17224556 0.22069988 -0.27549812 0.3079566 0.045514725 0.06939445 0.30705038 -0.32416838 0.26947558 -0.45154902 -0.40436518 0.24297212 0.2734021 -0.10278938 0.13314673 0.2986566 0.14960827 0.21840458 -0.10290483 0.42075783 -0.27646133 -0.4700096 -0.32755244 -0.17979725 -0.021654686 0.2628839 0.25007412 -0.26992175 -0.07907553 0.22234066 0.24982278 0.12990792 0.26490247 0.13585773 0.31662235 -0.31150886 -0.0068115327 -0.050379023 0.049407225 -0.084576935 0.02444265 -0.07844924 0.34395522 0.042825 -0.06874814 0.107094504 -0.24286462 0.50285923 0.15571141 -0.064067364 0.1452475 -0.19912405 -0.17941833 -0.04725649 -0.098870516 -0.16693155 0.55159754 0.26203263 -0.124047875 -0.21698304 -0.11551235 0.02762785 0.07320212 0.81446064 -0.23878324 0.108538195 0.17135713 -0.5254382 -0.10501198 0.54317343 -0.18940014 0.1927218 0.03346374 0.4182836
62 -0.18564332 0.3970379 0.10164046 0.055600163 -0.09308816 0.03624838 -0.2862778 0.2169869 0.08614413 0.043140497 -0.2895101 0.029820181 -0.32628924 0.08166922 -0.066326 0.19059175 0.29268607 -0.23173256 0.030382117 0.054988775 -0.06105785 0.13232277 -0.025335627 -0.19157328 0.19210033 0.4197196 0.03912058 -0.2380614 -0.5054861 -0.09366191 -0.06702136 -0.14648394 -0.28032935 0.15589055 0.08935106 0.11822084 0.4456243 0.03139635 -0.20624994 -0.4198732 0.09519526 0.12151175 -0.36310154 -0.014762474 -0.2211506 -0.11080679 -0.6481526 -0.047550384 0.14725961 0.25090218 -0.01422061 -0.30631825 -0.1326296 0.23330559 -0.15978162 0.20557977 0.11489847 0.17307541 0.09349274 -0.18569906 0.24446552 -0.5518295 0.4099199 -0.43748778 -0.3212161 0.18071888 0.1882103 -0.19733827 0.12446944 0.25897214 0.20150487 -0.04475235 -0.11395239 0.34580767 -0.31041574 -0.33468777 -0.1616113 -0.23909062 -0.26343936 0.15981144 0.18581818 -0.08394174 -0.11098225 0.38678497 0.061551914 0.13013321 0.47770363 0.1950084 0.39446697 -0.20834412 -0.030976575 -0.06898424 -0.059520435 -0.05444656 0.049367256 0.029245995 0.12547106 0.08479734 -0.04043581 -0.028766725 -0.36362448 0.33643326 0.17901206 0.013701636 0.52306587 -0.31578013 -0.35524216 0.010266089 -0.028921891 -0.22592771 0.7739971 0.04650336 -0.17531675 -0.051056113 -0.07555153 -0.052911352 0.01948512 0.920913 -0.16261272 -0.09712881 0.42967114 -0.730896 0.07169074 0.6687353 -0.19237196 -0.05442461 -0.0049155406 0.5713431
223 -0.10867595 0.02079792 -0.11776699 -0.054405063 -0.011989278 0.12733342 -0.4484302 0.2999488 0.17715995 0.053376507 -0.38048115 0.054328337 -0.24157962 0.0571405 -0.06572921 0.009767541 0.08329872 -0.26385808 0.19192395 0.16028458 0.034617268 0.19968987 0.076637164 -0.231864 0.06389698 0.2259188 -0.17607114 -0.09461052 -0.35144386 -0.10412874 -0.10627606 -0.03045201 -0.3379484 0.18601228 0.007735639 0.09196519 0.47750917 -0.059816066 -0.14141282 -0.32342833 0.24222676 0.14691515 -0.5026694 0.021357499 -0.5996889 -0.075645074 -0.68199676 -0.051012885 0.039377365 0.1257736 0.08964977 -0.29792947 -0.24815622 0.47604805 -0.2280966 0.17740329 -0.22623563 0.20506305 0.00027863894 0.0700388 0.33548814 -0.43141338 0.45469368 -0.44055665 -0.5076999 0.25017324 0.18406714 -0.20722078 0.081818104 0.4242088 0.10559226 0.16593061 0.032671057 0.39489433 -0.27802885 -0.42793623 -0.43489322 -0.16596511 -0.11439744 0.29704145 0.12893309 -0.27169475 -0.20004788 0.35695848 0.10462216 0.19815546 0.3010717 0.22013733 0.22416879 -0.14072533 -0.07679024 -0.069572866 -0.008819076 -0.07354662 -0.10353852 -0.11141473 0.2786656 0.021980876 -0.022073397 0.06566075 -0.123790585 0.330198 0.15154366 0.026775317 0.28289676 -0.05729785 -0.2811467 -0.14196765 -0.06638871 -0.12615678 0.6808001 0.15433183 -0.116464905 -0.20824182 -0.2583558 -0.03680254 0.13205093 0.7653243 -0.28838447 -0.042402953 0.13939837 -0.566169 -0.026341746 0.41070154 -0.16335127 0.028876374 -0.0800948 0.35503197
334 -0.09415993 0.2356836 -0.15417923 0.1692581 0.023077833 0.11827614 -0.6991054 0.25662872 0.21056464 -0.14102866 -0.37060553 0.40550512 -0.39418247 0.0109515805 0.14385231 -0.05142577 -0.10607523 -0.4682838 0.27325347 0.27594534 0.06847039 0.21805046 -0.07877299 -0.28922674 0.11398887 0.24423392 -0.14794163 0.022604978 -0.57064706 -0.15552549 -0.09680021 -0.19044828 -0.19524018 0.1837736 -0.04618311 -0.009847614 0.26434755 0.08706667 -0.12936865 -0.2089012 0.121855296 0.24224319 -0.49453104 -0.24703252 -0.44381964 0.20692073 -0.62853473 0.02545896 0.09159563 0.16501738 0.22964571 -0.21192357 0.006482515 0.379436 -0.29394883 0.10190416 -0.27280688 0.20633756 0.10683718 0.0121572055 0.059513252 -0.14425868 0.42068332 -0.416412 -0.39852917 0.33316204 0.2521734 -0.14507045 0.3553606 0.4686592 0.032139722 -0.038960814 -0.041466247 0.34628627 -0.37058127 -0.17532669 -0.49915954 -0.33934692 -0.1810804 0.20053743 0.107662015 -0.029493263 -0.085339054 0.27762067 0.13726929 0.23742805 0.48401904 0.22409812 0.36287528 -0.18957098 -0.16564524 0.08892189 0.069628246 -0.17227972 -0.05153958 0.03172786 0.34144944 -0.14322107 0.014186664 0.20663841 -0.31470445 0.35854053 0.5475024 -0.05809266 0.39837575 -0.022224726 -0.27624163 -0.17723453 -0.061412252 -0.13271512 0.33480287 0.24647465 0.09888074 0.16648199 -0.13885754 -0.065981984 -0.025373228 0.97613907 -0.07396089 0.08201978 0.32236952 -0.62036264 -0.19735156 0.35799107 -0.1189841 -0.12128621 0.24518113 0.25895637
312 -0.3920941 0.11358518 -0.12102838 0.069816686 0.50573564 0.035243973 -0.06566521 -0.09958285 0.30171615 -0.18021502 -0.44640297 0.0534403 -0.003617829 0.09231154 0.109226294 0.049844243 -0.23541485 0.20103426 -0.068392016 0.12651145 -0.11316149 0.17301899 0.2533328 -0.12975025 0.24724977 0.36220723 0.19854504 -0.29369223 -0.20719013 -0.26151034 0.16120484 -0.08941268 -0.5026404 0.15966041 0.07596053 0.023898644 0.29158476 -0.108105645 -0.5349978 -0.07643533 -0.075945914 0.21484993 -0.4586803 -0.075958915 -0.297499 -0.21830033 -0.4312501 0.28178105 0.28853828 0.28016436 -0.006789426 -0.15300606 -0.288773 0.41927254 -0.07294397 0.016971018 -0.015439411 0.70422333 0.16765697 -0.06335187 -0.038165838 -0.10386072 0.5026973 -0.2239554 -0.6029963 0.4888425 -0.038900845 -0.14814788 0.20647615 0.18089727 0.42658976 0.086389974 0.36320508 -0.19160324 -0.7077696 -0.08425281 -0.083709136 0.0957193 0.09391374 -0.069410026 0.0064014746 -0.06823205 -0.2272984 0.05486324 -0.43505797 0.065559775 0.7243432 0.46548292 0.35529727 -0.41506368 -0.5734634 -0.013080128 -0.111106284 0.32383808 0.03964323 0.06078161 0.28146556 -0.10106649 0.29587466 -0.21437323 -0.4729897 0.32299024 0.15784203 0.22305545 0.1844899 -0.30698958 0.015352796 -0.20663187 0.4267733 -0.4829995 0.38362846 0.1651899 0.004114863 0.35260558 -0.24354026 0.0294995 -0.119266614 0.9766597 0.034724765 0.20824407 0.4367823 -0.29178387 -0.31583586 0.26989752 -0.4851984 -0.08671872 -0.053615876 0.50325894
224 -0.1737267 0.26722032 0.06537545 -0.20065974 -0.19399795 -0.03249147 -0.37436885 0.21667908 -0.10483021 -0.09870678 -0.44153547 -0.053128716 -0.5147945 -0.009343903 -0.06879652 0.14077231 0.15366748 -0.24770677 0.13191803 0.21804067 0.070967995 0.11651029 0.093188435 -0.20182347 0.19594997 0.41492426 -0.24553603 -0.1100703 -0.525532 -0.24528389 -0.03012067 -0.1681607 -0.07770663 0.29844478 0.005387889 0.11727744 0.5731771 -0.18816432 -0.17618501 -0.4110258 0.03538328 0.19887157 -0.3976754 -0.051719613 -0.23261432 -0.16146676 -0.56545705 -0.033084236 0.31098673 0.4166741 -0.0030944876 -0.16998546 -0.2379506 0.21553376 -0.1619638 0.14134888 0.0010655485 0.06879659 -0.16364828 -0.19310898 0.1926767 -0.37216017 0.5243476 -0.42327154 -0.5353951 0.40019697 0.31179765 -0.14190403 0.103449695 0.3039879 0.10058065 0.093378484 -0.26881245 0.16554454 -0.41794643 -0.50783694 -0.15261468 -0.36138758 -0.4236958 0.31795806 0.1038762 0.03738747 -0.16156812 0.51848245 0.10668324 0.14849892 0.41391435 0.19834371 0.30268916 -0.23981856 -0.102666564 -0.21017663 -0.07080264 -0.17987598 -0.042209994 -0.056935642 0.18398175 -0.044578686 0.09238758 -0.06340391 -0.352246 0.32703266 0.08102916 0.024473453 0.24872255 -0.2589731 -0.091218315 0.09921106 0.06865218 -0.09293927 0.48332682 0.23671696 0.0005807203 0.008369231 -0.13184765 0.075372905 0.21689154 0.6947189 -0.011483313 -0.1486648 0.33699593 -0.6765584 -0.11666345 0.52795744 -0.28703538 0.04682728 0.06371129 0.43954602
