34 128
34 0.2001239 0.042998467 -0.021215325 -0.09406803 -0.013355966 0.046339758 0.11715651 0.058035478 0.20003195 -0.068444304 0.021845382 -0.006950012 0.13615854 -0.21795473 0.11522222 0.020507568 0.030031864 -0.11716709 -0.17302015 -0.078862086 -0.049531393 -0.029749088 0.2204227 0.07526664 0.0923429 0.058304474 0.014792751 0.07589246 -0.1844987 -0.14882196 0.013752013 0.027158124 0.008885101 -0.10979298 -0.051084258 -0.02680729 -0.10236865 0.078335114 -0.122891776 -0.1300408 -0.12366029 0.12726529 0.042163342 0.09118989 0.004045022 -0.04639206 0.024085963 0.117560335 0.100526944 0.14866634 0.063892975 0.0031244447 0.020188646 -0.1547469 0.0018621957 0.06606494 -0.16263457 0.13889906 0.1003213 0.11007463 -0.053582285 -0.101345144 0.09302277 0.1320937 -0.07861549 0.16989039 0.22085983 0.047078293 0.0043288795 0.03308831 0.20171998 0.0005343708 0.017143307 0.15201548 0.12702136 0.009487493 0.00070112577 -0.053420786 -0.15785515 0.013857698 0.07635769 0.08821461 -0.10438163 -0.18783663 -0.115016975 -0.0271521 0.035404444 -0.06321367 -0.13183054 0.040415823 -0.009189846 0.082239054 -0.042907692 0.0036505335 -0.11883589 -0.0019675666 0.17182267 0.09715846 -0.04753559 0.06362737 -0.22234716 0.08586987 -0.1105155 -0.09723993 -0.027326936 -0.10743531 0.15302682 0.022578524 -0.1738798 0.02832029 -0.12314153 0.26838195 0.20073625 -0.10478025 0.14890385 0.06613243 0.065913 0.08951676 0.13012516 0.033982683 -0.010725589 0.0038738889 -0.09425631 -0.1002397 -0.05187524 -0.027718544 -0.025621569 -0.24826425
1 0.15113895 0.00921753 -0.024665726 -0.14165658 -0.048781473 0.029753048 0.07884529 -0.022002134 0.21818313 -0.050278783 -0.030401507 0.11228798 0.03046633 -0.1146007 0.14727385 -0.112847604 0.15175597 -0.106805615 -0.02044821 -0.051122446 -0.15013018 -0.075314015 0.018560223 0.109096885 -0.007466904 0.11174585 -0.002963903 -0.015174995 -0.106596164 -0.1327241 0.07835725 0.010928063 -0.039095502 -0.118435465 -0.10529636 -0.03760604 -0.025824966 -0.13204804 -0.19530234 -0.1433659 -0.08354779 0.102462314 0.07210707 0.15783325 0.061541382 0.035894223 -0.0483016 0.068113334 0.03400686 0.129401 0.19118972 0.042857345 0.002093933 -0.1557658 0.024851112 0.2083495 -0.06684532 0.12203269 0.11220231 0.16673928 -0.029952377 -0.11428898 0.14636151 -0.05008494 -0.020455424 0.1939631 0.34945968 0.05792961 -0.10087868 0.018125523 0.17883234 -0.034325387 0.097368464 0.09439124 0.07849694 0.065880984 0.026468879 -0.041073963 0.01586591 0.019563487 0.06144724 0.06510672 -0.106909975 -0.07635394 -0.041694023 0.028013181 0.07522699 -0.122153424 -0.20475467 0.12093736 0.0042351466 0.05713673 0.053439178 0.0937587 -0.13944243 -0.16312218 0.23683321 0.06558129 0.058287226 0.027455313 -0.15079068 -0.037165977 -0.15589276 -0.037421513 -0.1888895 -0.1163588 0.114956975 0.0021121176 -0.0691545 -0.12109194 -0.0166291 0.21409968 0.17814305 -0.10576254 0.03989018 0.1845951 0.042204652 0.02639302 0.12218434 -0.0044410564 0.020438744 -0.100054845 -0.08827937 -0.16146861 -0.04612174 -0.051239084 0.03651429 -0.22374183
33 0.21982999 0.05162131 -0.021934055 -0.09293647 -0.0029109495 0.048961714 0.120618686 0.07705925 0.19232412 -0.06740537 0.030430561 -0.030888258 0.14942466 -0.24052584 0.111013696 0.046021257 0.00933587 -0.12243921 -0.20025 -0.08401582 -0.03191456 -0.018891186 0.25625366 0.072106875 0.11192621 0.0518208 0.012451485 0.088664316 -0.19742571 -0.15134904 0.009043596 0.02792661 0.015380782 -0.1052594 -0.03828693 -0.020075563 -0.109001055 0.10926894 -0.10215013 -0.12757781 -0.12487033 0.12769829 0.039774124 0.07667118 -0.004806497 -0.056981925 0.03081043 0.12400115 0.11319538 0.15384392 0.04223411 -0.00073375425 0.024902532 -0.15493125 0.0013610703 0.039936826 -0.17931405 0.140129 0.097065896 0.09935167 -0.05262588 -0.09597437 0.078127496 0.15702496 -0.08924929 0.1645814 0.19161798 0.041050527 0.018704548 0.03281313 0.200603 -0.0022320293 0.0053008664 0.15782858 0.12894654 0.0009174956 0.0001278268 -0.058323193 -0.18151537 0.017689236 0.07500934 0.092185974 -0.101855256 -0.20885319 -0.122743264 -0.037375458 0.032325 -0.052722607 -0.12043719 0.026253594 -0.019536382 0.08487845 -0.053718287 -0.013391237 -0.10614484 0.024125192 0.16476911 0.10525696 -0.06570158 0.07416301 -0.22908822 0.10152034 -0.10276234 -0.1036623 -0.0012645174 -0.10596761 0.15114377 0.030353326 -0.19499946 0.05927598 -0.13740265 0.2771781 0.19966167 -0.10104206 0.15897009 0.041843165 0.060857955 0.09825106 0.12909353 0.04071318 -0.0135400705 0.021380275 -0.0887719 -0.08886683 -0.053385623 -0.015087446 -0.039831717 -0.24955617
3 0.18706292 0.03448056 -0.02682852 -0.10812272 -0.01963729 0.04265 0.11055901 0.041893907 0.21408041 -0.06602295 0.0054204073 0.027924256 0.11090147 -0.20013465 0.12910397 -0.012304834 0.064390026 -0.11900824 -0.13635203 -0.07247158 -0.07580346 -0.03729759 0.16627906 0.08702254 0.06840082 0.0680284 0.012994515 0.055063933 -0.16757531 -0.14227508 0.027782733 0.020003963 -0.001904469 -0.1103003 -0.06058647 -0.026930744 -0.08424388 0.021706076 -0.14054 -0.13726488 -0.113997445 0.12401753 0.052500803 0.10673194 0.0156616 -0.02053639 0.004204474 0.10091186 0.088836335 0.14461197 0.10126548 0.0131706325 0.023601895 -0.15614453 0.01049605 0.11036249 -0.14088234 0.13790204 0.10753795 0.12813243 -0.048569053 -0.10588011 0.10679445 0.080715746 -0.06950119 0.18010318 0.25728896 0.050949752 -0.026113031 0.03280524 0.19977671 -0.008868684 0.043699753 0.13800144 0.11372356 0.024373477 0.0060673296 -0.055512395 -0.111978464 0.018747736 0.07230662 0.083827205 -0.10654948 -0.1632983 -0.09132766 -0.008416744 0.045534782 -0.08337771 -0.15445647 0.0687173 -0.011002504 0.0782404 -0.01513422 0.023241743 -0.12552659 -0.042023756 0.19329856 0.095147625 -0.024221975 0.056549266 -0.20217463 0.05324596 -0.1230034 -0.07772989 -0.07471003 -0.11260355 0.14356008 0.016627936 -0.14752959 -0.0079687815 -0.094529845 0.2606399 0.19787747 -0.10934839 0.12574008 0.09640735 0.05975481 0.07176052 0.12998667 0.019518223 -0.0026004182 -0.027753275 -0.09496512 -0.11922428 -0.05099128 -0.029974416 -0.014588949 -0.24008776
2 0.15848747 0.029586941 -0.024877248 -0.11226781 -0.03778403 0.032690715 0.086799875 0.011120233 0.20581391 -0.0512871 -0.0133766 0.07187348 0.06317534 -0.14704902 0.13820674 -0.05461301 0.100832835 -0.10588364 -0.07509126 -0.059563965 -0.10742154 -0.05968173 0.08579351 0.09321874 0.030737286 0.08624265 0.009741392 0.01916652 -0.13311644 -0.13352503 0.046420667 0.0153030185 -0.019560944 -0.11513944 -0.085517675 -0.03587926 -0.05702291 -0.050382957 -0.16988456 -0.13020007 -0.09882984 0.10594001 0.060363114 0.13136229 0.039373197 0.008700775 -0.022017173 0.08707779 0.063626565 0.12426784 0.13687672 0.02280997 0.017291116 -0.1463403 0.016391456 0.15807925 -0.1027029 0.1229882 0.10144784 0.14005657 -0.04293367 -0.10846496 0.12417603 0.010773955 -0.039089166 0.1844077 0.29885846 0.05574298 -0.06541475 0.023613926 0.18826228 -0.022038119 0.066072576 0.11501685 0.09876246 0.04044547 0.01629905 -0.04125192 -0.044309817 0.014174115 0.0669378 0.07808466 -0.10656401 -0.12557277 -0.066504985 0.01296652 0.0644792 -0.10939488 -0.17301217 0.092000216 0.00065784506 0.06924378 0.02201289 0.053425185 -0.1320797 -0.09653565 0.20344599 0.08369335 0.014133014 0.041342326 -0.1704323 0.019007077 -0.13361748 -0.05746361 -0.12551515 -0.11168781 0.1312796 0.0053652204 -0.10684632 -0.060224824 -0.05673605 0.23453957 0.18522164 -0.105917476 0.07875877 0.1325332 0.050477736 0.048727375 0.1194312 0.013400918 0.008196619 -0.06430079 -0.08879475 -0.13861871 -0.04138545 -0.043814078 0.009003822 -0.22614735
32 0.18198027 0.03332248 -0.01826462 -0.08826587 -0.011766756 0.048226114 0.116147675 0.054095168 0.20690072 -0.06635017 0.025093768 -0.0047291284 0.1323499 -0.21478409 0.12080824 0.02197803 0.033017233 -0.110365376 -0.16078146 -0.07040093 -0.051585462 -0.03375723 0.21234627 0.07839958 0.09357648 0.05644412 0.011444508 0.069679186 -0.17600133 -0.14889233 0.02182804 0.021864908 0.010418218 -0.105698206 -0.04590797 -0.022729725 -0.098413095 0.063687794 -0.11856459 -0.12988499 -0.11991572 0.12647207 0.042942215 0.09090699 0.002616668 -0.03939702 0.024450209 0.11394059 0.099332534 0.14900659 0.069734305 0.009170796 0.017937085 -0.15626419 0.0073742196 0.074415855 -0.15979058 0.13381311 0.10046691 0.115778245 -0.050211824 -0.09571568 0.09844312 0.12195532 -0.0695703 0.16741432 0.2175562 0.04843113 0.0049898596 0.035285987 0.19627616 -0.0068921167 0.01933999 0.14541733 0.12211943 0.00857335 0.0003818602 -0.053359125 -0.14790902 0.015786717 0.07573648 0.082241096 -0.106933884 -0.17701024 -0.10579843 -0.018346874 0.03961167 -0.06714169 -0.12873083 0.046940263 -0.010588484 0.079910964 -0.03493345 0.0016842941 -0.11864092 -0.009509565 0.17721012 0.09738514 -0.039800957 0.062602594 -0.21538608 0.081278965 -0.10592411 -0.09269152 -0.033017676 -0.10460781 0.14967875 0.0180066 -0.17080593 0.02397896 -0.11833439 0.25680983 0.19513248 -0.10519805 0.14196938 0.061020784 0.0657249 0.08509287 0.12596166 0.033062674 -0.010153388 0.0031161455 -0.09065558 -0.10192824 -0.056244884 -0.029533166 -0.02165235 -0.24152765
4 0.1619833 0.022804813 -0.023222217 -0.12684195 -0.04112104 0.030613482 0.08360035 0.0030664643 0.20548359 -0.051847227 -0.01241575 0.07938009 0.05711878 -0.14459197 0.14330783 -0.06460651 0.114880785 -0.11091775 -0.06352668 -0.06339894 -0.11693143 -0.06434389 0.08387667 0.10118231 0.027878284 0.098093934 0.00044359546 0.013881782 -0.1327114 -0.13442275 0.059512988 0.015023762 -0.028145967 -0.11967262 -0.08913878 -0.035678737 -0.049565878 -0.069823794 -0.17841299 -0.1391231 -0.09384289 0.11456791 0.0660856 0.13864528 0.04169226 0.014919445 -0.027054003 0.08425833 0.057859574 0.1306323 0.15183543 0.024073947 0.017234502 -0.15410267 0.021386988 0.17087324 -0.0963517 0.12082198 0.10487386 0.15067072 -0.043779455 -0.10923635 0.13239358 4.439708e-05 -0.03405976 0.19115448 0.3126901 0.05717627 -0.0751452 0.02630597 0.18523434 -0.025239736 0.077153035 0.11652974 0.09366652 0.050122276 0.023132842 -0.04229475 -0.034233395 0.014963498 0.064463094 0.07979847 -0.10745838 -0.112069234 -0.062839955 0.009661093 0.06696978 -0.11307104 -0.18304758 0.09790252 -3.5142875e-07 0.06165851 0.029491106 0.06479077 -0.13977544 -0.11699125 0.22343649 0.08121881 0.020571148 0.043940444 -0.17760551 0.0021758704 -0.13751638 -0.05669817 -0.14001343 -0.118891254 0.12475821 0.0073548234 -0.10068323 -0.07680856 -0.05003786 0.23800552 0.18498403 -0.10198331 0.0691025 0.1484928 0.053469285 0.04684925 0.12520821 0.008609695 0.01219143 -0.065854825 -0.08883088 -0.14466432 -0.040196147 -0.04715368 0.012788419 -0.23025824
14 0.16768344 0.019468492 -0.02223101 -0.10690282 -0.02949699 0.038303673 0.097163334 0.021348579 0.2070171 -0.056578472 -0.00512876 0.04414564 0.07866686 -0.16676502 0.12965372 -0.03731361 0.087874845 -0.10680275 -0.09422957 -0.061544973 -0.09520126 -0.046731852 0.12126566 0.09116242 0.043627366 0.082760975 0.0035563093 0.033565726 -0.14710607 -0.13735028 0.04622453 0.015288503 -0.011288347 -0.10986749 -0.074114874 -0.031377245 -0.060436867 -0.019444738 -0.15086499 -0.13254586 -0.10160229 0.109189846 0.05089183 0.11726019 0.032700934 -0.006477965 -0.010578588 0.091435276 0.06576245 0.1350538 0.123062514 0.020275427 0.011968634 -0.1513038 0.013758312 0.13153966 -0.11945713 0.12649314 0.100055836 0.13562915 -0.043686885 -0.099767 0.11060328 0.043754887 -0.0483303 0.17634626 0.27450138 0.05336643 -0.04404942 0.022893472 0.18221153 -0.015960744 0.05192706 0.1196541 0.10345015 0.03587133 0.015730787 -0.04555793 -0.07002171 0.017109677 0.066904634 0.07785299 -0.10363409 -0.13162284 -0.07642667 0.002548041 0.052594535 -0.09072284 -0.15966825 0.07860355 -0.004897558 0.06921834 0.002961124 0.045325376 -0.12483539 -0.07711251 0.20218325 0.08524321 -0.0022857466 0.05154283 -0.18122573 0.03136874 -0.12783165 -0.06711744 -0.099860154 -0.109770335 0.13199243 0.011971005 -0.122965716 -0.0438535 -0.07366763 0.23792042 0.1840024 -0.09985703 0.095566936 0.11908835 0.056479204 0.059477255 0.12634487 0.013744671 0.0036666512 -0.044578023 -0.08670059 -0.12563735 -0.04739736 -0.034631595 0.005403454 -0.22695386
24 0.19190036 0.034503657 -0.018751973 -0.09052349 -0.010419129 0.049777403 0.12117315 0.05363328 0.2018909 -0.06232929 0.022361659 -0.0035092016 0.13443415 -0.21076556 0.11235986 0.020738706 0.027463129 -0.11437398 -0.16245973 -0.07394932 -0.048572086 -0.031083906 0.21960919 0.07438448 0.09417204 0.05705862 0.005988423 0.07557885 -0.18143168 -0.14809825 0.018138055 0.018119745 0.009865585 -0.10326104 -0.04069196 -0.02628218 -0.09655568 0.06797975 -0.11287959 -0.12593706 -0.12243773 0.12457462 0.04386382 0.0943526 0.008085839 -0.04644107 0.024951378 0.11514227 0.09758335 0.15010346 0.06706424 0.004962663 0.017924821 -0.15812416 -6.241488e-05 0.07009059 -0.155838 0.13834856 0.09307133 0.116085425 -0.042873736 -0.10105269 0.09696278 0.12637997 -0.07585595 0.16548626 0.2199705 0.042357102 0.0076686717 0.031643562 0.19431849 4.6396453e-05 0.02094989 0.14671305 0.12557173 0.0105043175 0.007539813 -0.056898925 -0.15570417 0.018621659 0.07826014 0.08299373 -0.10402141 -0.18212618 -0.11126995 -0.024909668 0.034178726 -0.064433604 -0.12867765 0.041490376 -0.010255071 0.08403854 -0.041321255 0.00242022 -0.114076786 -0.012374024 0.17374958 0.097188585 -0.051581543 0.067777924 -0.22043332 0.07691241 -0.11145134 -0.09709118 -0.030956779 -0.10468177 0.15147704 0.019281214 -0.17316952 0.02800339 -0.12230863 0.26433417 0.19517834 -0.100906394 0.14400743 0.05553848 0.063340954 0.08300564 0.1264093 0.026526324 -0.006931628 0.0005701266 -0.09160292 -0.09491514 -0.055827953 -0.025860714 -0.020409439 -0.23960747
9 0.19563 0.044388894 -0.023889713 -0.09274713 -0.01349252 0.045876745 0.11386695 0.06304208 0.19221176 -0.06759963 0.02272414 -0.003432206 0.13303599 -0.21081276 0.118954994 0.022183511 0.026099168 -0.11020637 -0.16654208 -0.073975936 -0.045977227 -0.03000371 0.21044089 0.07515374 0.09421357 0.058532514 0.014636046 0.07181659 -0.17629519 -0.14258008 0.015637953 0.025057996 0.012500796 -0.1010373 -0.047084413 -0.027187873 -0.094559975 0.07459067 -0.116125055 -0.123153016 -0.119075604 0.12338338 0.040644005 0.08388716 0.006163721 -0.037865967 0.025685467 0.10815774 0.09289376 0.1375636 0.06442385 0.005076815 0.022629322 -0.14835346 0.0020575605 0.061530206 -0.15798682 0.12816335 0.098686226 0.10353803 -0.052809775 -0.09563361 0.08971727 0.121392675 -0.076804675 0.1598984 0.20660537 0.046217404 0.005813932 0.030267822 0.1924707 -0.0047340826 0.023611445 0.14797242 0.118702285 0.0042447625 -0.00056591874 -0.05202002 -0.1464359 0.016228974 0.06660359 0.08597049 -0.09842734 -0.18210919 -0.10833575 -0.021671876 0.03780688 -0.061067168 -0.12581871 0.040942 -0.007528998 0.079376504 -0.035349198 -0.003654439 -0.10919385 -0.0013456836 0.16470796 0.0961581 -0.044831116 0.06389685 -0.20889008 0.08445241 -0.10526351 -0.0882417 -0.025684444 -0.09952498 0.14315256 0.026345696 -0.16937205 0.031404965 -0.11335144 0.25810403 0.19035907 -0.101080395 0.14389586 0.057262506 0.05951097 0.08206601 0.124656394 0.029915944 -0.013767895 0.00223351 -0.09206019 -0.09468684 -0.050939187 -0.023848193 -0.024371265 -0.23562355
30 0.1957558 0.036284376 -0.018894201 -0.08557061 -0.0068091387 0.054900847 0.12840973 0.06194727 0.20948285 -0.073162764 0.027755572 -0.024019286 0.14866 -0.22957855 0.11314568 0.03694263 0.016284954 -0.110937536 -0.17956497 -0.076720215 -0.03733661 -0.022987748 0.24276912 0.07095874 0.10673763 0.050914954 0.009311032 0.085372485 -0.18951891 -0.15180159 0.013397499 0.021803545 0.013468045 -0.1021864 -0.036694515 -0.019562975 -0.10545929 0.0986927 -0.106389046 -0.12835664 -0.12810437 0.12862992 0.041327562 0.084977806 -0.0007835617 -0.053563803 0.03544732 0.117820345 0.10946495 0.15539664 0.05567869 0.0021858811 0.0242367 -0.15542452 -0.0015868457 0.05584318 -0.17207679 0.14132026 0.096634574 0.1035098 -0.046440456 -0.09903524 0.092350684 0.15374315 -0.08621755 0.16803269 0.20397018 0.04262822 0.022017358 0.030190032 0.20113797 -0.00022312344 0.013942866 0.15413383 0.12919647 0.0012288005 0.0033861052 -0.059041973 -0.17795701 0.01661439 0.07408079 0.08331315 -0.10650787 -0.19670115 -0.11819813 -0.027219318 0.03086896 -0.052582793 -0.12386366 0.033793226 -0.0077909995 0.08600812 -0.056270916 -0.011299048 -0.109752834 0.009547306 0.16893944 0.103120245 -0.062141366 0.07086804 -0.22718544 0.09470691 -0.10727025 -0.102340825 -0.00911816 -0.10344659 0.15246966 0.027768528 -0.18906191 0.039519016 -0.12972763 0.26782897 0.19404009 -0.099424906 0.15770756 0.042179525 0.063177794 0.092547506 0.13000856 0.032306526 -0.016604181 0.015421608 -0.08873127 -0.08678688 -0.058829445 -0.020467235 -0.03152213 -0.24609241
28 0.19315363 0.031586587 -0.022959229 -0.08518501 -0.010882973 0.05724351 0.124086194 0.055821534 0.22074589 -0.07125656 0.026019985 -0.012353462 0.14358313 -0.22391364 0.11777362 0.030045269 0.02575936 -0.11718551 -0.16870637 -0.080286294 -0.048616875 -0.027330987 0.23537467 0.08576751 0.10807967 0.056996323 0.008893759 0.07427626 -0.18916784 -0.15670316 0.021837773 0.025597924 0.012802745 -0.108793214 -0.041207206 -0.022809565 -0.09912439 0.07844904 -0.114734314 -0.12823744 -0.1289898 0.12684941 0.0408605 0.09987939 0.0042322613 -0.047597647 0.02973555 0.11743014 0.106241815 0.1626148 0.06193488 0.008285673 0.020449359 -0.16314737 0.0007888333 0.07153463 -0.17369369 0.13709208 0.10144825 0.12118162 -0.045917958 -0.09725285 0.095495835 0.14329608 -0.07314208 0.17236173 0.22214307 0.046093956 0.009896249 0.03778589 0.20517497 0.0023075673 0.016070347 0.14738426 0.12751731 0.0050569717 0.006678249 -0.059554078 -0.16683453 0.019078419 0.08169849 0.07917144 -0.10453639 -0.1878637 -0.119044416 -0.022674844 0.039122544 -0.06038866 -0.13922492 0.040374447 -0.007688968 0.08235229 -0.043556586 0.000987381 -0.12320576 -0.0049284482 0.18198249 0.09929753 -0.052001078 0.063787706 -0.22948113 0.08366772 -0.106810264 -0.098960824 -0.029924838 -0.11115517 0.1599031 0.022736082 -0.18405034 0.025316602 -0.12941633 0.27325234 0.20079343 -0.109622926 0.15387581 0.05485457 0.0658983 0.08848209 0.13401455 0.031133376 -0.009761289 0.009303846 -0.09095051 -0.09568492 -0.056911234 -0.028925575 -0.023760222 -0.24628174
8 0.17163263 0.03038582 -0.026904501 -0.10514949 -0.02680907 0.038802933 0.09738525 0.03238951 0.20377396 -0.057000656 0.0068349256 0.040327076 0.08949314 -0.17912957 0.13034582 -0.025877098 0.070216075 -0.11129152 -0.10637668 -0.0689301 -0.08278899 -0.04768938 0.14072624 0.08636988 0.054854553 0.07383916 0.008666613 0.037739728 -0.147208 -0.13647212 0.04089618 0.015587809 -0.0054480154 -0.11273308 -0.065427594 -0.03060507 -0.072813876 0.0004408866 -0.14734119 -0.1309508 -0.10430309 0.11345853 0.050394047 0.11573978 0.028584013 -0.011681655 0.0016806375 0.09756002 0.07559732 0.1358163 0.10280722 0.016009634 0.02008647 -0.14943655 0.013906593 0.120671354 -0.12486708 0.12321626 0.09557901 0.12579481 -0.04576899 -0.09772997 0.10580742 0.06184619 -0.052504376 0.1762616 0.25537828 0.047407545 -0.03904023 0.03005779 0.18692328 -0.009692213 0.04502538 0.12690307 0.10379985 0.03030802 0.01215579 -0.0487797 -0.09051546 0.01733483 0.07169204 0.07852558 -0.101176664 -0.14378156 -0.082654215 -0.0005573563 0.047799695 -0.08806199 -0.15233879 0.06722616 -0.0018733233 0.07174594 -0.006510439 0.029178191 -0.12422135 -0.057005927 0.18917702 0.08879472 -0.009455014 0.046736456 -0.18712622 0.042177144 -0.11968473 -0.06712153 -0.08521132 -0.10406316 0.13518679 0.010160442 -0.13159426 -0.029119851 -0.08025543 0.24129522 0.18310359 -0.101869434 0.10336008 0.102928914 0.05693967 0.06441911 0.124515615 0.014412296 -0.0036902926 -0.029819863 -0.08846119 -0.11986839 -0.04279425 -0.035300653 -0.008713404 -0.22186589
6 0.13216065 -0.02180378 -0.019350585 -0.13690557 -0.059476305 0.031750154 0.0895925 -0.057544567 0.231376 -0.05242532 -0.031974934 0.12360795 0.011268424 -0.09771319 0.13327712 -0.1438558 0.17507075 -0.10719322 0.013636152 -0.038614415 -0.16444084 -0.07237145 -0.01809534 0.112910725 -0.016189786 0.1114819 -0.0015109726 -0.029192256 -0.08747189 -0.1394285 0.09106145 0.018837659 -0.049197197 -0.09921288 -0.096327335 -0.027879905 -0.0058084484 -0.16584945 -0.19466022 -0.14310217 -0.07077095 0.093919136 0.076975964 0.1794889 0.0718201 0.040937614 -0.054494254 0.054043595 0.014601025 0.14018553 0.22705652 0.058541577 -0.0071565746 -0.17496614 0.025966313 0.23474911 -0.059573505 0.11341754 0.11410378 0.18554042 -0.010514607 -0.1132246 0.16456282 -0.060865637 -0.014909664 0.19070628 0.3655498 0.058863204 -0.11113569 0.02102791 0.16912198 -0.028352967 0.099700816 0.06695696 0.07105528 0.07189725 0.021440472 -0.047316726 0.036388457 0.015113523 0.061065655 0.03627845 -0.107062325 -0.03773957 -0.041877706 0.042103104 0.069440946 -0.114504956 -0.22311613 0.14088425 0.006890148 0.035806123 0.06694178 0.116070956 -0.12525381 -0.18488841 0.24704392 0.05288602 0.07653676 0.020284915 -0.14551298 -0.0665091 -0.15873647 -0.03281782 -0.21752885 -0.103860505 0.10863236 -0.004103898 -0.04671247 -0.16027437 -0.002516192 0.18849033 0.1696299 -0.09427679 0.017689424 0.20025088 0.039407153 0.0027914243 0.12889953 -0.029283589 0.023399858 -0.11665143 -0.071161054 -0.15190978 -0.051103827 -0.06385934 0.06377309 -0.20915908
7 0.12190743 -0.026616503 -0.01552306 -0.13382412 -0.06095039 0.029069614 0.090902664 -0.058144417 0.2389172 -0.04860793 -0.030626453 0.12317983 0.01529934 -0.09449778 0.13197203 -0.14586504 0.17722481 -0.10293707 0.019266564 -0.0429166 -0.16749495 -0.07245934 -0.022233132 0.116456226 -0.012513069 0.11773644 -0.003890835 -0.028642649 -0.08757016 -0.1457448 0.103031285 0.018138452 -0.048261072 -0.11023197 -0.09762251 -0.026382588 -0.0027852436 -0.17266297 -0.19604336 -0.1458981 -0.06958025 0.09998844 0.08031776 0.18507084 0.069264345 0.04437086 -0.056147072 0.050873615 0.01964936 0.14124049 0.23162268 0.058329232 -0.0072950856 -0.1793588 0.024941532 0.23801968 -0.05438114 0.11322371 0.11211543 0.18961087 -0.008884077 -0.11736938 0.16901526 -0.06721275 -0.0146942455 0.19153185 0.3752955 0.061600327 -0.10705161 0.017009888 0.16862793 -0.03404323 0.102981485 0.066215225 0.075180784 0.07664204 0.022265688 -0.05406063 0.040283304 0.014451764 0.061840136 0.031944875 -0.10478146 -0.038141347 -0.036370754 0.041666444 0.073020265 -0.11586221 -0.22615184 0.1426064 0.006528378 0.037109993 0.06651049 0.11445982 -0.123583026 -0.18990229 0.25188497 0.052124653 0.07529405 0.026027374 -0.14677466 -0.07115849 -0.15833747 -0.034234174 -0.22292772 -0.106398754 0.1068545 -0.008604587 -0.044685032 -0.16605406 0.0036828676 0.18859492 0.16516736 -0.09496228 0.012499764 0.20135416 0.034746055 0.0043057203 0.1291166 -0.02952226 0.02848232 -0.12134818 -0.07275375 -0.16156845 -0.053290814 -0.059512455 0.06563906 -0.21382344
29 0.20554617 0.033726 -0.027254786 -0.10144168 -0.02003789 0.048610028 0.12963656 0.056257118 0.22583665 -0.07210069 0.021141248 0.004068657 0.13183284 -0.22718349 0.12965447 0.010745722 0.04426566 -0.12311372 -0.16669793 -0.073817745 -0.065237075 -0.03156696 0.2189208 0.090706356 0.09287944 0.068989895 0.006438769 0.07091155 -0.19103013 -0.15728424 0.021132173 0.025262425 0.0046530934 -0.10995279 -0.049952567 -0.025921907 -0.09623268 0.058006536 -0.13501316 -0.14421825 -0.12201344 0.12932844 0.048563488 0.108779944 0.009244873 -0.03948441 0.019465147 0.11819435 0.10195936 0.15968573 0.0871671 0.009989948 0.02003091 -0.17248613 0.002197293 0.09140821 -0.16817269 0.14818601 0.11086396 0.12342324 -0.050439596 -0.11004127 0.10480458 0.12531748 -0.0772027 0.1828729 0.24682094 0.051508356 -0.005034321 0.03607076 0.20811303 -0.004532791 0.032680202 0.15480389 0.124639265 0.014880503 0.004385456 -0.059993457 -0.1492447 0.015134469 0.07642031 0.08813554 -0.114184104 -0.18798728 -0.10976011 -0.01911239 0.044404905 -0.07400287 -0.1492179 0.057419013 -0.009161662 0.08592998 -0.0345858 0.01210963 -0.1251332 -0.025764903 0.19786528 0.09980707 -0.039042678 0.06421222 -0.22898597 0.07838719 -0.124280214 -0.09588456 -0.051162638 -0.11089724 0.15890391 0.020430768 -0.17786469 0.01900087 -0.123839915 0.27825826 0.20923318 -0.10757785 0.14789693 0.074062474 0.06840844 0.08494474 0.13492064 0.03167485 -0.009836867 -0.0041908077 -0.095265254 -0.107768476 -0.056750383 -0.028273793 -0.024681563 -0.2590078
25 0.1917156 0.0382877 -0.018923314 -0.08539684 -0.017382735 0.05227529 0.12718089 0.05038715 0.21752396 -0.07460171 0.023278056 -0.00566303 0.14547537 -0.2262143 0.12258674 0.01983195 0.04084936 -0.11874373 -0.16534288 -0.07639008 -0.055837736 -0.032844137 0.23059942 0.08842488 0.10351279 0.058228906 0.009690137 0.08172632 -0.18381228 -0.16106215 0.022235304 0.020852689 0.0059706415 -0.11410458 -0.047192104 -0.030924074 -0.10201335 0.073889345 -0.1238448 -0.14159125 -0.12811905 0.13315523 0.047892652 0.1064747 0.00706529 -0.041685607 0.029012354 0.11737028 0.101929694 0.16267125 0.073568806 0.007845282 0.026356645 -0.16705467 -0.004004572 0.084426396 -0.16381803 0.14833042 0.09963819 0.12660283 -0.045852236 -0.10899331 0.10615545 0.13581371 -0.075499274 0.18018363 0.23583858 0.04377976 0.010081241 0.034775723 0.20094873 0.0046643303 0.025496863 0.15025759 0.13025083 0.008216245 0.0016046697 -0.06255944 -0.16245644 0.021366797 0.080329776 0.08118546 -0.104332924 -0.18545562 -0.118076846 -0.016941095 0.03338156 -0.06598322 -0.14636804 0.047626033 -0.010403084 0.09001588 -0.037420295 0.00041679712 -0.12666975 -0.015915427 0.18902877 0.096043855 -0.048914257 0.06936902 -0.23089145 0.08339875 -0.11647229 -0.09264048 -0.037072428 -0.110916816 0.15626274 0.024282731 -0.17905387 0.027368959 -0.12760048 0.27257234 0.20513403 -0.11117984 0.1466181 0.05808473 0.061225656 0.0901927 0.13875474 0.027148038 -0.013174948 -0.004160891 -0.09769549 -0.10063894 -0.06278985 -0.023639817 -0.024576833 -0.24761885
31 0.17659965 0.022969712 -0.019284798 -0.11290165 -0.030397663 0.04480149 0.11175652 0.020286106 0.22245267 -0.06511607 -0.0017728342 0.04043137 0.086206526 -0.17598073 0.13240331 -0.033384927 0.089320526 -0.11632795 -0.10650822 -0.06420342 -0.09515355 -0.04641862 0.13262506 0.09016539 0.054829694 0.084374934 0.008773046 0.03291081 -0.1507363 -0.14543936 0.047924235 0.021426857 -0.010105095 -0.11275952 -0.073825404 -0.032100856 -0.067696966 -0.012204728 -0.15472879 -0.13674885 -0.10511272 0.11543848 0.055728085 0.12398455 0.02710189 -0.011361078 -0.0029139565 0.0925494 0.07650102 0.15085378 0.12919673 0.020906031 0.014341278 -0.16689807 0.01619097 0.13455796 -0.12568745 0.1355908 0.111909255 0.13768145 -0.038770955 -0.10654918 0.12508918 0.05559832 -0.057033665 0.18570495 0.2812609 0.05412758 -0.038935393 0.023467321 0.19096549 -0.017210616 0.05174341 0.1255738 0.111091636 0.03294207 0.012074221 -0.050891634 -0.08274797 0.013654079 0.067248315 0.07694169 -0.11210838 -0.14076634 -0.08596884 0.0029764322 0.05667586 -0.09405676 -0.16742708 0.08175869 -0.0044392515 0.065853074 -0.0021363497 0.046836976 -0.12776788 -0.07261611 0.20569274 0.08872382 0.0005050878 0.054791834 -0.19810478 0.034635108 -0.1279579 -0.0733199 -0.10609539 -0.108447075 0.13998656 0.012183034 -0.13114159 -0.03913659 -0.07649811 0.24638876 0.1952174 -0.10706235 0.09666781 0.12017973 0.05742045 0.0552046 0.12625019 0.012245817 0.00038717495 -0.045198817 -0.088746876 -0.12718864 -0.050905135 -0.041726764 0.0015051668 -0.24011418
26 0.20643333 0.043981746 -0.025229253 -0.08531058 -0.011750758 0.055472683 0.13105775 0.076367 0.21276832 -0.072905235 0.03163875 -0.02641958 0.16287567 -0.24233072 0.11430754 0.050681572 0.007529497 -0.12033807 -0.19436866 -0.08177884 -0.036789272 -0.026867975 0.26808146 0.079473704 0.12157791 0.04755413 0.013330807 0.09478405 -0.20207623 -0.1531583 0.013509902 0.021253798 0.017800571 -0.11587991 -0.033192527 -0.02095667 -0.11573319 0.10998493 -0.111149065 -0.13070774 -0.13673478 0.13178217 0.039975233 0.085056335 -0.0021318358 -0.061130952 0.03758728 0.13123004 0.11754101 0.16354358 0.037747268 -0.004140805 0.025800854 -0.16286048 -0.0023900128 0.04897422 -0.18319869 0.14015827 0.09785654 0.11125622 -0.053283338 -0.09709586 0.089470565 0.16844729 -0.08534952 0.1666104 0.20100355 0.039459597 0.029410351 0.04003252 0.20251158 0.006650035 0.0057775467 0.16082223 0.13564746 -0.0013868653 0.0052660313 -0.062190536 -0.19079596 0.019026907 0.083625995 0.091635734 -0.10789388 -0.21149886 -0.1310149 -0.031209962 0.02972169 -0.055701256 -0.12854241 0.030694883 -0.013030518 0.09489292 -0.05550238 -0.016256874 -0.12366757 0.022798631 0.16798954 0.10163331 -0.07401277 0.074734256 -0.24300785 0.10478196 -0.10204459 -0.10902474 0.0015644006 -0.11266843 0.16307648 0.029925993 -0.20339312 0.051589653 -0.14472178 0.28601152 0.20254359 -0.10841857 0.16824682 0.038017806 0.07169894 0.101086155 0.13343407 0.03644106 -0.011494939 0.025766684 -0.094980545 -0.08647141 -0.054288402 -0.01914973 -0.03649269 -0.25532308
11 0.15529162 -0.010006385 -0.023165727 -0.13089661 -0.046899788 0.035572495 0.09905262 -0.028737323 0.23669969 -0.055084433 -0.021965634 0.09873109 0.042163886 -0.13039914 0.14197083 -0.11306989 0.15152866 -0.11544082 -0.03531866 -0.052127384 -0.14445136 -0.06934373 0.043117993 0.11092337 0.010885013 0.10807277 -0.002820061 -0.003801563 -0.11835326 -0.14919084 0.081503004 0.016126962 -0.04044942 -0.11291781 -0.09579741 -0.030882731 -0.032285783 -0.121152386 -0.18813814 -0.14727798 -0.0890085 0.112658374 0.075245805 0.16559196 0.05866677 0.022255478 -0.04123706 0.07521092 0.037252467 0.14878729 0.20302698 0.047545265 -0.00068210834 -0.18110073 0.026176795 0.20908016 -0.0858083 0.13034177 0.11737784 0.17947862 -0.021132449 -0.11811122 0.1542777 -0.025278667 -0.03232637 0.19576265 0.35551554 0.06092893 -0.091243856 0.025538655 0.18460836 -0.031852793 0.091062374 0.09642105 0.086548574 0.06416542 0.022136906 -0.056007843 -0.0064792526 0.019357165 0.06736818 0.056727394 -0.11043306 -0.075845234 -0.056312554 0.026653938 0.071906455 -0.11611225 -0.20968004 0.12661777 0.0005444946 0.049618907 0.03981792 0.09089726 -0.13233621 -0.1541521 0.24981643 0.07156815 0.05255902 0.0314851 -0.17519063 -0.031343084 -0.15474167 -0.050328877 -0.18840995 -0.11184867 0.1199717 -0.001939626 -0.07945257 -0.12513854 -0.026695743 0.2218 0.18691 -0.106497094 0.045527868 0.18288478 0.047955435 0.025882393 0.13754404 -0.011566222 0.020087996 -0.0986472 -0.08709932 -0.1537553 -0.050819807 -0.059012387 0.040685806 -0.2348187
5 0.1467597 -0.0073599415 -0.022256227 -0.13456927 -0.050684433 0.03218143 0.08816295 -0.030988956 0.23125868 -0.05375125 -0.023663457 0.0970438 0.029061215 -0.11284812 0.12893057 -0.11404898 0.15558898 -0.11230266 -0.018505331 -0.043601055 -0.14369074 -0.0636275 0.018685654 0.106314965 0.0020272806 0.100594446 -0.0056353672 -0.01251747 -0.10285351 -0.14346924 0.08130934 0.01235517 -0.042370737 -0.107007176 -0.093481086 -0.030115394 -0.021214675 -0.12916857 -0.18433402 -0.13823862 -0.079221174 0.099111855 0.06648926 0.1634083 0.06251809 0.023036938 -0.043072447 0.06813343 0.035396233 0.13949184 0.19977623 0.04638948 -0.0058127656 -0.16687612 0.023962362 0.20875956 -0.07667199 0.123533085 0.114549406 0.17478955 -0.015536034 -0.11570199 0.15103197 -0.030791126 -0.029280191 0.1843134 0.34757164 0.060000636 -0.09411009 0.019662535 0.1714739 -0.027892811 0.08329792 0.08082467 0.08489372 0.06731077 0.018819803 -0.054834332 0.0052207382 0.01627078 0.06300623 0.048240557 -0.10386761 -0.07019704 -0.05405502 0.034125146 0.066540584 -0.11223389 -0.20250319 0.12036551 0.0033963695 0.045250915 0.044799205 0.09875246 -0.1264203 -0.15607244 0.24020492 0.06643443 0.053439636 0.033752337 -0.15862773 -0.042680666 -0.15188926 -0.04378305 -0.18725568 -0.11135171 0.118649565 -0.0028511982 -0.072480686 -0.12730724 -0.02478977 0.21010028 0.17465106 -0.09936995 0.036007226 0.18245663 0.04368861 0.020074487 0.12786643 -0.012013903 0.022965893 -0.10157887 -0.081360765 -0.15285519 -0.04994019 -0.052620612 0.044520248 -0.22450894
20 0.17160818 0.023926606 -0.021853348 -0.10439126 -0.024917286 0.043053262 0.10413611 0.027193049 0.21215749 -0.062105868 0.0015638748 0.04025928 0.09142659 -0.18087283 0.13233706 -0.032440923 0.07591539 -0.110594764 -0.11187484 -0.06537584 -0.08728819 -0.045105357 0.13998029 0.09048825 0.059739634 0.08077305 0.0071772328 0.03854505 -0.15306947 -0.14658144 0.043525327 0.017254254 -0.0071731494 -0.11243454 -0.06921331 -0.026242247 -0.06991636 -0.0067161485 -0.14683944 -0.13482258 -0.11085405 0.11710637 0.050800547 0.11830165 0.025159756 -0.014420238 -0.0028555042 0.0964506 0.07484756 0.1460451 0.11968556 0.017540297 0.01480574 -0.15818135 0.012418895 0.123055786 -0.12546766 0.13040206 0.10704032 0.13794693 -0.043476984 -0.10587857 0.11561465 0.064921506 -0.05324292 0.17718968 0.26942337 0.053688884 -0.03260646 0.025254812 0.18887518 -0.015112212 0.050332874 0.123959936 0.1113018 0.029906802 0.0074402443 -0.05555198 -0.09109132 0.017175384 0.06915415 0.0788611 -0.10603992 -0.14102805 -0.08728671 0.00025415333 0.053256374 -0.08396758 -0.16274798 0.07319279 -0.003697691 0.07365489 -0.0052717137 0.03563252 -0.12132481 -0.069471896 0.20353861 0.08972724 -0.005307127 0.050795548 -0.19758002 0.039625432 -0.12850498 -0.07640735 -0.090276204 -0.11081248 0.13702276 0.013984496 -0.1372683 -0.032091524 -0.082900934 0.24862917 0.1919712 -0.10510321 0.10363124 0.11060945 0.058635306 0.061860885 0.12639391 0.016305149 0.0028072316 -0.040370658 -0.092546366 -0.12212091 -0.051082965 -0.034924608 0.0018915081 -0.23779215
27 0.20653193 0.035405386 -0.026372645 -0.10256563 -0.012338159 0.045810554 0.11978603 0.055989422 0.20935589 -0.06471258 0.02308795 -0.0024333212 0.1344905 -0.2228525 0.11625809 0.020854663 0.03464239 -0.12139784 -0.17012472 -0.07873391 -0.057854664 -0.032811016 0.21777017 0.08221099 0.09592088 0.060792267 0.009400692 0.068272784 -0.18349467 -0.15200856 0.017717777 0.025904614 0.011710977 -0.10504517 -0.051524933 -0.02857582 -0.0981896 0.067309484 -0.120971695 -0.1318709 -0.11847114 0.12755929 0.04161398 0.098664 0.00745195 -0.04364951 0.02476495 0.12008104 0.09821444 0.15549463 0.070747614 0.0062217275 0.022210145 -0.15934579 0.0033521508 0.07484325 -0.165037 0.14000475 0.10307195 0.11570849 -0.048355166 -0.106353104 0.09559225 0.124518864 -0.08149277 0.17542902 0.22772 0.049749214 -0.0037503378 0.029691955 0.19672848 -0.0025508993 0.021042101 0.15277219 0.12505922 0.007550058 0.0006938304 -0.058982994 -0.15172635 0.019352665 0.079442844 0.08941593 -0.10899897 -0.18394995 -0.114137724 -0.021212397 0.03786108 -0.067330584 -0.1351858 0.042661637 -0.011284225 0.08428314 -0.042872015 0.0037482462 -0.11467264 -0.0077307117 0.18235715 0.101107344 -0.04544005 0.06346771 -0.22264045 0.08072937 -0.117883064 -0.094403386 -0.036856506 -0.10585596 0.15146378 0.021376481 -0.1772616 0.02746834 -0.12034402 0.2711468 0.19759634 -0.10881384 0.14629315 0.070826165 0.066966355 0.086169176 0.13126193 0.03331514 -0.011366498 -0.0041547525 -0.0899359 -0.1015572 -0.057286948 -0.023940336 -0.023915129 -0.24948767
19 0.19359052 0.022477344 -0.025858844 -0.109364174 -0.02255136 0.049079757 0.11994766 0.03642021 0.2153964 -0.06472921 0.0114532085 0.023352861 0.112021014 -0.19643483 0.1266978 -0.016156092 0.0680722 -0.11956986 -0.12982093 -0.06682681 -0.07552774 -0.041167498 0.17253374 0.08644832 0.0731953 0.07369789 0.00581992 0.054818537 -0.16309974 -0.14851873 0.033371475 0.020878838 -0.0021049827 -0.11043298 -0.056158777 -0.02663747 -0.08111712 0.02390781 -0.13707037 -0.1327376 -0.1105447 0.121812165 0.049205843 0.11234641 0.01674412 -0.02783881 0.008104734 0.104336046 0.086459085 0.15025838 0.10390984 0.020981831 0.018973347 -0.1663938 0.010370332 0.1035982 -0.14259705 0.13362896 0.104967296 0.12630987 -0.043337706 -0.109319225 0.10913269 0.09028212 -0.069903605 0.17924745 0.25726727 0.05136487 -0.02048689 0.03207112 0.19483715 -0.008860981 0.0421902 0.13566463 0.11531795 0.023358414 0.006550392 -0.058158558 -0.11478987 0.017932985 0.07405646 0.075168595 -0.10867742 -0.15580724 -0.09465791 -0.009819088 0.04258055 -0.079230346 -0.1540577 0.06379057 -0.007851346 0.07537651 -0.021372246 0.02521212 -0.11780954 -0.047468316 0.19568454 0.0924174 -0.020863838 0.060037702 -0.20236196 0.05403009 -0.12471572 -0.083408505 -0.071527 -0.109683864 0.14204733 0.020820977 -0.15117212 -0.014632081 -0.09821273 0.25459367 0.19676493 -0.103454664 0.1204097 0.09092119 0.060806725 0.06805876 0.13247147 0.017349618 -0.0050828434 -0.024003018 -0.08715893 -0.11521132 -0.05484646 -0.03409943 -0.0050613265 -0.23832405
21 0.18887362 0.02674158 -0.021517849 -0.09692859 -0.012774773 0.048311956 0.11878612 0.046122666 0.1955854 -0.06331303 0.011433719 0.0035221272 0.11885151 -0.2044542 0.116850436 0.00445812 0.04706856 -0.11605266 -0.1474963 -0.06871652 -0.054718267 -0.027408525 0.18900087 0.074495934 0.08279437 0.060326584 0.009311012 0.062681235 -0.16915545 -0.14638928 0.019086871 0.022813663 0.0010122999 -0.0971678 -0.048209164 -0.026478717 -0.08698957 0.05333008 -0.11629436 -0.121780135 -0.11159653 0.115638725 0.046237618 0.094864145 0.01118872 -0.040566072 0.015260319 0.10686264 0.08869441 0.14322568 0.08576289 0.01302101 0.01497289 -0.15051617 0.004811282 0.07764042 -0.15137501 0.1328344 0.09691115 0.108383715 -0.040259685 -0.102270134 0.098460786 0.107917786 -0.07518493 0.15993191 0.22015731 0.050581623 -0.0067353253 0.027142687 0.18930355 -0.007430887 0.023500428 0.13871032 0.11265358 0.012945463 0.0032735409 -0.051647283 -0.13248883 0.017778281 0.066387914 0.08148562 -0.104293875 -0.16040127 -0.103452966 -0.019912718 0.03347168 -0.060216554 -0.13229953 0.04615171 -0.013751082 0.07065037 -0.030381437 0.013528744 -0.10883654 -0.019910065 0.1763466 0.089597575 -0.031975333 0.06441938 -0.20666234 0.06513367 -0.1082391 -0.08620273 -0.051607206 -0.0987359 0.13417003 0.02202319 -0.15311648 0.01385284 -0.10839039 0.25221208 0.19058402 -0.09904775 0.1278899 0.07175573 0.054157943 0.07232778 0.124788105 0.02875628 -0.009042699 -0.012902143 -0.08726244 -0.10010808 -0.054957464 -0.022769291 -0.01568417 -0.23362327
18 0.16930883 0.018957168 -0.025752729 -0.12201959 -0.03946078 0.03595911 0.0990389 0.004655568 0.22298652 -0.059311558 -0.009423115 0.06769953 0.0658831 -0.15708971 0.13612598 -0.06321205 0.11417965 -0.1112539 -0.07453081 -0.057114255 -0.11516058 -0.060255434 0.08898169 0.10043679 0.033237025 0.09211043 0.0065447623 0.020879004 -0.13801533 -0.14556146 0.06175196 0.018249104 -0.026260544 -0.11670383 -0.08698975 -0.030109867 -0.05532225 -0.05648948 -0.17426908 -0.14467813 -0.09575064 0.116599694 0.061308894 0.14509633 0.04098061 0.0065848967 -0.022638131 0.082581736 0.058022384 0.14062561 0.15054862 0.02593193 0.009375535 -0.16797498 0.018436724 0.16913149 -0.1024055 0.13108137 0.11134764 0.15679626 -0.036971003 -0.10852824 0.13116181 0.017094027 -0.038715746 0.18958303 0.31290138 0.0570087 -0.06091026 0.02218252 0.18956445 -0.022066996 0.07216583 0.1141754 0.102658905 0.04898448 0.01812335 -0.053426057 -0.050977975 0.014746345 0.071452186 0.072946146 -0.10734628 -0.11856659 -0.06890897 0.009274909 0.059186876 -0.106812224 -0.18558046 0.09697888 -0.0023719696 0.06791717 0.02225728 0.060383074 -0.12911166 -0.110569775 0.22409163 0.08063146 0.022523064 0.04467783 -0.18037707 0.0031885274 -0.14287007 -0.063307434 -0.13891111 -0.11106814 0.13280088 0.0048101065 -0.11027912 -0.07588314 -0.053704012 0.23763028 0.18549742 -0.10861419 0.075819336 0.14448749 0.054926656 0.045659248 0.12772161 0.008080245 0.008446161 -0.067384414 -0.09073652 -0.14123815 -0.04555536 -0.048299145 0.013119344 -0.23626082
23 0.20008436 0.037709277 -0.025677523 -0.09482586 -0.015289778 0.054066874 0.13171013 0.05622122 0.22260892 -0.06791586 0.018384824 -0.0036481735 0.13705038 -0.22670561 0.12789552 0.014152442 0.039232053 -0.12269219 -0.17261256 -0.07799587 -0.05693927 -0.026695602 0.21840006 0.084802106 0.09382241 0.0665603 0.011860491 0.076391965 -0.18794967 -0.15308231 0.019456292 0.022254433 0.009687895 -0.10985341 -0.046466775 -0.02891226 -0.10182627 0.06568785 -0.12759343 -0.1345273 -0.12478483 0.12931825 0.046213396 0.09981844 0.00629027 -0.03991177 0.022885486 0.11838845 0.10137403 0.1569533 0.08186056 0.012065292 0.02514036 -0.16779533 0.0015547734 0.081888594 -0.17089684 0.14181888 0.1089855 0.11553606 -0.046014044 -0.10299928 0.10191715 0.124693125 -0.083214775 0.1775819 0.23616955 0.047490202 0.0006201513 0.03368532 0.20887272 -0.005922405 0.022996096 0.15446603 0.1253739 0.0087512 0.0019766162 -0.05876652 -0.14941727 0.021465002 0.077599645 0.09125992 -0.11400935 -0.18835299 -0.11376819 -0.022518853 0.034983736 -0.0708685 -0.14261632 0.04713383 -0.013337166 0.08519173 -0.043173384 0.010170682 -0.119314894 -0.011451769 0.18805815 0.10300643 -0.041177224 0.06825682 -0.22902726 0.08425879 -0.1216707 -0.09564681 -0.04154601 -0.1101917 0.1568234 0.023547549 -0.17803049 0.024990873 -0.12309896 0.27811974 0.20378174 -0.10702178 0.1510904 0.06799842 0.06224564 0.08931107 0.13474429 0.028158257 -0.008871603 -0.006412234 -0.09666322 -0.10880246 -0.06162083 -0.027447008 -0.026348505 -0.25392574
16 0.18586075 0.026354654 -0.01903529 -0.09909916 -0.016520606 0.048295505 0.1147372 0.046722062 0.2105159 -0.06548291 0.01278726 0.018100712 0.11176406 -0.20094913 0.123031564 -0.004769289 0.056774113 -0.112160556 -0.13864695 -0.06575402 -0.069950335 -0.033581283 0.1783931 0.08094169 0.07260238 0.06817035 0.007831847 0.050854884 -0.16539785 -0.1456724 0.028454438 0.018782888 -0.0008071486 -0.10560133 -0.055131596 -0.028441165 -0.083896734 0.030722521 -0.12756568 -0.13256662 -0.10840793 0.115153395 0.047733113 0.10250236 0.011631362 -0.03242002 0.010594062 0.105883494 0.08360946 0.14357162 0.09572712 0.017319964 0.018667666 -0.15829608 0.011540122 0.09242077 -0.14703655 0.13244171 0.10593084 0.11948561 -0.04336831 -0.10084547 0.099819764 0.095634535 -0.070175804 0.17243119 0.24154635 0.051873438 -0.018615367 0.030569615 0.1922369 -0.013247351 0.03565053 0.13461635 0.112939455 0.019044392 0.0031268445 -0.05534001 -0.11604999 0.016863596 0.07050552 0.07977481 -0.10828728 -0.15909334 -0.09752197 -0.014757432 0.04010634 -0.07516447 -0.13902438 0.05551723 -0.009448346 0.07042779 -0.026567008 0.019773794 -0.1100794 -0.032909576 0.18388751 0.09471931 -0.023329822 0.058278408 -0.20487191 0.055634655 -0.119571365 -0.0807998 -0.06558976 -0.10481607 0.13710114 0.018029302 -0.15275937 -0.0044316347 -0.09554197 0.2494344 0.19167073 -0.103115916 0.118961416 0.08537984 0.05525175 0.072835945 0.12351525 0.022449387 -0.0035017456 -0.014247826 -0.08469412 -0.10820371 -0.052789588 -0.03035217 -0.014510249 -0.23867211
22 0.14539275 0.017413696 -0.021080071 -0.10797573 -0.035099387 0.032768812 0.094036825 0.0058495076 0.20380545 -0.053410254 -0.006893545 0.0637359 0.059533402 -0.14670682 0.13323312 -0.0618828 0.10736366 -0.106172904 -0.06550312 -0.053192455 -0.104359746 -0.05417559 0.08550073 0.09609641 0.029833 0.0905737 0.0044054603 0.017277988 -0.12576962 -0.13575271 0.05540987 0.014516144 -0.024528774 -0.11294838 -0.07581123 -0.031815633 -0.047009364 -0.05441646 -0.16517597 -0.13070013 -0.09113751 0.10683695 0.057227034 0.1313004 0.042699028 0.0056365216 -0.021906562 0.07928155 0.052808184 0.13178238 0.14591847 0.026702167 0.011250844 -0.15529476 0.018552354 0.1591692 -0.101956666 0.123375736 0.10500217 0.14405957 -0.036313135 -0.10526697 0.1285471 0.014464089 -0.03772576 0.1798645 0.2917361 0.050774697 -0.0561537 0.024142098 0.17396691 -0.018704668 0.065735236 0.10744149 0.09221342 0.046532094 0.013470593 -0.044562563 -0.040954053 0.01661185 0.06408663 0.06735757 -0.104980424 -0.108964056 -0.06629715 0.009106765 0.06169764 -0.10082838 -0.17519137 0.09356835 -0.0028905328 0.06248296 0.020868445 0.059598207 -0.123962 -0.10381559 0.20556974 0.074494325 0.01743672 0.044232775 -0.16864108 0.0053775953 -0.12746759 -0.059596863 -0.12724353 -0.108809665 0.12589554 0.004077446 -0.10123915 -0.06967597 -0.048781723 0.22029951 0.17354038 -0.099400885 0.071766 0.13586707 0.05113753 0.046547614 0.11965305 0.0070284037 0.010876477 -0.057257444 -0.08695532 -0.13342588 -0.0441448 -0.04185611 0.014223694 -0.21606202
15 0.20550568 0.04209877 -0.022668721 -0.090975076 -0.010545811 0.04923171 0.12778479 0.06512668 0.21464373 -0.0751319 0.022755545 -0.011176475 0.1441394 -0.23366365 0.11941794 0.034341358 0.02056004 -0.122874305 -0.18688606 -0.07609418 -0.045938205 -0.023363493 0.23653129 0.080147825 0.10523508 0.058632247 0.01066523 0.07843774 -0.19059937 -0.15359929 0.010017832 0.024601154 0.015616003 -0.10811399 -0.047099803 -0.025773102 -0.104442365 0.0920432 -0.12011486 -0.13327833 -0.123387024 0.13092473 0.043466177 0.092233114 0.004566171 -0.045965932 0.026354747 0.12350369 0.10609385 0.15072773 0.06142488 0.0033967372 0.020388924 -0.16018157 0.00010792613 0.059883166 -0.17592038 0.1442587 0.10069899 0.10654197 -0.05219268 -0.1054097 0.09430284 0.14626156 -0.080696136 0.16893394 0.2149611 0.050529122 0.014849292 0.03624428 0.20139125 -0.0021349657 0.017948106 0.15865053 0.13285723 0.007931532 -0.0022378545 -0.053023748 -0.16934866 0.020123841 0.077983856 0.092806086 -0.10692667 -0.19879845 -0.11584136 -0.026239073 0.032134734 -0.063332476 -0.13092887 0.04035742 -0.01441985 0.08450745 -0.0501245 -0.004740411 -0.1156399 0.0059363176 0.17564635 0.10207058 -0.057539374 0.07207478 -0.2282585 0.09519388 -0.1080555 -0.09672837 -0.024027683 -0.10853504 0.15656796 0.02276188 -0.18210293 0.042149976 -0.13104315 0.27189043 0.20410979 -0.104101844 0.15833297 0.055296253 0.06685283 0.09231751 0.13120216 0.03680072 -0.01716299 0.006063126 -0.09520588 -0.0955691 -0.059922315 -0.02493259 -0.034053184 -0.24821968
17 0.13733284 -0.018229574 -0.016652923 -0.1264963 -0.048437763 0.038097095 0.09609378 -0.04099048 0.23444706 -0.05508813 -0.028513748 0.100338906 0.029216962 -0.111749545 0.1333471 -0.12276211 0.16007939 -0.11064066 -0.00981375 -0.04711748 -0.149777 -0.06484226 0.017957753 0.11282831 -0.0006157927 0.10831406 -0.0053925784 -0.018817775 -0.09951145 -0.14460292 0.09019506 0.019782787 -0.04397623 -0.104880325 -0.09110648 -0.030615933 -0.022741817 -0.12631017 -0.184277 -0.13721718 -0.080961905 0.096721075 0.075745516 0.16658647 0.059487257 0.026522856 -0.046212874 0.06338167 0.02926158 0.143633 0.20596078 0.04877645 -0.0031404186 -0.17788312 0.018599916 0.21224613 -0.070326135 0.12472779 0.11059923 0.17940004 -0.014734882 -0.11369792 0.15744205 -0.03122656 -0.019619005 0.1915767 0.34916696 0.052026045 -0.09334256 0.019847423 0.16800967 -0.031595625 0.085423745 0.07685227 0.080373235 0.06669117 0.016922902 -0.053720716 0.008819432 0.021215366 0.0660842 0.0408764 -0.10686147 -0.0565367 -0.046882443 0.03685987 0.06576652 -0.105236284 -0.21481788 0.12677065 0.0011596142 0.042932138 0.0471455 0.10331958 -0.12285137 -0.16140467 0.23874672 0.06347503 0.06380358 0.030820042 -0.15591569 -0.044502642 -0.15057999 -0.044444174 -0.19367196 -0.10589348 0.11263538 -0.004845323 -0.06210454 -0.13652232 -0.016646903 0.20243914 0.17497332 -0.097068034 0.03373163 0.18379208 0.04343007 0.016960442 0.12810494 -0.019849977 0.025014894 -0.10247286 -0.07731415 -0.14839515 -0.050204232 -0.058650903 0.049874082 -0.21939993
13 0.15702572 0.013932444 -0.025596809 -0.112661004 -0.030148443 0.0353868 0.09208953 0.009488022 0.20944141 -0.052243084 -0.009277588 0.061268628 0.067043625 -0.15428098 0.13109095 -0.05404417 0.10045347 -0.10689361 -0.075882286 -0.058343433 -0.10274667 -0.05180888 0.098000824 0.09214481 0.041759104 0.08676896 0.0049268203 0.02043792 -0.13933203 -0.13693464 0.05045686 0.016638128 -0.020200258 -0.1099631 -0.072517045 -0.029817527 -0.053253263 -0.044069834 -0.15802637 -0.13289814 -0.094819844 0.10886329 0.060655113 0.13021503 0.038317148 0.00083997496 -0.012927794 0.08503303 0.059810344 0.13153747 0.13972442 0.024278615 0.010018629 -0.15535274 0.015524022 0.14460729 -0.11083265 0.12150876 0.10285575 0.13915169 -0.036063187 -0.106957965 0.12479211 0.03143153 -0.04045055 0.17568387 0.2885779 0.05268836 -0.05319472 0.022345377 0.18526816 -0.016362138 0.06430677 0.116371036 0.0955133 0.041362442 0.015287919 -0.045502104 -0.052113973 0.013559907 0.06335133 0.07088279 -0.106039524 -0.12047294 -0.0738774 0.0064376486 0.056432407 -0.09487624 -0.17154422 0.09059324 -0.0006539599 0.060954228 0.015065639 0.05380503 -0.121478096 -0.092047326 0.20325299 0.08294278 0.014391444 0.0450244 -0.17680943 0.014043936 -0.12718509 -0.059105407 -0.119798206 -0.105529346 0.12468176 0.010841778 -0.111265406 -0.058326595 -0.062005643 0.23241761 0.1764597 -0.100850075 0.08385242 0.12881581 0.051377434 0.050915714 0.11946329 0.0054125357 0.0062221796 -0.057364088 -0.08526428 -0.12570867 -0.046169426 -0.04122544 0.010973683 -0.22330077
10 0.19924095 0.041033287 -0.025291799 -0.101394504 -0.018378837 0.04316976 0.11707522 0.05534109 0.21138716 -0.06300181 0.017402576 0.010019119 0.12489565 -0.21111046 0.123727985 0.005238666 0.04452477 -0.118040085 -0.15529735 -0.07354856 -0.06606278 -0.033470556 0.20231086 0.086872175 0.08619661 0.07029088 0.0067198053 0.06277041 -0.17684273 -0.15177044 0.021407895 0.02394565 0.004649959 -0.11301047 -0.052667145 -0.02881554 -0.08902403 0.046281323 -0.13333513 -0.13617878 -0.11660956 0.1282164 0.047362994 0.10174413 0.010034026 -0.03176704 0.014680643 0.117612824 0.09525275 0.14891857 0.08777756 0.009733823 0.020745097 -0.15846372 0.0064798864 0.09253984 -0.15464269 0.13898413 0.103909746 0.11953485 -0.047436282 -0.10775425 0.099614985 0.11067525 -0.07532439 0.17617121 0.24295025 0.05215806 -0.009678725 0.03000577 0.20059697 -0.004518683 0.028798105 0.15104 0.11807301 0.016509917 0.008077205 -0.05610669 -0.13521674 0.01518784 0.07586912 0.08595765 -0.11034724 -0.17424636 -0.103778854 -0.017488632 0.046184223 -0.07779421 -0.14266177 0.055845864 -0.01326921 0.08247726 -0.02927684 0.011976546 -0.12368812 -0.030126205 0.19280528 0.09957836 -0.036047004 0.06225155 -0.21660794 0.0731242 -0.11968127 -0.08895645 -0.055630133 -0.11552132 0.14932159 0.022482088 -0.16839875 0.010121512 -0.114604816 0.27213082 0.20201442 -0.10369647 0.13533096 0.08135287 0.06620875 0.08214702 0.1331177 0.026231764 -0.0035240925 -0.0070601683 -0.09248214 -0.110007554 -0.056325674 -0.024536109 -0.019385055 -0.24832942
12 0.15061955 0.013436622 -0.022317894 -0.10697869 -0.037039634 0.039409053 0.09173371 0.0006525896 0.21151559 -0.051441256 -0.0066226474 0.06876566 0.058137283 -0.14064276 0.13271932 -0.05805023 0.108836696 -0.10734917 -0.067123376 -0.053103168 -0.11030888 -0.053277727 0.08332064 0.09334119 0.029835826 0.090583496 0.0028542075 0.014955267 -0.12949747 -0.13317388 0.058019873 0.019355645 -0.022792913 -0.111252606 -0.081982955 -0.029737473 -0.048255704 -0.058945492 -0.15846586 -0.13117957 -0.092034966 0.110106446 0.05755029 0.13368866 0.040401805 0.008889725 -0.016528595 0.0825485 0.056816008 0.13377547 0.14384742 0.025482217 0.013675547 -0.15540712 0.021886365 0.15904798 -0.102298245 0.125875 0.102745004 0.14103068 -0.034042586 -0.1030984 0.120364785 0.016011449 -0.037765443 0.17539166 0.29355106 0.052981973 -0.06428517 0.02257481 0.17489931 -0.021107893 0.06846399 0.110195346 0.091958694 0.045679107 0.015856825 -0.048644487 -0.04587661 0.016797075 0.0651085 0.06940086 -0.10245079 -0.10404975 -0.06176121 0.015031612 0.055836156 -0.097682916 -0.17350101 0.092807814 0.0012770349 0.05970543 0.018466007 0.05846615 -0.12357718 -0.10558879 0.2111802 0.078768104 0.019930495 0.03914451 -0.16873927 0.0071438644 -0.1334199 -0.05785873 -0.13054752 -0.10771952 0.12308002 0.005879834 -0.10597817 -0.07323377 -0.052049752 0.22190155 0.17916398 -0.09559285 0.07265636 0.13197342 0.052639995 0.04779876 0.12167462 0.006113715 0.012524909 -0.058104116 -0.08696131 -0.12987888 -0.048829988 -0.043505345 0.013804101 -0.22235814
