34 128
1 0.028270712 -0.08047502 0.034555383 0.09123028 -0.15058511 0.03905263 0.16847418 0.10682894 0.047213916 -0.04382315 -0.02640558 -0.14522848 0.045710493 -0.16767712 0.038701434 -0.23676358 -0.09869755 -0.13093804 -0.029831223 0.08691735 -0.04041623 0.067831956 -0.015820004 -0.058357142 -0.008227966 0.095956534 -0.068253405 0.18168789 0.16321741 -0.048850033 0.41097236 0.09308007 -0.13075188 0.0026078986 0.09743086 0.058459252 -0.10250672 0.08171935 -0.069295555 -0.18187891 -0.15276784 0.04962317 0.105635256 -0.019872176 -0.0023761336 0.029666722 -0.064519815 0.06992324 -0.06926303 -0.0010906295 0.14678903 -0.08036913 -0.14071344 -0.009454478 -0.049059685 0.086449854 -0.37289542 0.015754484 -0.12970679 0.21523198 -0.07405064 0.035293102 0.0032749197 0.11996162 -0.10899814 0.08028707 0.0941188 0.19465101 -0.034006413 -0.08380779 0.001533724 0.13172825 -0.035462674 -0.12017386 -0.06370364 -0.10641074 0.020332336 -0.020712635 0.10658216 -0.24172471 -0.07013585 0.029572822 -0.0759116 -0.044758767 -0.21668255 0.06975335 0.058872256 -0.12911502 0.1236451 0.32854503 0.004843 0.17282583 0.06922512 -0.1631818 0.12719016 0.06512903 -0.07188461 -0.0007272719 0.25353196 -0.0786471 0.12954679 -0.18360068 -0.011896767 -0.030102817 -0.20826413 -0.07592877 -0.113762915 -0.18437581 0.111838564 0.12314027 -0.027387192 0.11538496 0.12586123 0.106510974 0.054131303 0.31633568 0.10993844 -0.003505865 -0.14726906 -0.13583158 0.056517377 0.043713674 0.054621715 0.0002650774 0.1363867 0.15060188 -0.013861469 0.12967011
34 0.10180089 -0.09941021 0.075296834 -0.046836354 -0.25022176 0.070983514 0.09025683 0.073142014 -0.046658065 -0.10264842 -0.03426326 -0.13906401 0.061142847 -0.11544746 -0.1280771 -0.11808305 -0.024879558 -0.050471123 -0.079397686 0.05492282 0.012112568 0.14651626 -0.12254618 0.042716846 -0.15751635 0.110807404 0.033829756 0.23550206 -0.0034992408 -0.028631417 0.15853766 -0.025974855 -0.16268726 -0.07380077 -0.099122144 -0.057607904 0.021732032 -0.06283986 -0.060574498 -0.0071700877 -0.18088953 0.008117303 -0.039933316 -0.020253085 -0.110445045 0.058326237 -0.024872547 0.057383224 -0.112278484 -0.011589936 0.10944323 -0.17639779 -0.014585948 -0.03314781 -0.08946071 -0.0049076336 -0.21080576 0.038356222 0.08706527 0.12705906 -0.05665441 0.1514602 0.08251915 0.08168738 -0.10605729 0.13952065 -0.02777349 0.13821779 -0.054169703 -0.08104175 0.07586146 0.122451775 0.010468755 -0.005746187 -0.12737931 -0.004845459 -0.04963239 0.11234156 0.07208754 -0.23800749 0.05540874 -0.08408476 -0.062098257 -0.0792622 -0.08159049 -0.026600704 -0.0032718035 -0.21877913 0.05366361 0.35889193 -0.0943881 -0.04548154 0.071620606 0.042335257 0.20793968 0.11119089 -0.0999172 -0.12514116 0.22814424 -0.01841411 0.0720786 -0.17673352 0.114774816 -0.14171484 -0.123859905 -0.056683045 -0.07368741 -0.11042067 0.08860302 0.098685965 -0.095413245 0.090028875 -0.04258725 0.21971878 -0.16421703 0.19201854 0.30253133 0.11553031 -0.08392334 -0.10839223 0.048049357 -0.18711323 -0.005119969 0.13677265 0.11925813 -0.031579584 -0.094346575 0.12927806
33 0.12106484 -0.10511288 0.076363236 -0.06405668 -0.26881897 0.07271556 0.078188516 0.07335611 -0.054557696 -0.114162244 -0.0362578 -0.1487276 0.067871265 -0.113604486 -0.15264513 -0.10405174 -0.0149328355 -0.041571513 -0.09121738 0.04863935 0.01711364 0.1552685 -0.13395701 0.05104851 -0.18035805 0.12436979 0.04147129 0.25659975 -0.019842036 -0.03294507 0.14147294 -0.04623836 -0.16892363 -0.09032859 -0.12968384 -0.06626046 0.039371986 -0.080260366 -0.061735943 0.020565983 -0.19231564 0.011392926 -0.059884787 -0.019962033 -0.12877001 0.05769391 -0.020313224 0.06465425 -0.12058745 -0.015942749 0.11350072 -0.20196782 0.0027759916 -0.039463468 -0.101456404 -0.012031073 -0.20617764 0.047581 0.11181051 0.12955542 -0.05285395 0.1757629 0.10096697 0.078560345 -0.11249354 0.15502748 -0.04520034 0.14036034 -0.057217296 -0.08981852 0.08405197 0.1291374 0.012694424 0.0019426162 -0.13377279 0.005050105 -0.05963992 0.12453908 0.07926154 -0.25479883 0.07681429 -0.09232536 -0.06647314 -0.08439554 -0.06708694 -0.04062517 -0.005163323 -0.23202296 0.049843926 0.3797021 -0.10815628 -0.07428391 0.074539326 0.06340574 0.2272557 0.11923079 -0.10363984 -0.13917464 0.23999858 -0.01287228 0.06971708 -0.18394354 0.12996231 -0.15731923 -0.11505539 -0.05079131 -0.069572024 -0.10013202 0.089424156 0.09837007 -0.1080212 0.08711081 -0.06745148 0.24124412 -0.1933973 0.18210359 0.33666092 0.14135078 -0.07550475 -0.11024398 0.0436332 -0.21968593 -0.002728146 0.16062248 0.11857272 -0.050457664 -0.105486065 0.13569096
3 0.06691795 -0.09064241 0.050099317 0.020792414 -0.20098299 0.05790588 0.13059494 0.08913653 0.007436334 -0.06920489 -0.025143603 -0.13988456 0.049507435 -0.14199576 -0.04365476 -0.17165142 -0.060852945 -0.090734534 -0.04944657 0.059216924 -0.0067304564 0.09814876 -0.07111405 0.00013187877 -0.08412846 0.101775974 -0.018777031 0.20676054 0.07185656 -0.034758914 0.27926618 0.028331641 -0.1455829 -0.041531816 -0.0068333684 0.003295523 -0.042721476 0.0049412604 -0.059981577 -0.09225892 -0.16009253 0.025229428 0.028460536 -0.015861318 -0.06444819 0.03750823 -0.042639628 0.06633901 -0.092773445 -0.0101691885 0.13126457 -0.12500444 -0.07266375 -0.021087516 -0.06649995 0.037851766 -0.2835959 0.028155 -0.022649825 0.16647595 -0.06857613 0.097050935 0.048565064 0.10081986 -0.09925498 0.11187758 0.038307875 0.16686441 -0.039788306 -0.08307555 0.041099522 0.11626607 -0.01671196 -0.06292479 -0.09818201 -0.050696388 -0.020081019 0.045659788 0.08938085 -0.23469613 -0.006314913 -0.024537507 -0.07691509 -0.056055915 -0.14371616 0.016245777 0.0301544 -0.17211506 0.079721354 0.3339163 -0.0509718 0.065210804 0.06601272 -0.06450959 0.17391798 0.08096562 -0.085870974 -0.07020381 0.2317102 -0.04048646 0.09712202 -0.17801137 0.049869005 -0.08437111 -0.16078931 -0.062162858 -0.0852985 -0.13928837 0.096049234 0.11363735 -0.06514081 0.103495196 0.042197134 0.1617178 -0.05637641 0.24740434 0.20277664 0.064649716 -0.11283838 -0.11253575 0.053105973 -0.07232902 0.023933375 0.07131574 0.12527256 0.051216245 -0.05801267 0.12643275
2 0.06559887 -0.091249876 0.04362123 0.036618467 -0.18638259 0.052249312 0.13377714 0.09608723 0.014084056 -0.067539155 -0.025604649 -0.13913445 0.047182806 -0.14525618 -0.035088997 -0.18211618 -0.066859946 -0.090551846 -0.0415722 0.067600824 -0.016063264 0.10126795 -0.06263458 -0.0114964545 -0.06431335 0.09902015 -0.023604779 0.20328844 0.08841685 -0.035943203 0.3034823 0.04092908 -0.14072472 -0.02750105 0.009948515 0.014753982 -0.054038063 0.024032613 -0.062324554 -0.110333055 -0.16362801 0.025147406 0.04406969 -0.019151906 -0.050926577 0.03791549 -0.051208284 0.06606607 -0.08522683 -0.0015726069 0.13348913 -0.12122248 -0.08432059 -0.020801166 -0.05984439 0.040869076 -0.29258856 0.023312286 -0.04209105 0.17828143 -0.06616434 0.0850216 0.037187245 0.10156241 -0.106443286 0.09712955 0.047009815 0.17243811 -0.035185616 -0.08389947 0.03488003 0.124078035 -0.015420373 -0.071847394 -0.087372966 -0.060081407 -0.0050711194 0.031198524 0.09373982 -0.23607731 -0.016907623 -0.016113054 -0.0731183 -0.051597837 -0.1534826 0.023751637 0.03304965 -0.16485552 0.08497258 0.3304189 -0.0365679 0.0787476 0.067039356 -0.07854023 0.16076894 0.0830676 -0.08272202 -0.054919165 0.22975272 -0.052922003 0.1016549 -0.17583889 0.043634873 -0.07700912 -0.16753966 -0.06578585 -0.09395758 -0.14821012 0.09504666 0.11429353 -0.055275947 0.102485806 0.051068872 0.15278068 -0.04037222 0.2588688 0.18326351 0.051952492 -0.10985424 -0.11494389 0.054923166 -0.05698137 0.02621762 0.059607398 0.1303312 0.06912892 -0.042758502 0.13184816
4 0.050488096 -0.08481277 0.03818053 0.043541092 -0.17702019 0.049545307 0.14327884 0.0969228 0.024187732 -0.06243011 -0.028469874 -0.13557522 0.0492718 -0.14448242 -0.016792646 -0.1921023 -0.07489328 -0.09929146 -0.038172085 0.069170445 -0.01856262 0.088654146 -0.05738765 -0.026425852 -0.05262413 0.09568164 -0.039078243 0.20066494 0.10342059 -0.040017735 0.32173684 0.046710614 -0.13012528 -0.020164207 0.033749994 0.023735983 -0.062913224 0.03301214 -0.061939545 -0.1268199 -0.15660207 0.029518986 0.058244914 -0.020727623 -0.039107982 0.03626078 -0.051254496 0.065644816 -0.08255965 -0.005748499 0.13117611 -0.102849565 -0.100657485 -0.022290224 -0.056302283 0.05587072 -0.30833888 0.024474172 -0.0634922 0.17977154 -0.07038691 0.07431279 0.029727789 0.103412226 -0.09686979 0.09348479 0.059102442 0.17664698 -0.034253757 -0.08192218 0.024229275 0.11889704 -0.027879724 -0.083119944 -0.07671362 -0.07219384 -0.0040619094 0.018929943 0.09577609 -0.22632155 -0.024427231 -0.0034799483 -0.07629095 -0.04432671 -0.16622894 0.03196896 0.042774014 -0.15215656 0.09035898 0.32141486 -0.024423333 0.102957934 0.061406396 -0.09203066 0.15345931 0.072265446 -0.073736414 -0.044394676 0.23345537 -0.05715009 0.11018518 -0.1778387 0.026262464 -0.06430982 -0.17182174 -0.06996753 -0.09390045 -0.15036297 0.09909826 0.11527397 -0.04644862 0.10230049 0.069834396 0.13768268 -0.017259737 0.26454893 0.15812683 0.036840577 -0.11650556 -0.109680995 0.051570885 -0.030600395 0.030853858 0.04401769 0.12632911 0.08392013 -0.0377182 0.1235786
32 0.12520054 -0.11083004 0.08584064 -0.07306014 -0.27853084 0.07798022 0.07476507 0.077671915 -0.05908595 -0.12089361 -0.040437788 -0.15193932 0.06843513 -0.11606911 -0.16130319 -0.10899879 -0.008927077 -0.040162154 -0.09453253 0.05050553 0.021806568 0.16215904 -0.14777341 0.060501643 -0.18747266 0.12136258 0.046679206 0.26193473 -0.027408512 -0.029239457 0.13653637 -0.04614871 -0.16925839 -0.09022891 -0.14092442 -0.0777449 0.046190534 -0.091562204 -0.058162745 0.02706395 -0.19960757 0.004692608 -0.060593 -0.017959317 -0.13586757 0.066991694 -0.0245111 0.06589902 -0.12464665 -0.015229262 0.108767934 -0.20657808 0.0073739076 -0.043895524 -0.10008141 -0.020186977 -0.20041844 0.039678115 0.12049113 0.13127604 -0.051156454 0.1792766 0.10244994 0.087695196 -0.11537784 0.16098714 -0.05261041 0.14416216 -0.062713645 -0.08949893 0.088353515 0.12523332 0.014588779 0.011061704 -0.1470794 0.0040900684 -0.06000991 0.14231567 0.074504115 -0.25919613 0.0839096 -0.10519256 -0.06007509 -0.090048395 -0.06104124 -0.047254406 -0.007840512 -0.2467122 0.041013777 0.3936287 -0.113737 -0.07979489 0.07881316 0.069895215 0.22991161 0.12611115 -0.10876926 -0.1496568 0.23525119 -0.012778701 0.07039843 -0.18104412 0.14310978 -0.16232784 -0.11352711 -0.055819143 -0.069996335 -0.10252479 0.090425774 0.09841723 -0.11453935 0.09092196 -0.06450773 0.25054738 -0.19907631 0.18232322 0.3498341 0.1383834 -0.076314926 -0.11777974 0.044219468 -0.22659554 -0.012979682 0.16793784 0.12331982 -0.059677746 -0.11343752 0.13872056
14 0.06751503 -0.0911429 0.05250569 0.021624435 -0.18855819 0.05304378 0.12015463 0.08712824 0.004897938 -0.06762337 -0.029288542 -0.13490184 0.0514863 -0.13478571 -0.0481482 -0.15965547 -0.057972483 -0.07873947 -0.049394406 0.061259985 -0.006976925 0.10199968 -0.07114147 -0.004522047 -0.0768082 0.095424384 -0.014598809 0.19972451 0.074184224 -0.03470347 0.2609852 0.026185937 -0.13794048 -0.03627329 -0.004550091 0.00083140924 -0.037382126 0.005917224 -0.06026157 -0.087091014 -0.15968426 0.02354456 0.025446724 -0.020902138 -0.053339235 0.040412664 -0.042930078 0.05857285 -0.08600851 -0.009682411 0.11983691 -0.12300766 -0.06947862 -0.020221794 -0.06516186 0.036984064 -0.26701006 0.029508967 -0.019889103 0.16181722 -0.06564388 0.08710448 0.044122014 0.09604016 -0.096235685 0.102420986 0.02926812 0.15316005 -0.041792262 -0.07741907 0.040703673 0.11328453 -0.015659183 -0.056683023 -0.09034996 -0.044768643 -0.016377417 0.04677697 0.08205318 -0.21958587 -0.002620975 -0.02414654 -0.06399048 -0.054686297 -0.13169383 0.012123595 0.027212584 -0.16520038 0.08104945 0.31423032 -0.04258069 0.057473883 0.06119464 -0.0498967 0.1603579 0.081128545 -0.076490045 -0.061801866 0.22291876 -0.04301332 0.095380194 -0.16497208 0.049064055 -0.07770549 -0.14788216 -0.06659042 -0.08821186 -0.13780533 0.09065056 0.103678755 -0.060801275 0.09252582 0.040537834 0.15604712 -0.05443955 0.23119622 0.1909382 0.060778964 -0.10161533 -0.11284051 0.045273677 -0.069191046 0.019029388 0.06692443 0.11733815 0.04966535 -0.050360247 0.11845934
24 0.10058592 -0.09190428 0.06761025 -0.03923786 -0.23044936 0.06533256 0.08301314 0.073215514 -0.038998004 -0.09208542 -0.03617804 -0.13120288 0.058958888 -0.10982092 -0.11182279 -0.11098514 -0.028053727 -0.048331022 -0.07034378 0.048910696 0.01418139 0.13706708 -0.1091724 0.035595395 -0.13827904 0.107296415 0.02440424 0.22001195 0.0037441845 -0.026384829 0.15203275 -0.026907356 -0.14957766 -0.065328926 -0.08418473 -0.049821544 0.01980115 -0.056856986 -0.054244984 -0.0061376407 -0.16942237 0.00987003 -0.029869279 -0.021331668 -0.09695207 0.05042169 -0.025294475 0.05389299 -0.10207454 -0.008567638 0.10045541 -0.16130492 -0.014790646 -0.028400226 -0.08068737 0.0012729272 -0.20247865 0.032969795 0.07350468 0.12642002 -0.051672656 0.1435517 0.07222642 0.0800387 -0.1007374 0.12850429 -0.019208228 0.13539816 -0.047449745 -0.08037292 0.066419266 0.115263365 0.004803845 -0.0063130185 -0.11547436 -0.010200887 -0.04058205 0.097676784 0.07313928 -0.23009093 0.05014538 -0.07379436 -0.056566823 -0.07093578 -0.08209161 -0.022795266 0.001379422 -0.19877744 0.052714266 0.3392587 -0.08770541 -0.032036513 0.0668361 0.03551485 0.18679659 0.09862121 -0.0912272 -0.10998494 0.21338844 -0.021341499 0.06741164 -0.16792084 0.103725284 -0.13188148 -0.11821972 -0.04787895 -0.065449074 -0.10233188 0.08491083 0.09191742 -0.09185696 0.08116382 -0.039468404 0.20407167 -0.14530168 0.17849657 0.27813414 0.11188384 -0.07738516 -0.10295775 0.047929537 -0.17009658 -0.0055845934 0.12021456 0.10945111 -0.023256142 -0.08851379 0.120278046
7 0.00836399 -0.073400095 0.021749271 0.123110645 -0.13042302 0.036200568 0.18435802 0.12796132 0.061049744 -0.035022974 -0.02213014 -0.14731298 0.034916084 -0.17580064 0.0753788 -0.26683056 -0.12236432 -0.1470737 -0.018469164 0.10477698 -0.06441784 0.060721174 0.017620895 -0.078147545 0.02744487 0.08249699 -0.10101079 0.16939376 0.2097966 -0.04441671 0.49121532 0.12345364 -0.124110974 0.016138395 0.15579148 0.0732703 -0.14399897 0.12634718 -0.06928386 -0.23572865 -0.13985898 0.05550942 0.1433318 -0.023302237 0.035176106 0.033552393 -0.086581975 0.079329744 -0.04800867 0.00715827 0.15701923 -0.056089096 -0.17440557 -0.0054573277 -0.03165572 0.114132084 -0.42359164 0.01441704 -0.18351245 0.23716432 -0.08386566 0.008894787 -0.016551942 0.12479822 -0.12969516 0.05887784 0.12076257 0.20307931 -0.025447832 -0.0754076 -0.0018286896 0.13648859 -0.042143565 -0.14623567 -0.04564944 -0.13368796 0.027023787 -0.063713655 0.11285223 -0.24417666 -0.11141035 0.05344681 -0.068751864 -0.0356967 -0.25421897 0.0895203 0.07124095 -0.104038626 0.1513992 0.32355428 0.032257788 0.22819492 0.071072735 -0.20227613 0.10450782 0.05109906 -0.07413751 0.027484097 0.2591995 -0.11056522 0.16007492 -0.18983062 -0.040795125 -0.002002684 -0.23569828 -0.087769434 -0.13168125 -0.21009655 0.12194372 0.13226111 -0.0120110735 0.1276386 0.16460226 0.07185625 0.107046515 0.34916177 0.06284013 -0.028565578 -0.16547924 -0.13959263 0.055121645 0.09816859 0.06612419 -0.039989673 0.15573104 0.19790079 0.021020561 0.13971482
6 0.022214223 -0.080395564 0.031897116 0.09212431 -0.14342956 0.038239334 0.16607186 0.115082346 0.04371549 -0.04644326 -0.026569547 -0.13909523 0.037157863 -0.16302481 0.04047992 -0.24185823 -0.10120182 -0.13317592 -0.025205716 0.09162753 -0.045621064 0.066836804 -0.010477726 -0.060931154 -0.008359748 0.090828605 -0.07277867 0.1783903 0.16295768 -0.0387313 0.4252355 0.09588029 -0.13022317 0.0032117288 0.10537964 0.053589284 -0.11432523 0.08504971 -0.069956355 -0.19359756 -0.14719903 0.044803657 0.11049745 -0.020889975 0.0072540864 0.036063123 -0.069084115 0.070294544 -0.062060695 0.0015361673 0.14205377 -0.07417431 -0.14380758 -0.009522056 -0.043055505 0.0906259 -0.37912774 0.018976621 -0.13388927 0.21823129 -0.08280214 0.032365683 1.1148746e-05 0.11802395 -0.1169557 0.07848377 0.09346586 0.1912972 -0.030737903 -0.07677325 0.009724264 0.13251755 -0.036828034 -0.11890085 -0.059552204 -0.10491408 0.016389545 -0.0324211 0.10611198 -0.23583074 -0.07742617 0.03241264 -0.07109895 -0.04225083 -0.22067828 0.07110257 0.058259144 -0.12645558 0.1256733 0.32010162 0.012558697 0.17746699 0.06824508 -0.1600207 0.12324189 0.059411652 -0.07237143 0.0007415162 0.25146005 -0.08703511 0.14284444 -0.18153776 -0.016313128 -0.021165311 -0.21095425 -0.07653473 -0.121018015 -0.18920873 0.11755942 0.1208288 -0.022394357 0.12190183 0.12491745 0.0971509 0.05775331 0.3191865 0.107590646 -0.0011464304 -0.14580807 -0.12792604 0.059333455 0.04945579 0.05445426 -0.0070275576 0.14497738 0.15511277 -0.0052333893 0.13541412
8 0.049177147 -0.083167434 0.03356709 0.054236673 -0.16250516 0.04251727 0.13560198 0.09478989 0.027927844 -0.05250261 -0.02161686 -0.13172445 0.04552449 -0.14355254 -0.0077927336 -0.18594685 -0.07707643 -0.09818226 -0.029642198 0.06372102 -0.021358082 0.08130089 -0.045330416 -0.02909248 -0.040668957 0.08681202 -0.03821894 0.18307532 0.110388294 -0.035598185 0.32326755 0.05499807 -0.12971711 -0.01875155 0.036615953 0.033340015 -0.07140112 0.04408405 -0.057252366 -0.1315796 -0.14322743 0.035512984 0.06317501 -0.020861046 -0.027004309 0.028246745 -0.051181655 0.06589005 -0.0733381 -0.005371071 0.12802312 -0.096172124 -0.10203823 -0.022506783 -0.0517918 0.0508468 -0.3051198 0.017704878 -0.06727138 0.17519799 -0.067186855 0.0647556 0.020576244 0.097081654 -0.09702799 0.08024902 0.06698104 0.1712978 -0.029848928 -0.07605742 0.02217519 0.11090681 -0.026460456 -0.08582334 -0.07429975 -0.06724412 0.0034521755 0.01349419 0.08504279 -0.21350478 -0.035880055 0.002804636 -0.06764447 -0.04393283 -0.15865487 0.0391059 0.039187826 -0.13326669 0.09214976 0.28932685 -0.021019377 0.111547284 0.05405657 -0.10516473 0.13267547 0.06416447 -0.072960876 -0.03207601 0.21571806 -0.054397345 0.10426845 -0.16357292 0.020990215 -0.055069286 -0.16545098 -0.06785116 -0.08669999 -0.14823988 0.09111867 0.11229981 -0.045129538 0.09760358 0.07891303 0.1161304 0.0023225131 0.25837722 0.14062475 0.032827757 -0.11467273 -0.11073821 0.04677677 -0.014164887 0.03152819 0.035821363 0.11655888 0.094644316 -0.027714606 0.11975544
28 0.10387287 -0.09784886 0.07126247 -0.04142813 -0.24250478 0.07070882 0.08949232 0.07264375 -0.040046897 -0.09907349 -0.036804363 -0.13861118 0.055324424 -0.12034904 -0.11709033 -0.123043165 -0.023612298 -0.057654604 -0.08042891 0.05376142 0.014059599 0.14082833 -0.114064656 0.034048334 -0.14458442 0.109796636 0.028925609 0.23306514 0.0029650372 -0.03334028 0.16779439 -0.02077136 -0.1609229 -0.07129654 -0.09306516 -0.04757697 0.012305682 -0.056584377 -0.057428915 -0.008637535 -0.17965609 0.014018314 -0.028060135 -0.023750877 -0.108360514 0.050464988 -0.029880323 0.060326975 -0.11235665 -0.010210535 0.11045473 -0.17561299 -0.013830579 -0.03446876 -0.085313834 0.0011234203 -0.21347119 0.03411898 0.076633245 0.13616529 -0.052645497 0.14284593 0.08219313 0.08625319 -0.10614536 0.13781011 -0.020629782 0.14348327 -0.05108561 -0.08168289 0.072379224 0.123753674 0.0030650722 -0.013439891 -0.12199002 -0.0061231386 -0.047122877 0.105539665 0.07977739 -0.23741628 0.054602135 -0.07385786 -0.059003074 -0.07973051 -0.090010695 -0.02434847 -0.0016519226 -0.21024206 0.05734593 0.3563151 -0.08812079 -0.033626523 0.073529124 0.026924964 0.20375963 0.103144936 -0.09765171 -0.115067 0.2306724 -0.019016337 0.06999695 -0.17530517 0.10942256 -0.13501398 -0.12233366 -0.057120822 -0.07223833 -0.1098334 0.09155376 0.09516881 -0.09403907 0.09229026 -0.03161316 0.21362819 -0.15364002 0.19199094 0.29185304 0.111481816 -0.08651525 -0.1117501 0.050858207 -0.1749381 0.0033839874 0.12804116 0.118155144 -0.019350095 -0.08944932 0.12765442
30 0.11412435 -0.09766323 0.07202264 -0.0604617 -0.260797 0.073562495 0.07678709 0.07145169 -0.053129047 -0.10456634 -0.031058403 -0.1357519 0.056526717 -0.108401574 -0.1494883 -0.09820863 -0.013895272 -0.04015939 -0.082339704 0.04713348 0.01936906 0.15675536 -0.13036616 0.04946957 -0.16987678 0.1180593 0.0383668 0.24463162 -0.01889604 -0.023377873 0.1295892 -0.04331188 -0.16739748 -0.08345811 -0.12809633 -0.07061736 0.031563148 -0.08060757 -0.053637292 0.020349907 -0.18543582 0.0057235584 -0.0522729 -0.01831293 -0.12525867 0.060685027 -0.02415021 0.05941853 -0.115894735 -0.009307085 0.101452515 -0.19070828 0.004664833 -0.03590563 -0.08972956 -0.011526835 -0.1914178 0.0431354 0.11265874 0.12478444 -0.052847467 0.16908775 0.09394152 0.07385207 -0.106652655 0.14147617 -0.04307022 0.12976886 -0.051081803 -0.083404295 0.08487804 0.12288545 0.017664382 0.006361301 -0.12618777 0.005568868 -0.05446103 0.1262187 0.067265786 -0.24497041 0.06932753 -0.08994658 -0.057250682 -0.08407127 -0.06282585 -0.039292637 -0.010219474 -0.2232773 0.0482605 0.3569755 -0.10766915 -0.07138514 0.07277533 0.067066185 0.21839185 0.10978574 -0.09847121 -0.1373482 0.22810136 -0.008398074 0.06624132 -0.17139812 0.12753007 -0.1508221 -0.110861465 -0.048626326 -0.065488696 -0.09625856 0.08842743 0.09220519 -0.10597636 0.08857144 -0.062401284 0.22644527 -0.1874671 0.16648363 0.3240689 0.13776374 -0.06861297 -0.10258349 0.041862354 -0.21333435 -0.003156705 0.15117164 0.116015635 -0.054549713 -0.10495233 0.12797068
9 0.08395054 -0.0910567 0.061536297 -0.013114523 -0.21814732 0.058722466 0.10674367 0.07833158 -0.023370827 -0.086804114 -0.03171606 -0.13442501 0.052685544 -0.123055495 -0.08506065 -0.1396826 -0.0374946 -0.06879469 -0.06608985 0.057752147 0.0007830376 0.12534222 -0.09165257 0.019712886 -0.115928374 0.108385436 0.00428192 0.22064735 0.03167217 -0.029881546 0.20920666 -0.00073117716 -0.1534577 -0.056626398 -0.057545584 -0.030602895 -0.0048667495 -0.027880445 -0.058575872 -0.04377543 -0.1710819 0.012811927 -0.0034272505 -0.022978937 -0.082314156 0.048604302 -0.03031228 0.056230765 -0.10038687 -0.006052366 0.113720946 -0.14560045 -0.04010731 -0.030209014 -0.07654988 0.013835686 -0.23757724 0.029362554 0.033875227 0.14796498 -0.059314586 0.12568383 0.06221687 0.083158314 -0.100423075 0.11726056 0.0025853913 0.14548835 -0.04485847 -0.08194371 0.059839915 0.1152426 -0.0014485379 -0.028118039 -0.10511863 -0.025228197 -0.03153107 0.078492366 0.0782162 -0.2334076 0.030916337 -0.05576694 -0.061515123 -0.0650032 -0.10415522 -0.008749087 0.014557751 -0.19270776 0.06734455 0.33847103 -0.06926095 0.0029444373 0.0624143 -0.007892731 0.18241622 0.093875565 -0.08815738 -0.093189925 0.22292434 -0.03175134 0.084925964 -0.16863093 0.08359913 -0.113510296 -0.13443102 -0.056640718 -0.07855296 -0.118929 0.09219616 0.10052115 -0.079313934 0.09485158 -0.0037783638 0.18564977 -0.11274778 0.21264687 0.24537203 0.08561366 -0.09417282 -0.10869123 0.050855827 -0.13391072 0.0078601185 0.10116123 0.116807476 0.005859128 -0.073385604 0.1289921
11 0.024557466 -0.078552835 0.027978845 0.08185734 -0.14752872 0.0393929 0.15372998 0.112637326 0.03708703 -0.04695164 -0.02974565 -0.13959228 0.04019374 -0.15984724 0.030689264 -0.2265877 -0.093326 -0.11667437 -0.030914452 0.08851701 -0.043524116 0.07350932 -0.015901577 -0.05126026 -0.011677641 0.086836636 -0.0611468 0.17196351 0.15689434 -0.0390614 0.39566806 0.08067327 -0.12499179 -0.0042190403 0.09398741 0.048988916 -0.09995992 0.07862935 -0.06471702 -0.17809425 -0.14301305 0.04737171 0.10087264 -0.016805049 0.0033895392 0.031173324 -0.06950121 0.06786609 -0.061286498 0.00050779013 0.13617207 -0.07927936 -0.12717377 -0.008244053 -0.044115473 0.080574356 -0.35639602 0.018371884 -0.11428074 0.20200004 -0.07520566 0.038258504 0.000567829 0.1126783 -0.11581512 0.076017596 0.0829734 0.18013701 -0.029498424 -0.07966157 0.011057065 0.12545289 -0.031478114 -0.10984283 -0.060688578 -0.098250285 0.018304544 -0.02295258 0.100343294 -0.22846979 -0.071487464 0.022092095 -0.065705396 -0.038776223 -0.20107317 0.064581245 0.052136835 -0.11919209 0.12045541 0.314195 0.007855712 0.15617406 0.06582672 -0.14084637 0.11857521 0.063898906 -0.07522255 -0.0004950843 0.23663792 -0.082465395 0.12876098 -0.17854123 -0.0036495584 -0.02650695 -0.2002447 -0.07264362 -0.11443219 -0.1734806 0.11080608 0.11649373 -0.024142873 0.1122026 0.11030652 0.096842945 0.05019088 0.29328063 0.11289072 0.0025104412 -0.13639997 -0.12702699 0.055003416 0.030395875 0.04695492 -0.001108425 0.13580112 0.13513647 -0.005676684 0.12893365
5 0.0250976 -0.07751431 0.0343145 0.07413507 -0.14803341 0.036131922 0.15369235 0.10635504 0.033503324 -0.047069833 -0.028651671 -0.13660146 0.042348072 -0.15230897 0.022503644 -0.21434757 -0.087443605 -0.1100065 -0.02962593 0.08585078 -0.036921702 0.07843606 -0.022531142 -0.049287412 -0.017269425 0.08922805 -0.062397823 0.18222672 0.14661701 -0.042342715 0.3781184 0.07620668 -0.12601337 -0.010327036 0.07778449 0.04000807 -0.091857694 0.07046046 -0.06719405 -0.1669673 -0.14042136 0.043013904 0.08845689 -0.022353886 -0.0013432868 0.03384475 -0.062165156 0.06950977 -0.06521266 -0.0004551042 0.13657963 -0.07944143 -0.119462766 -0.011590955 -0.044709425 0.07853633 -0.34171095 0.016599877 -0.11021702 0.19887692 -0.06988035 0.042778187 0.014824063 0.10998774 -0.11250642 0.07444573 0.081401765 0.17569214 -0.031011565 -0.074080676 0.017366514 0.12120852 -0.033181917 -0.10825546 -0.06291134 -0.09116284 0.00872361 -0.015988566 0.10076371 -0.22738877 -0.061281744 0.020301 -0.07064182 -0.038263373 -0.19045037 0.0571316 0.055031694 -0.12740843 0.11812431 0.3164832 0.00053901057 0.146191 0.06036209 -0.13471456 0.124433346 0.059929393 -0.0736388 -0.007124659 0.24232031 -0.07438827 0.1260757 -0.17237057 -0.0030374345 -0.02982344 -0.19307503 -0.07430367 -0.10734515 -0.17043883 0.10896532 0.11324648 -0.032805916 0.10700989 0.107560135 0.10282569 0.037363105 0.285676 0.1194874 0.0059747132 -0.12869607 -0.12258628 0.051885102 0.02262845 0.04651421 0.0070547764 0.12782156 0.12834269 -0.009308464 0.12385586
26 0.108069144 -0.09160214 0.07001314 -0.062642775 -0.2533222 0.064525105 0.07003043 0.06815333 -0.055152077 -0.10231488 -0.03250795 -0.12684311 0.061452072 -0.0963871 -0.14443903 -0.087766916 -0.0123363985 -0.031156272 -0.08508466 0.046585202 0.017901337 0.1468552 -0.12948377 0.055829734 -0.16270785 0.10535818 0.04410494 0.23317648 -0.024479609 -0.025931086 0.11289512 -0.043411538 -0.1587308 -0.07837582 -0.12537047 -0.07063537 0.040016294 -0.081030495 -0.05443013 0.02786135 -0.17198707 0.002764868 -0.061076645 -0.015737325 -0.12019568 0.05274507 -0.016071046 0.0608394 -0.11164954 -0.012226857 0.100232355 -0.18573534 0.010511149 -0.037155755 -0.084736615 -0.013776995 -0.17134036 0.041926157 0.11374613 0.11000187 -0.044380523 0.16296187 0.09332033 0.07337306 -0.0960923 0.14310855 -0.04614502 0.12365697 -0.049159966 -0.079906255 0.08488686 0.11059625 0.014787277 0.010430901 -0.12999329 0.013478965 -0.053658664 0.12599781 0.071808696 -0.22731324 0.07005387 -0.09435694 -0.054227382 -0.07869389 -0.056967463 -0.042776693 -0.012926581 -0.21973942 0.033336345 0.3444808 -0.103661835 -0.068084925 0.06422911 0.06570063 0.20538343 0.11092725 -0.09323406 -0.13602206 0.20656018 -0.0069790506 0.05647232 -0.15967298 0.1272519 -0.14950487 -0.097510755 -0.04321571 -0.059048764 -0.09117715 0.07625242 0.08665193 -0.10548833 0.08294527 -0.062458906 0.22399218 -0.18736908 0.15631029 0.30499145 0.12679136 -0.06450608 -0.10301627 0.038725488 -0.20938636 -0.012926798 0.14609347 0.108664945 -0.052005216 -0.10279252 0.12350164
20 0.05184687 -0.08271328 0.046461508 0.039318815 -0.18470047 0.049907696 0.13062878 0.08890073 0.011431531 -0.062875494 -0.023344794 -0.13527873 0.048698444 -0.1451054 -0.021094479 -0.18031195 -0.07208423 -0.09949067 -0.041275576 0.06343707 -0.016990587 0.08884171 -0.05869576 -0.020014454 -0.059569016 0.09790608 -0.03189398 0.20054103 0.09798782 -0.041108567 0.3107938 0.043238446 -0.13433771 -0.02729714 0.023438279 0.019062513 -0.061645076 0.031055674 -0.061948746 -0.11008198 -0.15585093 0.030050628 0.04794628 -0.020374386 -0.044990893 0.040456645 -0.05135643 0.05898175 -0.080076545 -0.00500147 0.13269515 -0.10799002 -0.084415406 -0.018141994 -0.06006634 0.05343748 -0.3013151 0.024244659 -0.047093596 0.1800942 -0.066868536 0.07461713 0.031577718 0.10363565 -0.1012089 0.098893344 0.04716467 0.1666067 -0.040841706 -0.08319761 0.02761755 0.11704674 -0.021824986 -0.07727508 -0.08181504 -0.06205718 -0.006369378 0.025876695 0.08967172 -0.22591634 -0.02467917 -0.007819258 -0.06584762 -0.052512072 -0.15455176 0.031689085 0.031250745 -0.15530743 0.09497519 0.3183936 -0.032949675 0.08454174 0.06336087 -0.08633377 0.1565905 0.072902255 -0.08047192 -0.050177425 0.23364653 -0.05107922 0.10783943 -0.17207083 0.037416305 -0.06450486 -0.16956419 -0.06701708 -0.0964945 -0.14795849 0.10109125 0.11093488 -0.04716258 0.10118615 0.06382007 0.13965555 -0.02838742 0.2621476 0.1771736 0.04598603 -0.1194622 -0.119272195 0.048511527 -0.040289212 0.03583959 0.053836066 0.12639852 0.07865173 -0.03642034 0.1267494
25 0.12950426 -0.10964858 0.0866029 -0.07880041 -0.2841712 0.07274843 0.073188424 0.07148074 -0.06239932 -0.12074996 -0.039993394 -0.14357731 0.06914728 -0.100872874 -0.16336234 -0.08788069 -0.0038489518 -0.03228406 -0.09960849 0.0432513 0.025813734 0.16147418 -0.14900713 0.06330985 -0.19400775 0.115081325 0.05963197 0.25474006 -0.034832597 -0.028407704 0.104209535 -0.055053756 -0.1654184 -0.09516942 -0.14352484 -0.081876785 0.057870112 -0.09234923 -0.06186305 0.040988825 -0.19551462 0.008741113 -0.071959935 -0.016957516 -0.1415598 0.06405336 -0.012671025 0.0653607 -0.12071417 -0.0122923395 0.109963685 -0.2110858 0.017073913 -0.041298617 -0.10401217 -0.019840317 -0.18104449 0.04210231 0.13229126 0.11288673 -0.04665475 0.17875245 0.108706385 0.08053814 -0.11000871 0.15918572 -0.059659023 0.13864091 -0.06001719 -0.08338244 0.0964959 0.11982772 0.017407894 0.019565225 -0.14845024 0.013414892 -0.06766586 0.14940587 0.076638 -0.24963774 0.09092279 -0.11311629 -0.056197423 -0.09021462 -0.049653336 -0.055693123 -0.0110851545 -0.24399246 0.034900874 0.3878588 -0.11727497 -0.087345175 0.075966924 0.08643399 0.23271775 0.124962784 -0.10116529 -0.15668742 0.23263988 -0.0073362943 0.06389866 -0.1761228 0.14234516 -0.17146766 -0.10498739 -0.05125459 -0.0626682 -0.095351286 0.088489495 0.09417949 -0.11933144 0.089694515 -0.07867267 0.25425893 -0.21799327 0.17073509 0.3507953 0.1491504 -0.06617889 -0.11441866 0.04664379 -0.24368043 -0.017539704 0.17642607 0.120298125 -0.072920665 -0.12025599 0.13629304
31 0.095709845 -0.09744494 0.065092586 -0.022850765 -0.23311253 0.067317754 0.09745125 0.08055444 -0.02409279 -0.08865266 -0.02957348 -0.13658942 0.059202183 -0.11766195 -0.09920254 -0.12726021 -0.032442674 -0.05732476 -0.06823099 0.052921087 0.0059255944 0.12428821 -0.1041064 0.028196745 -0.12910305 0.1048295 0.020241672 0.22415191 0.019647233 -0.034765337 0.18927567 -0.015460476 -0.15412539 -0.06531156 -0.07447268 -0.030811712 0.0060717827 -0.041721907 -0.054107483 -0.029560221 -0.1713783 0.015838675 -0.021613037 -0.016386561 -0.0972075 0.05102174 -0.025935322 0.058793236 -0.0989308 -0.0065955506 0.11404655 -0.1587519 -0.028979618 -0.033056736 -0.08010019 0.005787857 -0.22458455 0.03428901 0.05206138 0.13602057 -0.0549292 0.1309334 0.07296043 0.08718292 -0.101762205 0.1287429 -0.0067750267 0.14738217 -0.044671413 -0.08449404 0.0643838 0.115911566 0.0053448034 -0.022093274 -0.112795085 -0.019944295 -0.03438513 0.09276118 0.07834196 -0.23619647 0.038978226 -0.061932802 -0.066986024 -0.07123652 -0.093397774 -0.013997666 0.005324115 -0.20069045 0.058139075 0.34188336 -0.076635875 -0.00888496 0.06375541 0.0072807167 0.1900494 0.098193705 -0.08728993 -0.105671376 0.22598568 -0.020078402 0.0728237 -0.16734506 0.09687661 -0.12045998 -0.13158636 -0.053960476 -0.07182288 -0.11471151 0.09062587 0.098529436 -0.08677162 0.08974172 -0.018865498 0.19625345 -0.13009997 0.20324627 0.26751366 0.09845962 -0.08565023 -0.10724725 0.05043893 -0.15200727 0.009084884 0.11676972 0.11843989 -0.0020571398 -0.08640596 0.124926254
29 0.07826833 -0.09170362 0.06031278 -0.0058983993 -0.22249387 0.061908007 0.11294651 0.086097 -0.017152034 -0.08436033 -0.033309456 -0.14639612 0.055712383 -0.13491753 -0.0753426 -0.15082215 -0.052961256 -0.07522742 -0.06708361 0.06336876 -0.004410274 0.124535605 -0.08798281 0.009382561 -0.1142632 0.11190383 -0.0031636846 0.22784697 0.051840723 -0.03736819 0.24308649 0.008881339 -0.155412 -0.054052636 -0.037452966 -0.023198001 -0.016393699 -0.01438406 -0.064186916 -0.060865894 -0.16901709 0.0241803 0.009061814 -0.021555707 -0.07671358 0.050254777 -0.040330254 0.06583157 -0.09622733 -0.0045273965 0.124705404 -0.1506846 -0.05022201 -0.031073308 -0.075659215 0.026348475 -0.26343194 0.03471315 0.016477726 0.16111179 -0.059917677 0.118937984 0.05859925 0.09204286 -0.11189855 0.122539036 0.008058303 0.1576976 -0.049223065 -0.08014964 0.058903836 0.12541096 -0.003366033 -0.04638194 -0.109906815 -0.035500195 -0.02785159 0.07077451 0.08223261 -0.24505651 0.016066853 -0.050318573 -0.0631887 -0.0692672 -0.12194579 0.0008384131 0.017478932 -0.18668857 0.07280241 0.35018134 -0.066855535 0.026897445 0.067816295 -0.021757467 0.1897729 0.095899105 -0.08800876 -0.08996105 0.24333644 -0.03531156 0.09134068 -0.17798114 0.07775278 -0.10827313 -0.15130533 -0.061695736 -0.08862493 -0.13397221 0.1013241 0.10616591 -0.07374149 0.101414025 0.0122381 0.18714964 -0.09628759 0.23052432 0.24430053 0.08666517 -0.09808809 -0.114821084 0.05056347 -0.11555017 0.016842905 0.09879533 0.124212414 0.027249055 -0.06629474 0.13205011
17 0.014213493 -0.08135358 0.02113322 0.10691062 -0.1383813 0.035677824 0.17731486 0.114846796 0.051830858 -0.033513527 -0.029723708 -0.14059661 0.03817223 -0.1744378 0.063719 -0.25258934 -0.10942473 -0.13606079 -0.021702748 0.09719781 -0.052612588 0.056531135 0.006947517 -0.07323028 0.020435099 0.08711541 -0.08359114 0.16558272 0.19013321 -0.04630605 0.4530651 0.11030399 -0.12826721 0.014407954 0.13391016 0.06887734 -0.1236029 0.10989891 -0.066632636 -0.20933104 -0.14085421 0.051087532 0.12618503 -0.017046249 0.020375816 0.02802362 -0.0767913 0.069311395 -0.058860797 0.00093364273 0.14417054 -0.0554434 -0.15699777 -0.0028638386 -0.039794177 0.09729073 -0.3933145 0.01459487 -0.16174048 0.22056152 -0.08155193 0.017146561 -0.005166429 0.12343569 -0.12132737 0.06654871 0.114131816 0.19997764 -0.025197858 -0.07664274 -0.0057595265 0.13127336 -0.036613423 -0.13606778 -0.05316913 -0.11976555 0.028498715 -0.05123947 0.10515429 -0.2363191 -0.09277047 0.045088038 -0.07590196 -0.029154485 -0.23146679 0.0814376 0.06635246 -0.10875251 0.13446538 0.31301332 0.021963324 0.19974913 0.061062757 -0.18689312 0.10788181 0.05907336 -0.07011148 0.020236086 0.25027442 -0.094669096 0.14728975 -0.1859609 -0.028986534 -0.0052046133 -0.21306828 -0.08351835 -0.12503375 -0.19153808 0.11727627 0.12230088 -0.0123096155 0.116208665 0.14212607 0.08666198 0.08913216 0.32915297 0.07411383 -0.02187407 -0.15356022 -0.13461651 0.056157738 0.076029934 0.062923335 -0.028727757 0.14532511 0.17499192 0.0039453697 0.13106382
13 0.054117892 -0.08858741 0.045638386 0.040912665 -0.1857238 0.048197098 0.13840461 0.096780136 0.016899073 -0.06432775 -0.02602547 -0.13632382 0.042492256 -0.14540806 -0.018221105 -0.18550149 -0.073190555 -0.09454773 -0.039912626 0.06982999 -0.020803683 0.08941126 -0.054050956 -0.020822596 -0.055143874 0.091844775 -0.03687293 0.19913149 0.10266734 -0.036574762 0.31860286 0.042975795 -0.13712299 -0.022624388 0.024263484 0.016860953 -0.06587575 0.037244678 -0.059143454 -0.11583334 -0.15384868 0.035454195 0.05258366 -0.0206174 -0.042099364 0.03769673 -0.04627299 0.06877986 -0.077188745 -0.005781871 0.13226427 -0.10521804 -0.09230232 -0.023255384 -0.058136858 0.04956345 -0.30215937 0.02019251 -0.053484555 0.17828266 -0.068963125 0.073281385 0.03165237 0.09685369 -0.10136789 0.09644402 0.052459843 0.17444488 -0.038630474 -0.07618251 0.027587805 0.11366615 -0.02462144 -0.079585776 -0.08585389 -0.066475265 -0.010066327 0.023109458 0.09095298 -0.22398143 -0.022104753 -0.009621571 -0.06986526 -0.048781782 -0.1611867 0.027073625 0.034500565 -0.15259348 0.092620805 0.31356466 -0.03136646 0.09471866 0.06232302 -0.086403504 0.14501041 0.077495545 -0.081747405 -0.04008878 0.22652286 -0.05858837 0.108340494 -0.17538202 0.030551212 -0.064995535 -0.1701118 -0.07016237 -0.09063216 -0.15322888 0.097955644 0.11432681 -0.0470968 0.10117022 0.06666309 0.13619961 -0.021643342 0.25476024 0.16108568 0.03969805 -0.114614695 -0.114589244 0.046047647 -0.033334825 0.0265705 0.04390091 0.12559548 0.07892348 -0.037011918 0.1250859
18 0.055499636 -0.09098968 0.042775597 0.046449073 -0.18157208 0.05170726 0.14489473 0.097910814 0.023784172 -0.057052083 -0.028993217 -0.1387307 0.04761591 -0.15063615 -0.0112353675 -0.19561303 -0.07517877 -0.1053204 -0.042329647 0.075140394 -0.02362894 0.08887888 -0.051022243 -0.024622068 -0.04838636 0.098111086 -0.04023592 0.19628437 0.10477094 -0.042183004 0.3315204 0.056042764 -0.1315915 -0.022340652 0.039211497 0.027227249 -0.06792867 0.038645275 -0.05680285 -0.12640175 -0.15828443 0.03349361 0.06092527 -0.022232251 -0.030704584 0.033260934 -0.05292346 0.059491202 -0.08255804 -0.0047979164 0.1309754 -0.10323489 -0.09632403 -0.019355856 -0.061014455 0.059377242 -0.31837848 0.02311945 -0.066580795 0.18334441 -0.07007866 0.07489475 0.031182002 0.104900606 -0.10253949 0.09768307 0.0589391 0.17862247 -0.03621812 -0.08004901 0.021569502 0.11909815 -0.026020309 -0.08059248 -0.08177961 -0.0699157 -2.7028022e-05 0.013423866 0.09553993 -0.23500815 -0.031893175 0.0003691041 -0.074617095 -0.04813347 -0.17388092 0.035872404 0.043664403 -0.15370117 0.09545292 0.328156 -0.027083866 0.11029392 0.06613032 -0.10471014 0.1464354 0.07491302 -0.07482263 -0.0408014 0.23835745 -0.055124663 0.10894237 -0.18000679 0.0222398 -0.06307697 -0.17835498 -0.0706308 -0.09753522 -0.15463176 0.10509404 0.11146142 -0.044448104 0.103128284 0.077024624 0.13132219 -0.009203545 0.27754733 0.1554984 0.030979067 -0.12418797 -0.122580975 0.057082977 -0.022818152 0.031491786 0.037810158 0.13395521 0.0970819 -0.040795173 0.1253635
22 0.045200814 -0.08881779 0.03652532 0.057523444 -0.17275241 0.05028181 0.14812392 0.09959259 0.026696734 -0.058807123 -0.027717698 -0.1454457 0.047265403 -0.15985252 0.002359421 -0.20920035 -0.07973346 -0.11341407 -0.035705 0.073806934 -0.025376027 0.08144597 -0.041109253 -0.029439606 -0.040684946 0.09373978 -0.04835281 0.19183598 0.11988152 -0.041226365 0.35808918 0.06715226 -0.13628969 -0.016508315 0.04976081 0.035919208 -0.08216478 0.04945259 -0.060690567 -0.14432971 -0.15916695 0.03989614 0.06912901 -0.017176006 -0.023341682 0.037743606 -0.054329056 0.06804075 -0.07676177 -0.0039583873 0.14081974 -0.09667152 -0.10874129 -0.021648971 -0.05675856 0.060033806 -0.3325789 0.02347397 -0.08267488 0.19535862 -0.071586676 0.0654096 0.020842627 0.10942959 -0.11078198 0.08936783 0.071494795 0.18489416 -0.0352941 -0.08629461 0.01752786 0.12207799 -0.024205156 -0.092224985 -0.07464709 -0.07969373 0.0053462777 0.0100582745 0.09840775 -0.240791 -0.041358646 0.008020436 -0.07799786 -0.049891006 -0.18501501 0.045758747 0.048277233 -0.15161262 0.10381774 0.32697546 -0.015548921 0.12678361 0.06668369 -0.12015752 0.15137088 0.07276741 -0.07766112 -0.028869048 0.24410433 -0.06543996 0.11899541 -0.18058197 0.016431335 -0.05624237 -0.18545553 -0.07355513 -0.102877125 -0.16168122 0.10388691 0.11680492 -0.04017371 0.10989917 0.0840395 0.12798014 0.0060227276 0.288001 0.15410878 0.027004704 -0.12853982 -0.12388963 0.057230424 -0.007957581 0.038925342 0.0318536 0.13548063 0.10682547 -0.033772253 0.13453853
15 0.1059105 -0.09443998 0.07009098 -0.042260546 -0.25058457 0.07347105 0.09385193 0.08179112 -0.038829554 -0.10231389 -0.03247338 -0.13882948 0.05626827 -0.120571226 -0.12503417 -0.12281346 -0.023703732 -0.05120428 -0.07773814 0.053040195 0.011063278 0.14699632 -0.11603542 0.03405744 -0.15407366 0.11500055 0.03212267 0.24122007 0.0064433576 -0.033059027 0.17043996 -0.029132962 -0.16562702 -0.0731242 -0.093009174 -0.050571878 0.013152084 -0.058884174 -0.06252493 -0.010272592 -0.17927451 0.009431152 -0.035633497 -0.019884974 -0.10754664 0.056277335 -0.03102011 0.057590142 -0.10697215 -0.0076173823 0.11161434 -0.17574804 -0.014474596 -0.03686827 -0.08891198 -0.0007787574 -0.21570222 0.037597403 0.08018532 0.13965236 -0.056769848 0.1504651 0.077510774 0.0819378 -0.10552096 0.13220118 -0.025560383 0.14442848 -0.052593715 -0.082589544 0.07327102 0.12159528 0.0070769 -0.013964549 -0.1246697 -0.007908195 -0.049731992 0.10721438 0.07600921 -0.243172 0.054269597 -0.078082055 -0.0594918 -0.0727263 -0.08199239 -0.028690482 0.0025948554 -0.21551442 0.051323768 0.36008137 -0.09193201 -0.035670552 0.06683555 0.03821261 0.20927633 0.10705934 -0.09737626 -0.117662504 0.22892332 -0.021724127 0.07627785 -0.1765322 0.111620426 -0.13826527 -0.12839122 -0.057843268 -0.07223555 -0.110222146 0.090521276 0.09918882 -0.09828586 0.0895704 -0.035761576 0.21534398 -0.15264927 0.19241437 0.2990615 0.12182652 -0.08549371 -0.11075209 0.04623418 -0.17593816 -0.0031329347 0.1351275 0.11889131 -0.022730673 -0.09278803 0.12810048
19 0.09662002 -0.094696976 0.064646214 -0.021183932 -0.22678752 0.06384255 0.09490678 0.08111463 -0.027408825 -0.09281087 -0.03658574 -0.13476099 0.05245221 -0.11919123 -0.1037556 -0.1311304 -0.035321426 -0.060062177 -0.07283066 0.05557045 0.006964355 0.13216002 -0.10111874 0.024644908 -0.12560327 0.104075834 0.018282698 0.22089586 0.017772583 -0.02813063 0.18721443 -0.0123348115 -0.15403995 -0.05946066 -0.0648602 -0.038208626 -0.0011544988 -0.041547805 -0.06013817 -0.027669424 -0.17180502 0.013294149 -0.012671494 -0.019201048 -0.08859522 0.045582112 -0.03089945 0.056311592 -0.09930099 -0.0044830823 0.10693657 -0.15544266 -0.027513571 -0.032555316 -0.079886265 0.0077596214 -0.22056869 0.033459973 0.050468214 0.13958926 -0.059858147 0.13418983 0.06482508 0.08390502 -0.09896679 0.121499814 -0.011252292 0.14263217 -0.049686994 -0.08405645 0.06649288 0.1185403 0.004921575 -0.024820773 -0.10746427 -0.015852682 -0.038226593 0.085005805 0.078707404 -0.22963825 0.03421108 -0.064370275 -0.05934217 -0.06909112 -0.09773134 -0.015440403 0.008250945 -0.19667566 0.057780832 0.342146 -0.074966766 -0.015784826 0.06262953 0.014951011 0.1878127 0.10083207 -0.08785364 -0.097350255 0.21996242 -0.029029083 0.07860851 -0.16904932 0.094241016 -0.11482939 -0.125232 -0.0562495 -0.07668073 -0.11475716 0.09049288 0.09839856 -0.08049302 0.091924906 -0.015377331 0.19422895 -0.12311417 0.20076247 0.25838554 0.09952452 -0.086147174 -0.10807716 0.049424987 -0.14975563 0.0070458837 0.11470429 0.11219447 -0.0069796615 -0.0795913 0.12193841
21 0.10392952 -0.09760786 0.07056873 -0.038019016 -0.24432439 0.06441185 0.095058225 0.08174594 -0.032841083 -0.0943517 -0.03608052 -0.14197916 0.057548437 -0.11780383 -0.11882282 -0.12205159 -0.030795487 -0.060311876 -0.07782855 0.055637367 0.0096464725 0.14301471 -0.10973215 0.032063767 -0.14243352 0.11215637 0.02208048 0.2376584 0.010102995 -0.03374398 0.18789668 -0.02119983 -0.16345116 -0.068297155 -0.08324206 -0.048188224 0.010513912 -0.05222464 -0.058356836 -0.01918127 -0.17947024 0.011717233 -0.026855744 -0.023249079 -0.10036417 0.051079087 -0.027073823 0.06604711 -0.10573664 -0.0070723966 0.11311431 -0.17546156 -0.021104254 -0.030022243 -0.086104915 0.0012656285 -0.22973356 0.040757317 0.065608256 0.14470413 -0.059895076 0.1473154 0.07508044 0.08569166 -0.110318236 0.13238604 -0.021566601 0.14904186 -0.048435867 -0.083370894 0.068298 0.11959619 0.008513561 -0.019920537 -0.12316005 -0.011871259 -0.046331774 0.10068328 0.08084725 -0.24861152 0.049596015 -0.07486827 -0.06578807 -0.07733596 -0.09533963 -0.017157024 0.0054068323 -0.20787318 0.05619557 0.36229518 -0.08511357 -0.025868362 0.06586244 0.024329204 0.2037922 0.10236343 -0.09198684 -0.11130418 0.22852603 -0.020912807 0.076312825 -0.17438883 0.10699232 -0.1298157 -0.13138844 -0.05654152 -0.0754476 -0.11659109 0.08748951 0.100326 -0.0953455 0.08859133 -0.031580646 0.20938937 -0.14469613 0.19469848 0.28527004 0.11111122 -0.08381526 -0.10954124 0.049376898 -0.17189777 0.0025583718 0.12591366 0.11793546 -0.016313355 -0.08764652 0.13323365
10 0.0813979 -0.08663209 0.05881476 -0.016917707 -0.2123196 0.056949176 0.09845627 0.080262706 -0.018385177 -0.083187394 -0.02865043 -0.12827235 0.05089842 -0.1185749 -0.09054372 -0.13005272 -0.039865635 -0.06265658 -0.061986808 0.055340976 0.0035852257 0.11932152 -0.097244464 0.018239789 -0.11654859 0.10066656 0.0077591776 0.21340248 0.02980014 -0.031635836 0.1985295 -0.004285377 -0.14106406 -0.057054922 -0.05718385 -0.03086919 -0.007837929 -0.03371611 -0.06014369 -0.042265497 -0.16476081 0.019197982 -0.005817792 -0.018490713 -0.07899117 0.0440436 -0.036313176 0.058195487 -0.09514006 -0.006212896 0.11275698 -0.14815773 -0.039004885 -0.025806906 -0.07406172 0.014514561 -0.22840492 0.032077417 0.038661517 0.14107628 -0.058901496 0.116977446 0.06420679 0.08706103 -0.1007424 0.11421652 -0.0003649848 0.14509615 -0.04376837 -0.0817587 0.05869138 0.11762122 -0.0039704437 -0.031518266 -0.1050681 -0.02685338 -0.031703077 0.0762887 0.07758451 -0.22328743 0.025479544 -0.052878972 -0.061534908 -0.06912924 -0.096750975 -0.008808784 0.010264939 -0.18412037 0.06416912 0.33150038 -0.06780289 -0.001846931 0.062824436 -9.507802e-05 0.17742941 0.094460845 -0.08504471 -0.08974768 0.21856824 -0.02937723 0.081306085 -0.16767497 0.0836072 -0.10649895 -0.13175794 -0.055679318 -0.07338198 -0.11650835 0.08553712 0.0934519 -0.07690042 0.086551666 -0.0041070497 0.17967717 -0.10824707 0.19996315 0.24005678 0.08795415 -0.08307546 -0.10415505 0.04564917 -0.12835582 0.009520453 0.102026135 0.11182409 0.003424344 -0.06824003 0.121518195
16 0.07761769 -0.08770626 0.05555652 -0.005210534 -0.20861468 0.053903468 0.09719728 0.08178544 -0.015636226 -0.082441576 -0.030941682 -0.13334487 0.051337477 -0.118956834 -0.07471659 -0.13564523 -0.042028267 -0.06332617 -0.0595885 0.055920575 -0.0032553133 0.11359928 -0.08196512 0.016491117 -0.10164601 0.095680155 -0.0010437274 0.2036713 0.04303195 -0.03003604 0.21662313 0.005859605 -0.14565606 -0.046493974 -0.040732067 -0.025887592 -0.014359282 -0.017675832 -0.053535372 -0.05137806 -0.16115835 0.017874947 0.0046757394 -0.015090853 -0.07705084 0.043699905 -0.03555759 0.061163805 -0.09143847 -0.006868743 0.111498795 -0.13961156 -0.039679315 -0.02700024 -0.07015818 0.017502487 -0.23863187 0.033425648 0.02414645 0.14761859 -0.055419814 0.1165149 0.056754842 0.08384243 -0.10377356 0.11224262 0.0025834017 0.14162464 -0.042223956 -0.07793299 0.055719435 0.115383565 -0.0029446732 -0.03921241 -0.09981884 -0.029988155 -0.0315535 0.070018895 0.07539544 -0.22868663 0.021818126 -0.04998805 -0.06262665 -0.06643583 -0.11319774 -0.0014801143 0.012907365 -0.1804814 0.06789631 0.32740676 -0.06472129 0.014671807 0.06544404 -0.010740998 0.17532265 0.089521565 -0.08411302 -0.083807595 0.21974279 -0.03191643 0.08089411 -0.16442835 0.07424177 -0.09807151 -0.1378236 -0.05650964 -0.081331305 -0.123065785 0.08691642 0.10141842 -0.069456786 0.09306331 -9.4651245e-05 0.17422073 -0.092866704 0.20880315 0.2336245 0.080558784 -0.09346205 -0.109463125 0.045839507 -0.11911134 0.015208458 0.09527342 0.11418472 0.014400377 -0.068862446 0.12532721
23 0.10804768 -0.09377497 0.07114568 -0.043471556 -0.24870159 0.068081945 0.08646402 0.07792228 -0.036606528 -0.09693924 -0.037107714 -0.13917094 0.05897635 -0.11286067 -0.12556253 -0.11549595 -0.021248939 -0.04967427 -0.07686647 0.047010176 0.015798321 0.14379644 -0.117940545 0.037920814 -0.14916593 0.11032978 0.028241254 0.23230043 -0.0019775922 -0.029771063 0.15829691 -0.030291868 -0.16023189 -0.07397633 -0.09599075 -0.04890016 0.018859418 -0.06350958 -0.056106906 -0.0018677085 -0.17465834 0.013688366 -0.04078707 -0.019655082 -0.11035765 0.055137105 -0.023895396 0.06178158 -0.1091268 -0.008652562 0.11196428 -0.1763337 -0.011180471 -0.032042664 -0.08931637 -0.0040756767 -0.20777832 0.03972093 0.085712634 0.13082677 -0.054663878 0.14731294 0.0792768 0.07869021 -0.10679477 0.13918258 -0.027502155 0.14232096 -0.049204666 -0.07919602 0.076186284 0.12070807 0.011787685 -0.004421263 -0.12424221 -0.002055816 -0.04686005 0.109840095 0.078610815 -0.24209604 0.05777513 -0.07949714 -0.06238683 -0.07302241 -0.08027705 -0.02629545 0.0024121352 -0.21497951 0.049208533 0.35272506 -0.091358095 -0.0445859 0.07049553 0.037215885 0.19970202 0.10620996 -0.09630638 -0.11922395 0.22273134 -0.017906696 0.06866745 -0.17136376 0.112080805 -0.13931482 -0.11728491 -0.053659193 -0.06576021 -0.10513215 0.086489126 0.09684088 -0.09426775 0.08377386 -0.044022046 0.2135124 -0.15805358 0.17986798 0.29555383 0.11907919 -0.07806708 -0.1057276 0.045158654 -0.18326731 -0.0003232829 0.13376057 0.1163243 -0.030301068 -0.09522469 0.1266811
27 0.10084789 -0.08993892 0.07078946 -0.050562628 -0.24706966 0.07093141 0.074944034 0.07069076 -0.046567887 -0.102747984 -0.03505 -0.13561112 0.054165974 -0.10728281 -0.13228779 -0.09992462 -0.01633561 -0.040661573 -0.08148606 0.048811276 0.0215534 0.14775474 -0.1202637 0.043246247 -0.16455846 0.111125104 0.0404796 0.23415199 -0.012903137 -0.0258948 0.13303927 -0.038032576 -0.16008991 -0.08122053 -0.114978984 -0.056714203 0.026057497 -0.069400884 -0.05570613 0.011639044 -0.17693321 0.008220862 -0.046159305 -0.023465106 -0.11231686 0.058348298 -0.024519507 0.0525331 -0.11073302 -0.013434693 0.106658764 -0.17746882 -0.0010509384 -0.03217463 -0.08627485 -0.0055410294 -0.19181551 0.038020726 0.09617197 0.12539916 -0.047142673 0.15451649 0.08202817 0.07941217 -0.10387966 0.1407237 -0.03497216 0.12939343 -0.054087885 -0.081958026 0.072918326 0.11643593 0.013324158 -0.001450452 -0.11963412 0.004104646 -0.04954203 0.116243884 0.07196444 -0.23208986 0.060244996 -0.08173133 -0.058954082 -0.07716133 -0.068402916 -0.03576725 -0.006387553 -0.21010827 0.04397096 0.3466348 -0.097405754 -0.061925504 0.06436357 0.053644463 0.20030911 0.10168924 -0.089663506 -0.12623757 0.2186147 -0.013506889 0.060329653 -0.16810638 0.11547851 -0.13874413 -0.11094108 -0.049451023 -0.06362509 -0.09494598 0.08086767 0.09396778 -0.101140015 0.081631355 -0.05309679 0.21279518 -0.16763237 0.16555128 0.30544457 0.125313 -0.073810466 -0.10586609 0.044760108 -0.19273765 -0.0052080094 0.13720888 0.10714322 -0.044025943 -0.09835421 0.11916023
12 0.040787205 -0.07833962 0.033221215 0.0672442 -0.16161343 0.046134017 0.14887567 0.0973904 0.033478074 -0.05279961 -0.023081452 -0.13480961 0.041275367 -0.14824 0.011023673 -0.20854558 -0.08506239 -0.107509196 -0.028772958 0.07325829 -0.029331869 0.07723593 -0.028644212 -0.03371649 -0.028189257 0.09329641 -0.05403113 0.1809494 0.12733325 -0.038266987 0.35919595 0.06678249 -0.12447541 -0.013872563 0.058759343 0.040303897 -0.08533185 0.055378933 -0.05726499 -0.15023795 -0.14527899 0.03864359 0.077574775 -0.017673805 -0.015601764 0.035978768 -0.05829967 0.06162873 -0.07018933 -0.0029031294 0.1301036 -0.08526799 -0.11517079 -0.01688914 -0.047702067 0.06848656 -0.330325 0.021206986 -0.09346304 0.19017315 -0.069593325 0.04915249 0.016084712 0.10648712 -0.104832605 0.078173 0.075146474 0.17944175 -0.033040468 -0.0748116 0.012393559 0.12200765 -0.03105686 -0.094907664 -0.07003155 -0.083936974 0.0019822011 -0.0028069383 0.09343052 -0.22347873 -0.04436552 0.01262431 -0.06715308 -0.03839879 -0.17826027 0.045519788 0.049499992 -0.13259485 0.104881965 0.3059942 -0.007326633 0.13311473 0.059984572 -0.120076075 0.12980653 0.067922 -0.07089279 -0.023089558 0.23253419 -0.07061621 0.12028064 -0.17114197 0.0096513275 -0.04367864 -0.18392524 -0.07284989 -0.10264996 -0.15609601 0.105077334 0.115465716 -0.0374897 0.1011174 0.09183222 0.11163954 0.01831919 0.2783335 0.13022654 0.01978745 -0.12523022 -0.11379007 0.04950252 0.0063440646 0.038830232 0.023443855 0.13300742 0.10736401 -0.024747744 0.120408654
